{"learner":{"attributes":{},"feature_names":["total_purchase_days_pre","purchases_per_week_all_pre","purchases_per_week_last_4w","purchases_per_week_last_2w","purchases_per_week_last_1w","days_since_last_purchase","purchased_in_last_7_days","purchased_in_last_14_days","total_orders_pre","total_spend_pre","total_spend_last_4w","total_spend_last_2w","mean_inter_purchase_interval_days","std_inter_purchase_interval_days","max_gap_between_purchases","cv_inter_purchase_interval","longest_consecutive_streak_days","share_weeks_with_purchase","modal_purchase_dow","share_purchases_dow0","share_purchases_dow1","share_purchases_dow2","share_purchases_dow3","share_purchases_dow4","share_purchases_dow5","share_purchases_dow6","entropy_dow","avg_basket_size","n_order_categories_avg","unique_stores_pre","preferred_store_ratio","second_store_ratio","avg_discount_per_order","coupon_usage_rate","avg_coffee_num","avg_food_num","avg_use_coffee_wallet","avg_delivery_pay","coffee_share_orders","take_address_rate","gender","level","has_inviter","manufacturer","callphone","push"],"feature_types":["int","float","float","float","float","int","int","int","int","float","float","float","float","float","float","float","int","float","int","float","float","float","float","float","float","float","float","float","float","int","float","float","float","float","float","float","float","float","float","float","int","int","int","int","int","int"],"gradient_booster":{"model":{"cats":{"enc":[],"feature_segments":[],"sorted_idx":[]},"gbtree_model_param":{"num_parallel_tree":"1","num_trees":"500"},"iteration_indptr":[0,1,2,3,4,5,6,7,8,9,10,11,12,13,14,15,16,17,18,19,20,21,22,23,24,25,26,27,28,29,30,31,32,33,34,35,36,37,38,39,40,41,42,43,44,45,46,47,48,49,50,51,52,53,54,55,56,57,58,59,60,61,62,63,64,65,66,67,68,69,70,71,72,73,74,75,76,77,78,79,80,81,82,83,84,85,86,87,88,89,90,91,92,93,94,95,96,97,98,99,100,101,102,103,104,105,106,107,108,109,110,111,112,113,114,115,116,117,118,119,120,121,122,123,124,125,126,127,128,129,130,131,132,133,134,135,136,137,138,139,140,141,142,143,144,145,146,147,148,149,150,151,152,153,154,155,156,157,158,159,160,161,162,163,164,165,166,167,168,169,170,171,172,173,174,175,176,177,178,179,180,181,182,183,184,185,186,187,188,189,190,191,192,193,194,195,196,197,198,199,200,201,202,203,204,205,206,207,208,209,210,211,212,213,214,215,216,217,218,219,220,221,222,223,224,225,226,227,228,229,230,231,232,233,234,235,236,237,238,239,240,241,242,243,244,245,246,247,248,249,250,251,252,253,254,255,256,257,258,259,260,261,262,263,264,265,266,267,268,269,270,271,272,273,274,275,276,277,278,279,280,281,282,283,284,285,286,287,288,289,290,291,292,293,294,295,296,297,298,299,300,301,302,303,304,305,306,307,308,309,310,311,312,313,314,315,316,317,318,319,320,321,322,323,324,325,326,327,328,329,330,331,332,333,334,335,336,337,338,339,340,341,342,343,344,345,346,347,348,349,350,351,352,353,354,355,356,357,358,359,360,361,362,363,364,365,366,367,368,369,370,371,372,373,374,375,376,377,378,379,380,381,382,383,384,385,386,387,388,389,390,391,392,393,394,395,396,397,398,399,400,401,402,403,404,405,406,407,408,409,410,411,412,413,414,415,416,417,418,419,420,421,422,423,424,425,426,427,428,429,430,431,432,433,434,435,436,437,438,439,440,441,442,443,444,445,446,447,448,449,450,451,452,453,454,455,456,457,458,459,460,461,462,463,464,465,466,467,468,469,470,471,472,473,474,475,476,477,478,479,480,481,482,483,484,485,486,487,488,489,490,491,492,493,494,495,496,497,498,499,500],"tree_info":[0,0,0,0,0,0,0,0,0,0,0,0,0,0,0,0,0,0,0,0,0,0,0,0,0,0,0,0,0,0,0,0,0,0,0,0,0,0,0,0,0,0,0,0,0,0,0,0,0,0,0,0,0,0,0,0,0,0,0,0,0,0,0,0,0,0,0,0,0,0,0,0,0,0,0,0,0,0,0,0,0,0,0,0,0,0,0,0,0,0,0,0,0,0,0,0,0,0,0,0,0,0,0,0,0,0,0,0,0,0,0,0,0,0,0,0,0,0,0,0,0,0,0,0,0,0,0,0,0,0,0,0,0,0,0,0,0,0,0,0,0,0,0,0,0,0,0,0,0,0,0,0,0,0,0,0,0,0,0,0,0,0,0,0,0,0,0,0,0,0,0,0,0,0,0,0,0,0,0,0,0,0,0,0,0,0,0,0,0,0,0,0,0,0,0,0,0,0,0,0,0,0,0,0,0,0,0,0,0,0,0,0,0,0,0,0,0,0,0,0,0,0,0,0,0,0,0,0,0,0,0,0,0,0,0,0,0,0,0,0,0,0,0,0,0,0,0,0,0,0,0,0,0,0,0,0,0,0,0,0,0,0,0,0,0,0,0,0,0,0,0,0,0,0,0,0,0,0,0,0,0,0,0,0,0,0,0,0,0,0,0,0,0,0,0,0,0,0,0,0,0,0,0,0,0,0,0,0,0,0,0,0,0,0,0,0,0,0,0,0,0,0,0,0,0,0,0,0,0,0,0,0,0,0,0,0,0,0,0,0,0,0,0,0,0,0,0,0,0,0,0,0,0,0,0,0,0,0,0,0,0,0,0,0,0,0,0,0,0,0,0,0,0,0,0,0,0,0,0,0,0,0,0,0,0,0,0,0,0,0,0,0,0,0,0,0,0,0,0,0,0,0,0,0,0,0,0,0,0,0,0,0,0,0,0,0,0,0,0,0,0,0,0,0,0,0,0,0,0,0,0,0,0,0,0,0,0,0,0,0,0,0,0,0,0,0,0,0,0,0,0,0,0,0,0,0,0,0,0,0,0,0,0,0,0,0,0,0,0,0,0,0,0,0,0,0,0,0,0,0,0,0,0,0,0,0,0,0,0,0,0,0,0,0,0,0,0,0,0,0],"trees":[{"base_weights":[-5.662713E-8,5.248473E-1,-7.940612E-1,2.0751303E-1,9.773319E-1,-5.7377435E-2,-1.4032547E0,5.351793E-1,-1.7054202E-1,4.053613E-1,1.1197734E0,3.0133587E-1,-2.932504E-1,-7.2052693E-1,-2.056175E0,7.7298886E-1,1.5697199E-1,-7.003415E-1,7.5026885E-2,-2.4536194E-1,8.422955E-1,1.1853876E0,5.346726E-1,4.49251E-1,-5.158873E-1,-5.0612205E-1,1.6923073E-1,-3.3793288E-1,-1.1209188E0,-2.1250973E0,-4.397913E-1,8.2768875E-1,-7.009294E-2,-2.9962983E-2,8.7405705E-1,-8.6158717E-1,9.321383E-2,1.6937862E-1,-1.5161034E-1,9.169768E-1,-9.244168E-1,1.0985548E0,-1.3205716E-1,-1.9407889E-2,1.2060744E0,-5.7046705E-1,8.634295E-1,7.526081E-1,-6.0425732E-2,-1.2592636E-1,1.1537857E-1,-8.63272E-1,4.8699025E-2,4.9702165E-1,-3.2316533E-1,1.99201E-1,-9.188593E-1,-6.2461054E-1,-1.8088143E0,-2.3969333E0,-1.5110605E0,2.8525386E-2,-9.05531E-2,8.8068545E-2,-3.8197123E-2,1.804016E-2,-1.1882397E-1,1.0846446E-1,-1.9407889E-2,7.4024945E-2,-1.0792575E-1,2.8012177E-2,-8.642905E-2,1.0352596E-1,2.8525386E-2,3.6281433E-2,-1.9289176E-1,1.243932E-1,-1.9407889E-2,5.6690462E-2,-9.05531E-2,8.770227E-2,1.3233499E-1,7.645866E-2,-1.6320771E-1,1.1199631E-1,-4.3586935E-3,5.2345425E-2,1.204464E-1,-5.1346656E-2,5.222779E-2,8.859146E-2,-7.009294E-2,-1.859166E-2,-1.3658123E-1,-3.1736724E-2,6.953054E-2,-2.5525494E-2,7.166441E-2,-8.6705424E-2,5.0686855E-2,-4.952405E-2,9.065362E-2,-1.5070165E-2,-1.5203878E-1,1.1502244E-2,-1.1752301E-1,-2.08288E-1,-5.7046708E-2,-3.7279527E-3,-2.4936555E-1,-1.9430357E-1,-5.7425655E-2],"categories":[],"categories_nodes":[],"categories_segments":[],"categories_sizes":[],"default_left":[0,0,0,0,0,0,0,0,0,0,0,0,0,0,0,0,0,0,0,0,0,0,0,0,0,0,0,0,0,0,0,0,0,0,0,0,0,0,0,0,0,0,0,0,0,0,0,0,0,0,0,0,0,0,0,0,0,0,0,0,0,0,0,0,0,0,0,0,0,0,0,0,0,0,0,0,0,0,0,0,0,0,0,0,0,0,0,0,0,0,0,0,0,0,0,0,0,0,0,0,0,0,0,0,0,0,0,0,0,0,0,0,0],"id":0,"left_children":[1,3,5,7,9,11,13,15,17,19,21,23,25,27,29,31,33,35,37,39,41,43,45,47,49,51,53,55,57,59,61,63,-1,65,67,69,-1,71,-1,73,75,77,79,-1,81,83,85,87,89,-1,91,93,95,97,99,101,103,105,107,109,111,-1,-1,-1,-1,-1,-1,-1,-1,-1,-1,-1,-1,-1,-1,-1,-1,-1,-1,-1,-1,-1,-1,-1,-1,-1,-1,-1,-1,-1,-1,-1,-1,-1,-1,-1,-1,-1,-1,-1,-1,-1,-1,-1,-1,-1,-1,-1,-1,-1,-1,-1,-1],"loss_changes":[1.96943E2,4.0649216E1,8.431285E1,2.096401E1,9.079147E0,7.37849E0,4.4382843E1,8.01886E0,1.0329527E1,7.285502E0,2.9408798E0,4.4230514E0,5.2529955E0,7.5617905E0,4.864319E0,5.039551E0,4.8779273E0,7.4139843E0,8.495282E0,9.353155E0,3.920598E0,2.599823E0,4.5656166E0,4.667479E0,2.8573923E0,7.214031E0,2.951842E0,8.900863E0,7.3702793E0,4.667755E0,1.4029526E0,3.7848282E0,0E0,7.445363E0,1.9014416E0,8.949625E0,0E0,6.2753096E0,0E0,3.913951E-2,1.0139118E1,2.511407E0,2.698275E0,0E0,1.9966431E0,5.7442226E0,2.1518087E0,1.3176279E0,3.4570427E0,0E0,3.1630163E0,7.2596607E0,3.799828E0,1.9633198E0,3.833184E0,7.983161E0,6.055152E0,6.6472154E0,2.1741447E0,7.374298E0,6.1462097E0,0E0,0E0,0E0,0E0,0E0,0E0,0E0,0E0,0E0,0E0,0E0,0E0,0E0,0E0,0E0,0E0,0E0,0E0,0E0,0E0,0E0,0E0,0E0,0E0,0E0,0E0,0E0,0E0,0E0,0E0,0E0,0E0,0E0,0E0,0E0,0E0,0E0,0E0,0E0,0E0,0E0,0E0,0E0,0E0,0E0,0E0,0E0,0E0,0E0,0E0,0E0,0E0],"parents":[2147483647,0,0,1,1,2,2,3,3,4,4,5,5,6,6,7,7,8,8,9,9,10,10,11,11,12,12,13,13,14,14,15,15,16,16,17,17,18,18,19,19,20,20,21,21,22,22,23,23,24,24,25,25,26,26,27,27,28,28,29,29,30,30,31,31,33,33,34,34,35,35,37,37,39,39,40,40,41,41,42,42,44,44,45,45,46,46,47,47,48,48,50,50,51,51,52,52,53,53,54,54,55,55,56,56,57,57,58,58,59,59,60,60],"right_children":[2,4,6,8,10,12,14,16,18,20,22,24,26,28,30,32,34,36,38,40,42,44,46,48,50,52,54,56,58,60,62,64,-1,66,68,70,-1,72,-1,74,76,78,80,-1,82,84,86,88,90,-1,92,94,96,98,100,102,104,106,108,110,112,-1,-1,-1,-1,-1,-1,-1,-1,-1,-1,-1,-1,-1,-1,-1,-1,-1,-1,-1,-1,-1,-1,-1,-1,-1,-1,-1,-1,-1,-1,-1,-1,-1,-1,-1,-1,-1,-1,-1,-1,-1,-1,-1,-1,-1,-1,-1,-1,-1,-1,-1,-1],"split_conditions":[3.1E1,7.5E-1,5E0,9.83298E-1,3.6363637E-1,3E0,4.9E1,1.2903225E-1,7.48E1,3.75E-1,1.2222222E0,1.1164274E0,7.8E1,8.695652E-2,1.580329E0,3.5E0,1.3327E3,3.5E-1,3.804E2,1.2945452E0,2.3076923E-1,2.511E2,1.5142857E0,5.8E1,1.1824957E0,5.208333E-1,1.3513514E-2,2.7E1,9.827E2,4.6052632E-1,5.7971016E-2,3E0,-7.009294E-2,9.0209997E-1,1.7391305E-1,1.9444445E-1,9.321383E-2,1.18E2,-1.5161034E-1,5.303E2,2.857143E-1,3.4210527E-1,3.7037037E-2,-1.9407889E-2,9.044E2,1.891892E-1,2.9E0,4.9E1,3.46875E0,-1.2592636E-1,1.904762E-1,6.837389E-1,2.6086956E-1,1.085E2,3.46875E0,8.481E2,1.5789473E-1,1.3043478E-1,2.015504E-1,9.5027053E-1,3.8E0,2.8525386E-2,-9.05531E-2,8.8068545E-2,-3.8197123E-2,1.804016E-2,-1.1882397E-1,1.0846446E-1,-1.9407889E-2,7.4024945E-2,-1.0792575E-1,2.8012177E-2,-8.642905E-2,1.0352596E-1,2.8525386E-2,3.6281433E-2,-1.9289176E-1,1.243932E-1,-1.9407889E-2,5.6690462E-2,-9.05531E-2,8.770227E-2,1.3233499E-1,7.645866E-2,-1.6320771E-1,1.1199631E-1,-4.3586935E-3,5.2345425E-2,1.204464E-1,-5.1346656E-2,5.222779E-2,8.859146E-2,-7.009294E-2,-1.859166E-2,-1.3658123E-1,-3.1736724E-2,6.953054E-2,-2.5525494E-2,7.166441E-2,-8.6705424E-2,5.0686855E-2,-4.952405E-2,9.065362E-2,-1.5070165E-2,-1.5203878E-1,1.1502244E-2,-1.1752301E-1,-2.08288E-1,-5.7046708E-2,-3.7279527E-3,-2.4936555E-1,-1.9430357E-1,-5.7425655E-2],"split_indices":[5,2,0,15,34,45,5,22,11,17,34,15,5,24,15,27,9,22,11,26,19,10,27,5,15,34,25,14,9,1,22,29,0,15,36,1,0,43,0,10,17,36,24,0,9,19,27,5,32,0,17,26,23,9,32,9,19,23,21,26,12,0,0,0,0,0,0,0,0,0,0,0,0,0,0,0,0,0,0,0,0,0,0,0,0,0,0,0,0,0,0,0,0,0,0,0,0,0,0,0,0,0,0,0,0,0,0,0,0,0,0,0,0],"split_type":[0,0,0,0,0,0,0,0,0,0,0,0,0,0,0,0,0,0,0,0,0,0,0,0,0,0,0,0,0,0,0,0,0,0,0,0,0,0,0,0,0,0,0,0,0,0,0,0,0,0,0,0,0,0,0,0,0,0,0,0,0,0,0,0,0,0,0,0,0,0,0,0,0,0,0,0,0,0,0,0,0,0,0,0,0,0,0,0,0,0,0,0,0,0,0,0,0,0,0,0,0,0,0,0,0,0,0,0,0,0,0,0,0],"sum_hessian":[4.705563E2,2.8350693E2,1.870494E2,1.674972E2,1.1600973E2,8.51607E1,1.01888695E2,8.950563E1,7.799156E1,2.3897135E1,9.2112595E1,3.3673237E1,5.1487465E1,5.0835724E1,5.105297E1,5.4311672E1,3.5193962E1,2.4114382E1,5.387718E1,9.776101E0,1.4121035E1,8.1902E1,1.0210594E1,2.8893808E1,4.779427E0,3.5193962E1,1.62935E1,2.693859E1,2.3897135E1,4.8663258E1,2.3897135E0,5.2790943E1,1.5207268E0,2.8676561E1,6.5174003E0,2.2376408E1,1.7379735E0,5.1704712E1,2.1724668E0,3.475947E0,6.3001537E0,1.107958E1,3.0414536E0,1.0862334E0,8.0815765E1,2.1724668E0,8.038127E0,1.7814228E1,1.107958E1,1.7379735E0,3.0414536E0,2.1072927E1,1.4121035E1,9.776101E0,6.5174003E0,1.4338281E1,1.2600307E1,1.4990021E1,8.907114E0,3.1718016E1,1.6945242E1,1.0862334E0,1.3034801E0,5.0835724E1,1.9552201E0,2.4983368E1,3.6931937E0,5.431167E0,1.0862334E0,2.3897135E0,1.9986694E1,4.7359776E1,4.3449335E0,2.3897135E0,1.0862334E0,3.0414536E0,3.2587001E0,9.993347E0,1.0862334E0,1.7379735E0,1.3034801E0,2.346264E1,5.7353123E1,1.0862334E0,1.0862334E0,6.082907E0,1.9552201E0,1.3252048E1,4.5621805E0,6.3001537E0,4.779427E0,1.5207268E0,1.5207268E0,9.558854E0,1.1514074E1,9.341607E0,4.779427E0,2.1724668E0,7.603634E0,3.9104402E0,2.6069603E0,7.3863873E0,6.951894E0,6.082907E0,6.5174003E0,6.7346473E0,8.255374E0,6.7346473E0,2.1724668E0,1.3034801E0,3.0414536E1,1.0862334E1,6.082907E0],"tree_param":{"num_deleted":"0","num_feature":"46","num_nodes":"113","size_leaf_vector":"1"}},{"base_weights":[7.929217E-5,4.840668E-1,-7.009313E-1,1.8829635E-1,9.179797E-1,-5.1015764E-2,-1.2171906E0,7.236423E-1,-1.7135125E-2,3.750217E-1,1.056759E0,2.7709895E-1,-2.6253843E-1,-6.427155E-1,-1.7445897E0,1.1820247E0,5.2324384E-1,3.0033284E-1,-2.6242635E-1,-2.1940461E-1,7.888467E-1,1.1213065E0,4.948581E-1,4.1712326E-1,-4.7636434E-1,-4.701076E-1,1.320698E-1,-3.143954E-1,-1.0024732E0,-1.0247258E0,-1.8819797E0,2.4434414E-2,1.2424681E0,-2.8088775E-2,6.9677734E-1,-2.7737516E-1,5.6670773E-1,-7.059142E-1,1.3153364E-1,7.58386E-1,-9.09897E-1,1.0397246E0,-1.2636879E-1,-1.832737E-2,1.1419086E0,-5.340531E-1,8.13453E-1,7.0494944E-1,-5.3768106E-2,-1.14630066E-1,1.0964751E-1,-9.219886E-1,7.163401E-2,3.1505734E-1,-6.242E-1,-3.9841015E-2,-1.3333308E0,-1.3175263E0,-9.057394E-3,-1.5914164E-1,-1.5023206E0,-2.0798466E0,-1.2382078E0,1.3085167E-1,2.9798878E-2,7.650939E-2,-4.5655396E-2,1.02415875E-1,4.4255614E-2,5.964308E-2,-1.0222919E-1,7.833002E-2,-1.0945714E-2,-1.4068565E-1,-1.4917326E-2,2.6643747E-2,-1.2920146E-1,1.6932039E-2,1.007842E-1,-1.7663519E-1,4.6258025E-2,1.1842807E-1,-1.832737E-2,5.3846847E-2,-8.385435E-2,8.201081E-2,1.2587754E-1,7.3627196E-2,-1.5020007E-1,1.0644597E-1,-4.0658526E-3,8.229422E-2,7.0505287E-3,4.1966766E-2,-6.041478E-2,8.503725E-2,-6.484965E-2,-1.0675993E-1,7.716168E-2,-1.8096318E-2,1.0537781E-1,-8.914226E-3,1.1627519E-1,-1.0708769E-1,3.0010158E-2,-5.706678E-2,4.802048E-2,-5.6616474E-2,-1.932181E-1,-6.9860267E-3,-1.6260667E-1,-6.8660945E-2,8.017249E-2,-8.213208E-2,4.5538962E-2,-4.479524E-2,-1.9150065E-1,-2.184232E-1,-7.853176E-2,-1.4874421E-1,6.587421E-3],"categories":[],"categories_nodes":[],"categories_segments":[],"categories_sizes":[],"default_left":[0,0,0,0,0,0,0,0,0,0,0,0,0,0,0,0,0,0,0,0,0,0,0,0,0,0,0,0,0,0,0,0,0,0,0,0,0,0,0,0,0,0,0,0,0,0,0,0,0,0,0,0,0,0,0,0,0,0,0,0,0,0,0,0,0,0,0,0,0,0,0,0,0,0,0,0,0,0,0,0,0,0,0,0,0,0,0,0,0,0,0,0,0,0,0,0,0,0,0,0,0,0,0,0,0,0,0,0,0,0,0,0,0,0,0,0,0,0,0,0,0],"id":1,"left_children":[1,3,5,7,9,11,13,15,17,19,21,23,25,27,29,31,33,35,37,39,41,43,45,47,49,51,53,55,57,59,61,-1,63,65,67,69,71,73,75,77,79,81,83,-1,85,87,89,91,93,-1,95,97,99,101,103,105,107,109,111,113,115,117,119,-1,-1,-1,-1,-1,-1,-1,-1,-1,-1,-1,-1,-1,-1,-1,-1,-1,-1,-1,-1,-1,-1,-1,-1,-1,-1,-1,-1,-1,-1,-1,-1,-1,-1,-1,-1,-1,-1,-1,-1,-1,-1,-1,-1,-1,-1,-1,-1,-1,-1,-1,-1,-1,-1,-1,-1,-1,-1],"loss_changes":[1.5987814E2,3.560337E1,6.4514E1,1.8381596E1,8.098534E0,6.0585413E0,3.1363022E1,3.638546E0,9.554659E0,6.199679E0,2.6816711E0,3.8166723E0,4.3994274E0,5.9333076E0,3.5422974E0,4.5038795E-1,3.276332E0,8.390959E0,1.2179627E1,8.007362E0,3.497797E0,2.3393478E0,4.0352726E0,4.029604E0,2.4188318E0,8.614526E0,2.8306828E0,8.092203E0,7.745323E0,4.33337E0,3.189331E0,0E0,3.7442017E-1,3.4455004E0,1.7047949E0,1.2037507E1,5.496969E0,1.2551506E1,7.5416546E0,5.686612E-1,8.818197E0,2.2705908E0,2.367222E0,0E0,1.9070435E0,5.0416303E0,1.9264345E0,1.3156309E0,3.4069014E0,0E0,2.8137054E0,5.5366936E0,4.360739E0,5.5824394E0,1.9908262E0,6.890164E0,1.731185E0,7.1276207E0,4.3820124E0,2.4295528E0,2.1920843E0,2.7634735E0,4.359173E0,0E0,0E0,0E0,0E0,0E0,0E0,0E0,0E0,0E0,0E0,0E0,0E0,0E0,0E0,0E0,0E0,0E0,0E0,0E0,0E0,0E0,0E0,0E0,0E0,0E0,0E0,0E0,0E0,0E0,0E0,0E0,0E0,0E0,0E0,0E0,0E0,0E0,0E0,0E0,0E0,0E0,0E0,0E0,0E0,0E0,0E0,0E0,0E0,0E0,0E0,0E0,0E0,0E0,0E0,0E0,0E0,0E0,0E0],"parents":[2147483647,0,0,1,1,2,2,3,3,4,4,5,5,6,6,7,7,8,8,9,9,10,10,11,11,12,12,13,13,14,14,15,15,16,16,17,17,18,18,19,19,20,20,21,21,22,22,23,23,24,24,25,25,26,26,27,27,28,28,29,29,30,30,32,32,33,33,34,34,35,35,36,36,37,37,38,38,39,39,40,40,41,41,42,42,44,44,45,45,46,46,47,47,48,48,50,50,51,51,52,52,53,53,54,54,55,55,56,56,57,57,58,58,59,59,60,60,61,61,62,62],"right_children":[2,4,6,8,10,12,14,16,18,20,22,24,26,28,30,32,34,36,38,40,42,44,46,48,50,52,54,56,58,60,62,-1,64,66,68,70,72,74,76,78,80,82,84,-1,86,88,90,92,94,-1,96,98,100,102,104,106,108,110,112,114,116,118,120,-1,-1,-1,-1,-1,-1,-1,-1,-1,-1,-1,-1,-1,-1,-1,-1,-1,-1,-1,-1,-1,-1,-1,-1,-1,-1,-1,-1,-1,-1,-1,-1,-1,-1,-1,-1,-1,-1,-1,-1,-1,-1,-1,-1,-1,-1,-1,-1,-1,-1,-1,-1,-1,-1,-1,-1,-1,-1],"split_conditions":[3.1E1,7.5E-1,5E0,4.325E2,3.6363637E-1,3E0,4.9E1,7E0,9.83298E-1,3.75E-1,1.2222222E0,1.1164274E0,5.208333E-1,9.52381E-2,1.2554823E0,9.92E1,1.1E1,6.451613E-2,4.6666667E-1,1.3337361E0,2.3076923E-1,2.511E2,1.5142857E0,5.8E1,1.1824957E0,6.5E1,2.3809524E-1,1.3973738E0,2.236842E-1,6.3E1,5E-1,2.4434414E-2,1.02E2,9.8E1,2.6666668E-1,6.937E2,2.2727273E-1,3.4571428E0,3.0769232E-1,2E0,1.6116943E0,3.4210527E-1,3.7037037E-2,-1.832737E-2,9.044E2,1.891892E-1,2.9E0,2.0588236E-1,1.3815789E-1,-1.14630066E-1,1.904762E-1,5.2E-1,3.5E-1,2.631579E-2,4.032E2,8.68E2,1.7142858E-1,6.183E2,3E0,5.4E1,6.571E2,3.0769232E-1,8.8E1,1.3085167E-1,2.9798878E-2,7.650939E-2,-4.5655396E-2,1.02415875E-1,4.4255614E-2,5.964308E-2,-1.0222919E-1,7.833002E-2,-1.0945714E-2,-1.4068565E-1,-1.4917326E-2,2.6643747E-2,-1.2920146E-1,1.6932039E-2,1.007842E-1,-1.7663519E-1,4.6258025E-2,1.1842807E-1,-1.832737E-2,5.3846847E-2,-8.385435E-2,8.201081E-2,1.2587754E-1,7.3627196E-2,-1.5020007E-1,1.0644597E-1,-4.0658526E-3,8.229422E-2,7.0505287E-3,4.1966766E-2,-6.041478E-2,8.503725E-2,-6.484965E-2,-1.0675993E-1,7.716168E-2,-1.8096318E-2,1.0537781E-1,-8.914226E-3,1.1627519E-1,-1.0708769E-1,3.0010158E-2,-5.706678E-2,4.802048E-2,-5.6616474E-2,-1.932181E-1,-6.9860267E-3,-1.6260667E-1,-6.8660945E-2,8.017249E-2,-8.213208E-2,4.5538962E-2,-4.479524E-2,-1.9150065E-1,-2.184232E-1,-7.853176E-2,-1.4874421E-1,6.587421E-3],"split_indices":[5,2,0,9,34,45,5,5,15,17,34,15,34,24,26,9,5,21,38,26,19,10,27,5,15,5,17,15,21,5,1,0,14,11,34,9,22,32,25,44,15,36,24,0,9,19,27,19,1,0,17,24,20,23,9,9,22,9,44,5,9,24,5,0,0,0,0,0,0,0,0,0,0,0,0,0,0,0,0,0,0,0,0,0,0,0,0,0,0,0,0,0,0,0,0,0,0,0,0,0,0,0,0,0,0,0,0,0,0,0,0,0,0,0,0,0,0,0,0,0,0],"split_type":[0,0,0,0,0,0,0,0,0,0,0,0,0,0,0,0,0,0,0,0,0,0,0,0,0,0,0,0,0,0,0,0,0,0,0,0,0,0,0,0,0,0,0,0,0,0,0,0,0,0,0,0,0,0,0,0,0,0,0,0,0,0,0,0,0,0,0,0,0,0,0,0,0,0,0,0,0,0,0,0,0,0,0,0,0,0,0,0,0,0,0,0,0,0,0,0,0,0,0,0,0,0,0,0,0,0,0,0,0,0,0,0,0,0,0,0,0,0,0,0,0],"sum_hessian":[4.6922708E2,2.7776425E2,1.9146284E2,1.6602776E2,1.1173648E2,8.5246E1,1.0621684E2,4.5343063E1,1.206847E2,2.3499527E1,8.823695E1,3.3292515E1,5.1953487E1,5.190137E1,5.431547E1,1.2303112E1,3.303995E1,5.250533E1,6.8179375E1,9.837936E0,1.3661592E1,7.8252266E1,9.984689E0,2.8451462E1,4.8410544E0,3.3919865E1,1.8033623E1,2.8116112E1,2.3785261E1,1.006064E1,4.425483E1,1.0504012E0,1.125271E1,8.11044E0,2.4929512E1,1.655655E1,3.594878E1,3.1701069E1,3.6478302E1,4.0311666E0,5.80677E0,1.0615608E1,3.0459826E0,1.0938011E0,7.715846E1,2.2008162E0,7.7838726E0,1.7349657E1,1.1101805E1,1.8126755E0,3.0283787E0,1.8111055E1,1.5808808E1,1.4990031E1,3.0435917E0,2.2966766E1,5.1493454E0,1.7810545E1,5.974716E0,4.0513186E0,6.009322E0,3.2144363E1,1.2110466E1,1.0156982E1,1.0957277E0,2.5689993E0,5.5414405E0,9.572985E0,1.5356526E1,7.7108555E0,8.845694E0,2.7107216E1,8.841562E0,1.3357232E1,1.8343836E1,3.4063118E1,2.415187E0,1.698674E0,2.3324926E0,3.3988404E0,2.4079292E0,9.521808E0,1.0938011E0,1.7014942E0,1.3444884E0,2.2691988E1,5.4466473E1,1.0552559E0,1.1455603E0,5.8255734E0,1.9582992E0,1.437847E1,2.9711876E0,6.095747E0,5.0060577E0,1.4702544E0,1.5581243E0,1.701757E1,1.0934855E0,1.3223587E1,2.5852215E0,1.0756117E1,4.2339144E0,1.9450499E0,1.098542E0,1.1317403E1,1.1649363E1,3.1102862E0,2.0390594E0,3.7743535E0,1.4036191E1,3.338206E0,2.6365101E0,1.7880895E0,2.263229E0,2.2770805E0,3.7322416E0,2.9109795E1,3.0345697E0,1.0049261E1,2.0612044E0],"tree_param":{"num_deleted":"0","num_feature":"46","num_nodes":"121","size_leaf_vector":"1"}},{"base_weights":[4.4870574E-4,-4.7726312E-1,6.03144E-1,2.2426806E-2,-8.316775E-1,3.808292E-1,1.0268373E0,1.2678921E-1,-6.335705E-1,-4.1181016E-1,-1.5241823E0,6.937688E-1,1.14201926E-1,1.1629288E0,5.971414E-1,2.68509E-1,-5.4044324E-1,-1.3827757E0,-8.120077E-2,-7.564314E-2,-7.470617E-1,-1.5645072E0,-1.0532721E-2,8.792024E-1,3.2182825E-1,-8.1134826E-2,9.6292555E-1,2.956426E-1,1.2257679E0,-2.5632882E-1,8.379762E-1,1.6150506E-1,8.4692514E-1,2.0084E-2,-9.953045E-1,1.4968969E-2,-1.9126412E-1,7.581101E-1,-7.5708026E-1,-9.051032E-1,1.569528E-1,-8.7455136E-1,5.5986744E-1,-1.6102527E0,-2.5209546E-2,9.3609226E-1,-5.1457036E-2,-1.00162484E-1,8.2724077E-1,-4.4872385E-1,1.9919045E-1,1.202234E0,-4.0035933E-2,9.521774E-2,-6.03059E-2,1.2432822E0,2.8086612E-2,8.271649E-2,-9.308541E-1,9.892277E-1,-2.4506986E-2,2.5603956E-2,-6.679051E-2,-1.7023383E-2,9.6366055E-2,-3.3830028E-2,9.202277E-2,-1.9412642E-2,-1.5504518E-1,1.06824555E-1,-1.5430088E-2,3.461387E-3,-1.17634594E-1,-1.23708986E-1,1.9010987E-2,-1.6967999E-3,8.6936854E-2,-7.0867434E-2,-1.5406713E-1,1.0877871E-1,-6.795152E-2,-1.6454358E-1,-2.070946E-2,9.945729E-2,-3.567962E-2,4.0170353E-2,-9.707122E-2,1.0522914E-1,-2.0351306E-2,-8.536115E-5,-1.1197352E-1,-1.3664281E-1,2.9663553E-2,1.2756102E-1,3.2327916E-2,-6.163412E-2,7.281209E-2,1.2790242E-1,5.6403846E-2,-5.7078428E-3,-1.3926661E-1,-2.9767012E-2,1.1175972E-1],"categories":[],"categories_nodes":[],"categories_segments":[],"categories_sizes":[],"default_left":[0,0,0,0,0,0,0,0,0,0,0,0,0,0,0,0,0,0,0,0,0,0,0,0,0,0,0,0,0,0,0,0,0,0,0,0,0,0,0,0,0,0,0,0,0,0,0,0,0,0,0,0,0,0,0,0,0,0,0,0,0,0,0,0,0,0,0,0,0,0,0,0,0,0,0,0,0,0,0,0,0,0,0,0,0,0,0,0,0,0,0,0,0,0,0,0,0,0,0,0,0,0,0],"id":2,"left_children":[1,3,5,7,9,11,13,15,17,19,21,23,25,27,29,31,33,35,37,39,41,43,-1,45,47,49,51,53,55,57,59,61,63,65,67,-1,-1,69,71,73,75,77,79,81,-1,83,-1,85,87,89,91,93,95,-1,-1,97,-1,-1,99,101,-1,-1,-1,-1,-1,-1,-1,-1,-1,-1,-1,-1,-1,-1,-1,-1,-1,-1,-1,-1,-1,-1,-1,-1,-1,-1,-1,-1,-1,-1,-1,-1,-1,-1,-1,-1,-1,-1,-1,-1,-1,-1,-1],"loss_changes":[1.3479303E2,4.6270245E1,1.9107475E1,7.566267E0,4.380619E1,1.1381578E1,3.4369507E0,9.144436E0,6.1676416E0,1.0819962E1,3.114334E0,4.061716E0,1.2572396E1,2.5042648E0,4.130194E0,4.763003E0,4.3555613E0,5.4649105E0,6.131657E0,9.653603E0,8.521877E0,2.9354858E0,0E0,3.769001E0,4.889056E0,6.497278E0,3.451023E0,3.4485333E0,4.572296E-1,4.3935156E0,2.714489E0,5.5060716E0,1.603548E0,3.0849428E0,3.882965E0,0E0,0E0,1.5428724E0,2.0081773E0,4.2147093E0,4.891093E0,3.804451E0,3.9414663E0,2.3051147E0,0E0,3.393383E0,0E0,6.1451674E0,2.617813E0,8.177132E0,5.8934593E0,3.2793808E-1,2.0862637E0,0E0,0E0,4.329605E-1,0E0,0E0,1.3434088E0,2.5529604E0,0E0,0E0,0E0,0E0,0E0,0E0,0E0,0E0,0E0,0E0,0E0,0E0,0E0,0E0,0E0,0E0,0E0,0E0,0E0,0E0,0E0,0E0,0E0,0E0,0E0,0E0,0E0,0E0,0E0,0E0,0E0,0E0,0E0,0E0,0E0,0E0,0E0,0E0,0E0,0E0,0E0,0E0,0E0],"parents":[2147483647,0,0,1,1,2,2,3,3,4,4,5,5,6,6,7,7,8,8,9,9,10,10,11,11,12,12,13,13,14,14,15,15,16,16,17,17,18,18,19,19,20,20,21,21,23,23,24,24,25,25,26,26,27,27,28,28,29,29,30,30,31,31,32,32,33,33,34,34,37,37,38,38,39,39,40,40,41,41,42,42,43,43,45,45,47,47,48,48,49,49,50,50,51,51,52,52,55,55,58,58,59,59],"right_children":[2,4,6,8,10,12,14,16,18,20,22,24,26,28,30,32,34,36,38,40,42,44,-1,46,48,50,52,54,56,58,60,62,64,66,68,-1,-1,70,72,74,76,78,80,82,-1,84,-1,86,88,90,92,94,96,-1,-1,98,-1,-1,100,102,-1,-1,-1,-1,-1,-1,-1,-1,-1,-1,-1,-1,-1,-1,-1,-1,-1,-1,-1,-1,-1,-1,-1,-1,-1,-1,-1,-1,-1,-1,-1,-1,-1,-1,-1,-1,-1,-1,-1,-1,-1,-1,-1],"split_conditions":[7.48E1,5E0,1E0,1.1490597E0,4.9E1,7.011E2,7E0,3.478261E-1,3.846154E-2,2.8E1,2.2941177E0,2.826128E1,1.5E1,2.631579E-2,3.375E0,1.0608569E0,1.8421052E-1,3.3E1,1.904762E-1,3.65625E0,7E0,1.580329E0,-1.0532721E-2,6.666667E-1,1.904E2,4.5E-1,2.6086956E-1,2.173913E-1,6E0,1.531716E0,6.228E2,6.096E2,2.522E2,7.0526314E0,2.8845E2,1.4968969E-2,-1.9126412E-1,1.6166666E1,2.6666668E-1,8.636364E-1,8.125E-1,2.54E1,8.636364E-1,1E0,-2.5209546E-2,1.125E0,-5.1457036E-2,1.764706E-1,3.2665E2,5.5E1,3.2666667E0,2.9E1,1.18644066E-1,9.521774E-2,-6.03059E-2,3.5714287E-1,2.8086612E-2,8.271649E-2,1.5E0,5.8925563E-1,-2.4506986E-2,2.5603956E-2,-6.679051E-2,-1.7023383E-2,9.6366055E-2,-3.3830028E-2,9.202277E-2,-1.9412642E-2,-1.5504518E-1,1.06824555E-1,-1.5430088E-2,3.461387E-3,-1.17634594E-1,-1.23708986E-1,1.9010987E-2,-1.6967999E-3,8.6936854E-2,-7.0867434E-2,-1.5406713E-1,1.0877871E-1,-6.795152E-2,-1.6454358E-1,-2.070946E-2,9.945729E-2,-3.567962E-2,4.0170353E-2,-9.707122E-2,1.0522914E-1,-2.0351306E-2,-8.536115E-5,-1.1197352E-1,-1.3664281E-1,2.9663553E-2,1.2756102E-1,3.2327916E-2,-6.163412E-2,7.281209E-2,1.2790242E-1,5.6403846E-2,-5.7078428E-3,-1.3926661E-1,-2.9767012E-2,1.1175972E-1],"split_indices":[11,0,2,26,5,9,5,19,21,14,27,13,8,23,12,26,1,43,17,12,41,15,0,22,10,38,20,22,18,13,11,9,9,12,9,0,0,12,34,38,1,12,34,37,0,37,0,25,11,43,32,0,22,0,0,19,0,0,3,15,0,0,0,0,0,0,0,0,0,0,0,0,0,0,0,0,0,0,0,0,0,0,0,0,0,0,0,0,0,0,0,0,0,0,0,0,0,0,0,0,0,0,0],"split_type":[0,0,0,0,0,0,0,0,0,0,0,0,0,0,0,0,0,0,0,0,0,0,0,0,0,0,0,0,0,0,0,0,0,0,0,0,0,0,0,0,0,0,0,0,0,0,0,0,0,0,0,0,0,0,0,0,0,0,0,0,0,0,0,0,0,0,0,0,0,0,0,0,0,0,0,0,0,0,0,0,0,0,0,0,0,0,0,0,0,0,0,0,0,0,0,0,0,0,0,0,0,0,0],"sum_hessian":[4.6617023E2,2.6016492E2,2.060053E2,1.0834528E2,1.5181964E2,1.3635678E2,6.964851E1,9.4170456E1,1.4174827E1,9.550774E1,5.63119E1,6.199335E1,7.4363434E1,5.1599693E1,1.8048824E1,7.816569E1,1.6004768E1,5.377592E0,8.797235E0,4.8300735E1,4.7207E1,5.4655884E1,1.6560156E0,4.0458603E1,2.1534748E1,6.1185726E1,1.3177708E1,3.8714807E0,4.772821E1,3.95803E0,1.4090795E1,6.704241E1,1.1123275E1,7.597807E0,8.4069605E0,1.5659835E0,3.8116086E0,3.869903E0,4.9273314E0,9.944907E0,3.835583E1,4.331272E1,3.8942773E0,5.2595665E1,2.0602202E0,3.9187458E1,1.2711445E0,1.21728945E1,9.361854E0,2.6212582E1,3.4973145E1,1.047877E1,2.6989377E0,2.2027712E0,1.6687095E0,4.654961E1,1.1786022E0,1.4318115E0,2.5262184E0,1.244011E1,1.6506842E0,6.0803455E1,6.2389565E0,1.0979699E0,1.0025305E1,5.880649E0,1.717158E0,3.9934187E0,4.4135423E0,2.7607195E0,1.1091835E0,2.0236118E0,2.9037197E0,7.5321727E0,2.412734E0,3.1614115E1,6.741716E0,3.6329777E1,6.982947E0,2.8167765E0,1.0775009E0,5.1140686E1,1.454976E0,3.771237E1,1.4750891E0,8.063123E0,4.1097717E0,7.6669817E0,1.6948724E0,1.6320587E1,9.891994E0,1.2861669E0,3.3686977E1,9.25488E0,1.2238895E0,1.654954E0,1.0439836E0,4.3383736E1,3.165876E0,1.2620127E0,1.2642059E0,1.0087347E0,1.14313755E1],"tree_param":{"num_deleted":"0","num_feature":"46","num_nodes":"103","size_leaf_vector":"1"}},{"base_weights":[8.35082E-4,5.34684E-1,-4.5039803E-1,2.4420084E-1,8.564006E-1,2.9691732E-2,-7.918818E-1,6.7492527E-1,5.076518E-2,5.803859E-1,1.0681876E0,1.3102442E-1,-5.7411367E-1,-4.221264E-1,-1.3432664E0,7.2886395E-1,-3.8314458E-2,-4.2447236E-1,2.4581614E-1,9.91032E-1,1.8787552E-1,1.1136161E0,-3.650273E-2,2.6405242E-1,-4.7259608E-1,-1.2309355E0,-7.4229054E-2,-1.3370634E0,-2.9230765E-1,-1.654197E0,-1.0976225E0,8.589867E-1,1.8937345E-1,1.301386E-1,-8.01797E-1,-2.2100176E-1,4.9684435E-1,2.8323174E-1,1.221322E0,-9.2891954E-2,1.1333268E-1,-6.201088E-3,1.1449788E0,-5.2640446E-2,4.8918396E-1,-6.9481224E-1,3.9239815E-1,1.4098662E-2,-1.6853156E0,7.1856034E-1,-6.8802005E-1,-1.6229507E0,4.1560438E-2,1.5742783E-2,-5.598732E-1,-1.7455562E0,-1.5755666E-2,-1.1940521E0,-8.407815E-2,9.371882E-2,-1.7729573E-2,-5.2206855E-2,7.011216E-2,-7.289618E-2,7.3966E-2,-1.3622658E-1,2.1778464E-2,-4.7573224E-2,8.540324E-2,6.612927E-2,-8.051618E-2,7.675764E-2,-1.0707656E-1,1.2735793E-1,4.400006E-2,-6.822485E-2,2.4281487E-2,1.1755232E-1,3.201048E-2,1.8112747E-2,-7.433359E-2,1.9144615E-2,7.398882E-2,9.589441E-3,-1.07398294E-1,6.350113E-2,-1.3007796E-2,-5.168363E-2,-1.906978E-1,1.02288224E-1,-1.4578195E-2,3.2321399E-3,-1.0596136E-1,-1.8672296E-1,-2.307676E-2,-3.1442262E-2,7.106396E-2,-3.3459548E-2,-1.21686034E-1,-1.8060492E-1,-3.8043942E-2,-1.320958E-1,-1.4796722E-2,-8.213633E-2,9.435833E-2],"categories":[],"categories_nodes":[],"categories_segments":[],"categories_sizes":[],"default_left":[0,0,0,0,0,0,0,0,0,0,0,0,0,0,0,0,0,0,0,0,0,0,0,0,0,0,0,0,0,0,0,0,0,0,0,0,0,0,0,0,0,0,0,0,0,0,0,0,0,0,0,0,0,0,0,0,0,0,0,0,0,0,0,0,0,0,0,0,0,0,0,0,0,0,0,0,0,0,0,0,0,0,0,0,0,0,0,0,0,0,0,0,0,0,0,0,0,0,0,0,0,0,0,0,0],"id":3,"left_children":[1,3,5,7,9,11,13,15,17,19,21,23,25,27,29,31,-1,33,35,37,39,41,-1,43,45,47,49,51,53,55,57,59,61,63,65,67,69,71,73,75,-1,-1,77,79,81,83,85,-1,87,89,91,93,-1,95,97,99,-1,101,103,-1,-1,-1,-1,-1,-1,-1,-1,-1,-1,-1,-1,-1,-1,-1,-1,-1,-1,-1,-1,-1,-1,-1,-1,-1,-1,-1,-1,-1,-1,-1,-1,-1,-1,-1,-1,-1,-1,-1,-1,-1,-1,-1,-1,-1,-1],"loss_changes":[1.1190163E2,1.9676464E1,4.1295685E1,9.398956E0,5.258774E0,6.5364814E0,2.9432655E1,2.2771454E0,7.447039E0,7.204417E0,4.033985E0,7.451234E0,4.9523225E0,1.02441435E1,2.6606598E0,2.1998138E0,0E0,5.0048623E0,6.765375E0,3.2685165E0,6.6560364E0,2.0712128E0,0E0,5.4019494E0,3.5086133E0,4.335948E0,5.256792E0,6.1090603E0,6.5773306E0,2.9920807E0,3.3900604E0,2.340519E0,3.2140648E0,5.9544854E0,8.340165E0,6.034709E0,8.506496E0,5.24561E0,1.1041832E-1,4.1130905E0,0E0,0E0,9.563141E-1,5.3392434E0,3.1554518E0,4.2269373E0,5.9978294E-1,0E0,3.1357193E-1,1.4011521E0,1.6475413E0,2.8096752E0,0E0,8.945531E0,5.909072E0,1.1643906E0,0E0,4.1236954E0,3.9408777E0,0E0,0E0,0E0,0E0,0E0,0E0,0E0,0E0,0E0,0E0,0E0,0E0,0E0,0E0,0E0,0E0,0E0,0E0,0E0,0E0,0E0,0E0,0E0,0E0,0E0,0E0,0E0,0E0,0E0,0E0,0E0,0E0,0E0,0E0,0E0,0E0,0E0,0E0,0E0,0E0,0E0,0E0,0E0,0E0,0E0,0E0],"parents":[2147483647,0,0,1,1,2,2,3,3,4,4,5,5,6,6,7,7,8,8,9,9,10,10,11,11,12,12,13,13,14,14,15,15,17,17,18,18,19,19,20,20,21,21,23,23,24,24,25,25,26,26,27,27,28,28,29,29,30,30,31,31,32,32,33,33,34,34,35,35,36,36,37,37,38,38,39,39,42,42,43,43,44,44,45,45,46,46,48,48,49,49,50,50,51,51,53,53,54,54,55,55,57,57,58,58],"right_children":[2,4,6,8,10,12,14,16,18,20,22,24,26,28,30,32,-1,34,36,38,40,42,-1,44,46,48,50,52,54,56,58,60,62,64,66,68,70,72,74,76,-1,-1,78,80,82,84,86,-1,88,90,92,94,-1,96,98,100,-1,102,104,-1,-1,-1,-1,-1,-1,-1,-1,-1,-1,-1,-1,-1,-1,-1,-1,-1,-1,-1,-1,-1,-1,-1,-1,-1,-1,-1,-1,-1,-1,-1,-1,-1,-1,-1,-1,-1,-1,-1,-1,-1,-1,-1,-1,-1,-1],"split_conditions":[1.8E1,7.5E-1,5E0,4.772E2,1.1E1,1.1490597E0,4.9E1,1.4954764E0,2.857143E-1,1.3337361E0,2.875E0,3.478261E-1,3.846154E-2,3.3666666E0,2.5E-1,4.1666666E-1,-3.8314458E-2,9.7600657E-1,9.52381E-2,4.776045E0,1.7004607E0,2.652E2,-3.650273E-2,3.3E1,9.3E1,3.3E1,1.904762E-1,1.7249348E0,9.294093E-1,4E-1,1.2195122E-1,6.666667E-1,3E0,3E1,1.5862432E0,3.846154E-1,2E-1,4.27785E0,1.1135E3,3.6363637E-1,1.1333268E-1,-6.201088E-3,1.911647E0,3.529412E-1,2.6666668E-1,3E0,3E0,1.4098662E-2,1E-1,1.6166666E1,2.6666668E-1,2.9166666E-1,4.1560438E-2,2.1212122E-1,1.6949153E-1,4.2857143E-1,-1.5755666E-2,3E-1,7E0,9.371882E-2,-1.7729573E-2,-5.2206855E-2,7.011216E-2,-7.289618E-2,7.3966E-2,-1.3622658E-1,2.1778464E-2,-4.7573224E-2,8.540324E-2,6.612927E-2,-8.051618E-2,7.675764E-2,-1.0707656E-1,1.2735793E-1,4.400006E-2,-6.822485E-2,2.4281487E-2,1.1755232E-1,3.201048E-2,1.8112747E-2,-7.433359E-2,1.9144615E-2,7.398882E-2,9.589441E-3,-1.07398294E-1,6.350113E-2,-1.3007796E-2,-5.168363E-2,-1.906978E-1,1.02288224E-1,-1.4578195E-2,3.2321399E-3,-1.0596136E-1,-1.8672296E-1,-2.307676E-2,-3.1442262E-2,7.106396E-2,-3.3459548E-2,-1.21686034E-1,-1.8060492E-1,-3.8043942E-2,-1.320958E-1,-1.4796722E-2,-8.213633E-2,9.435833E-2],"split_indices":[5,2,0,9,8,26,5,15,34,26,27,19,21,32,38,20,0,15,22,13,15,10,0,43,5,43,17,26,15,17,35,22,44,14,15,21,31,13,9,34,0,0,26,21,38,45,0,0,17,12,34,35,0,21,24,23,0,24,0,0,0,0,0,0,0,0,0,0,0,0,0,0,0,0,0,0,0,0,0,0,0,0,0,0,0,0,0,0,0,0,0,0,0,0,0,0,0,0,0,0,0,0,0,0,0],"split_type":[0,0,0,0,0,0,0,0,0,0,0,0,0,0,0,0,0,0,0,0,0,0,0,0,0,0,0,0,0,0,0,0,0,0,0,0,0,0,0,0,0,0,0,0,0,0,0,0,0,0,0,0,0,0,0,0,0,0,0,0,0,0,0,0,0,0,0,0,0,0,0,0,0,0,0,0,0,0,0,0,0,0,0,0,0,0,0,0,0,0,0,0,0,0,0,0,0,0,0,0,0,0,0,0,0],"sum_hessian":[4.6253384E2,2.1178656E2,2.5074728E2,1.12220184E2,9.956637E1,1.0460161E2,1.4614566E2,3.4007133E1,7.821305E1,4.4852306E1,5.471406E1,9.024019E1,1.4361418E1,8.85381E1,5.7607567E1,3.2653645E1,1.3534907E0,2.2417377E1,5.5795673E1,2.117455E1,2.3677757E1,5.3249218E1,1.4648432E0,7.440509E1,1.58351E1,5.574448E0,8.786969E0,9.845997E0,7.86921E1,2.2894314E1,3.4713253E1,2.5831081E1,6.8225617E0,9.341648E0,1.3075729E1,1.9553375E1,3.62423E1,5.7455115E0,1.5429039E1,1.8951532E1,4.726224E0,1.3582486E0,5.1890972E1,3.123415E1,4.317094E1,1.2755077E1,3.0800233E0,1.558511E0,4.0159373E0,3.7598941E0,5.027075E0,8.528825E0,1.3171722E0,3.7016205E1,4.16759E1,2.1420433E1,1.4738816E0,3.15349E1,3.1783533E0,2.410747E1,1.723611E0,2.8459294E0,3.9766324E0,3.795731E0,5.5459166E0,8.22068E0,4.8550487E0,1.6258402E1,3.2949734E0,3.2614998E1,3.6273007E0,4.5507464E0,1.194765E0,1.3871252E1,1.5577863E0,6.5029244E0,1.2448608E1,4.9628185E1,2.262784E0,2.3887213E1,7.3469367E0,2.0540524E1,2.2630419E1,4.376209E0,8.378868E0,1.956247E0,1.1237763E0,1.1715934E0,2.844344E0,2.6451528E0,1.1147412E0,2.021458E0,3.0056171E0,6.9654164E0,1.5634083E0,2.5464714E1,1.1551491E1,3.2158268E1,9.51763E0,2.0202204E1,1.2182276E0,2.7888802E1,3.6460984E0,1.967521E0,1.2108325E0],"tree_param":{"num_deleted":"0","num_feature":"46","num_nodes":"105","size_leaf_vector":"1"}},{"base_weights":[6.529431E-4,-3.8784134E-1,5.233827E-1,1.2761516E-2,-6.629692E-1,3.207668E-1,9.32381E-1,1.0157794E-1,-5.288604E-1,-3.3102733E-1,-1.2027382E0,6.1345285E-1,7.943834E-2,3.5701787E-1,1.0333332E0,2.215635E-1,-4.3773377E-1,-1.1232499E0,-6.7542285E-2,-2.3683801E-1,-1.2062691E0,-1.3766025E0,-8.139358E-1,7.8988236E-1,2.730505E-1,-9.7008616E-2,8.8874024E-1,6.7565036E-1,-7.477211E-2,4.0491626E-1,1.0968955E0,1.2318105E-1,7.710192E-1,3.4751747E-2,-8.5827667E-1,1.3278902E-2,-1.5292202E0,5.976686E-1,-7.040345E-1,-9.6108824E-1,-1.2967378E-1,-3.0802605E-1,-1.9710624E-1,1.4835781E-2,-1.4378867E0,-1.1706282E0,-1.4120713E-1,8.4608454E-1,-4.6846107E-2,-1.06524736E-1,7.4940616E-1,-6.2357426E-1,8.281284E-2,-8.845534E-2,1.1367373E0,9.9002224E-1,-5.002664E-2,-4.6992633E-2,8.4692556E-1,1.1456407E0,4.3046716E-1,2.110195E-2,-6.1911024E-2,-1.7706225E-2,8.866504E-2,-7.21515E-2,2.641554E-2,-1.347172E-2,-1.3983883E-1,-4.8555832E-2,-1.7200957E-1,1.05463676E-1,-4.5034762E-2,1.870708E-2,-1.1230319E-1,-1.1738064E-1,3.9542165E-2,-3.6780644E-2,1.5818423E-2,6.602837E-2,-1.5634319E-1,-1.5088986E-1,-1.6223045E-2,-2.6171913E-2,-1.328607E-1,3.5835765E-2,-1.1601534E-1,9.034876E-2,-3.1639755E-2,3.6349814E-2,-8.842566E-2,9.740993E-2,-2.1750128E-2,4.6484835E-2,-9.779399E-2,3.7391525E-2,-3.0537745E-2,-7.984747E-2,7.446654E-2,1.21203564E-1,2.6539994E-2,3.1342078E-2,1.0830235E-1,7.393614E-2,-7.649002E-2,2.8098984E-2,9.518815E-2,4.5641184E-2,1.1806142E-1,9.102871E-2,-3.4602314E-2],"categories":[],"categories_nodes":[],"categories_segments":[],"categories_sizes":[],"default_left":[0,0,0,0,0,0,0,0,0,0,0,0,0,0,0,0,0,0,0,0,0,0,0,0,0,0,0,0,0,0,0,0,0,0,0,0,0,0,0,0,0,0,0,0,0,0,0,0,0,0,0,0,0,0,0,0,0,0,0,0,0,0,0,0,0,0,0,0,0,0,0,0,0,0,0,0,0,0,0,0,0,0,0,0,0,0,0,0,0,0,0,0,0,0,0,0,0,0,0,0,0,0,0,0,0,0,0,0,0,0,0],"id":4,"left_children":[1,3,5,7,9,11,13,15,17,19,21,23,25,27,29,31,33,35,37,39,41,43,45,47,49,51,53,55,-1,57,59,61,63,65,67,-1,69,71,73,75,77,79,-1,-1,81,83,85,87,-1,89,91,93,95,97,99,101,103,-1,105,107,109,-1,-1,-1,-1,-1,-1,-1,-1,-1,-1,-1,-1,-1,-1,-1,-1,-1,-1,-1,-1,-1,-1,-1,-1,-1,-1,-1,-1,-1,-1,-1,-1,-1,-1,-1,-1,-1,-1,-1,-1,-1,-1,-1,-1,-1,-1,-1,-1,-1,-1],"loss_changes":[9.3375916E1,2.9080479E1,1.5946167E1,5.2671866E0,2.7623238E1,9.318412E0,3.372734E0,6.1763034E0,4.1548934E0,7.811392E0,2.8796234E0,3.3746681E0,1.0629607E1,4.4277363E0,1.7237625E0,4.095187E0,3.4938908E0,3.6084003E0,4.549396E0,6.8544846E0,5.7807674E0,3.8994598E0,4.8093424E0,3.143633E0,4.0461473E0,5.8767724E0,3.3272123E0,2.1424546E0,0E0,2.938758E0,1.0889969E0,4.4947715E0,1.4266305E0,1.7816507E0,3.4315133E0,0E0,1.8611813E-1,3.0174017E0,2.2420607E0,3.7635689E0,5.506874E0,7.671388E0,0E0,0E0,3.198616E0,1.5779133E0,4.651159E0,2.7910233E0,0E0,5.104203E0,2.3523564E0,6.540126E0,5.396114E0,2.737632E0,3.7980747E-1,6.63743E-2,2.6675718E0,0E0,1.30085945E-2,5.406265E-1,2.148608E0,0E0,0E0,0E0,0E0,0E0,0E0,0E0,0E0,0E0,0E0,0E0,0E0,0E0,0E0,0E0,0E0,0E0,0E0,0E0,0E0,0E0,0E0,0E0,0E0,0E0,0E0,0E0,0E0,0E0,0E0,0E0,0E0,0E0,0E0,0E0,0E0,0E0,0E0,0E0,0E0,0E0,0E0,0E0,0E0,0E0,0E0,0E0,0E0,0E0,0E0],"parents":[2147483647,0,0,1,1,2,2,3,3,4,4,5,5,6,6,7,7,8,8,9,9,10,10,11,11,12,12,13,13,14,14,15,15,16,16,17,17,18,18,19,19,20,20,21,21,22,22,23,23,24,24,25,25,26,26,27,27,29,29,30,30,31,31,32,32,33,33,34,34,36,36,37,37,38,38,39,39,40,40,41,41,44,44,45,45,46,46,47,47,49,49,50,50,51,51,52,52,53,53,54,54,55,55,56,56,58,58,59,59,60,60],"right_children":[2,4,6,8,10,12,14,16,18,20,22,24,26,28,30,32,34,36,38,40,42,44,46,48,50,52,54,56,-1,58,60,62,64,66,68,-1,70,72,74,76,78,80,-1,-1,82,84,86,88,-1,90,92,94,96,98,100,102,104,-1,106,108,110,-1,-1,-1,-1,-1,-1,-1,-1,-1,-1,-1,-1,-1,-1,-1,-1,-1,-1,-1,-1,-1,-1,-1,-1,-1,-1,-1,-1,-1,-1,-1,-1,-1,-1,-1,-1,-1,-1,-1,-1,-1,-1,-1,-1,-1,-1,-1,-1,-1,-1],"split_conditions":[7.48E1,5E0,1E0,1.1490597E0,4.9E1,7.011E2,1E0,3.478261E-1,3.846154E-2,8.1E1,4.6052632E-1,2.826128E1,1.5E1,2.777778E-1,1.5E-1,1.0608569E0,1.875E-1,3.3E1,2E-1,3.3666666E0,1.6883117E-1,9.5027053E-1,3.8E0,6.666667E-1,1.904E2,7.4074075E-2,9.8E1,3.568E2,-7.477211E-2,1.1111111E-1,5.714286E-1,6.096E2,2.522E2,4.6E1,2.8845E2,1.3278902E-2,1E-1,1.8045578E1,2.6666668E-1,1.7249348E0,1.7857143E-1,9.525E2,-1.9710624E-1,1.4835781E-2,1.580329E0,1.5625E0,6.25E0,1.7948718E-1,-4.6846107E-2,1.764706E-1,3.2665E2,1.1304348E0,1.2274635E0,8.571499E0,2.6086956E-1,6E0,1.0344828E-1,-4.6992633E-2,1.5124512E0,6E0,9.6710527E-1,2.110195E-2,-6.1911024E-2,-1.7706225E-2,8.866504E-2,-7.21515E-2,2.641554E-2,-1.347172E-2,-1.3983883E-1,-4.8555832E-2,-1.7200957E-1,1.05463676E-1,-4.5034762E-2,1.870708E-2,-1.1230319E-1,-1.1738064E-1,3.9542165E-2,-3.6780644E-2,1.5818423E-2,6.602837E-2,-1.5634319E-1,-1.5088986E-1,-1.6223045E-2,-2.6171913E-2,-1.328607E-1,3.5835765E-2,-1.1601534E-1,9.034876E-2,-3.1639755E-2,3.6349814E-2,-8.842566E-2,9.740993E-2,-2.1750128E-2,4.6484835E-2,-9.779399E-2,3.7391525E-2,-3.0537745E-2,-7.984747E-2,7.446654E-2,1.21203564E-1,2.6539994E-2,3.1342078E-2,1.0830235E-1,7.393614E-2,-7.649002E-2,2.8098984E-2,9.518815E-2,4.5641184E-2,1.1806142E-1,9.102871E-2,-3.4602314E-2],"split_indices":[11,0,2,26,5,9,4,19,21,14,1,13,8,23,34,26,1,43,17,32,21,26,12,22,10,21,11,11,0,23,37,9,9,5,9,0,17,13,34,26,21,9,0,0,15,12,12,39,0,25,11,27,15,13,23,0,23,0,26,14,1,0,0,0,0,0,0,0,0,0,0,0,0,0,0,0,0,0,0,0,0,0,0,0,0,0,0,0,0,0,0,0,0,0,0,0,0,0,0,0,0,0,0,0,0,0,0,0,0,0,0],"split_type":[0,0,0,0,0,0,0,0,0,0,0,0,0,0,0,0,0,0,0,0,0,0,0,0,0,0,0,0,0,0,0,0,0,0,0,0,0,0,0,0,0,0,0,0,0,0,0,0,0,0,0,0,0,0,0,0,0,0,0,0,0,0,0,0,0,0,0,0,0,0,0,0,0,0,0,0,0,0,0,0,0,0,0,0,0,0,0,0,0,0,0,0,0,0,0,0,0,0,0,0,0,0,0,0,0,0,0,0,0,0,0],"sum_hessian":[4.5780475E2,2.6277078E2,1.9503397E2,1.07376976E2,1.553938E2,1.3161618E2,6.3417786E1,9.294766E1,1.4429318E1,9.721979E1,5.8174007E1,5.8782307E1,7.283387E1,1.0143394E1,5.327439E1,7.651406E1,1.6433601E1,5.6782517E0,8.751067E0,8.892112E1,8.298665E0,3.844263E1,1.9731379E1,3.7846268E1,2.0936039E1,6.0519356E1,1.2314517E1,8.174178E0,1.9692161E0,5.570573E0,4.770382E1,6.593271E1,1.0581351E1,8.170877E0,8.262725E0,1.5513648E0,4.126887E0,4.308824E0,4.4422426E0,1.0434315E1,7.848681E1,4.4614677E0,3.8371975E0,1.4303278E0,3.7012302E1,1.2410825E1,7.3205533E0,3.6541798E1,1.3044696E0,1.2083723E1,8.852316E0,1.477791E1,4.5741444E1,2.6228576E0,9.69166E0,5.449232E0,2.724946E0,1.8485967E0,3.721976E0,4.3782326E1,3.9214911E0,5.959616E1,6.3365455E0,1.0924971E0,9.488854E0,1.4024138E0,6.768463E0,4.065633E0,4.197092E0,1.185995E0,2.940892E0,2.9961088E0,1.3127153E0,1.5977486E0,2.8444943E0,9.136311E0,1.298004E0,4.2801342E1,3.5685463E1,2.7863612E0,1.6751065E0,3.488739E1,2.1249123E0,2.2311099E0,1.0179715E1,5.3472376E0,1.973316E0,3.5034595E1,1.507202E0,7.863829E0,4.219894E0,7.177052E0,1.6752644E0,3.553051E0,1.1224859E1,2.6160534E1,1.958091E1,1.4384975E0,1.18436E0,8.560851E0,1.130809E0,1.1865954E0,4.2626367E0,1.2787032E0,1.4462428E0,1.1575478E0,2.5644283E0,2.7928803E0,4.0989445E1,2.3172643E0,1.6042267E0],"tree_param":{"num_deleted":"0","num_feature":"46","num_nodes":"111","size_leaf_vector":"1"}},{"base_weights":[2.2960941E-5,4.3177813E-1,-4.0436426E-1,2.5363925E-1,8.711588E-1,-1.4904701E-3,-7.523493E-1,6.572108E-1,1.1562214E-1,3.1307516E-1,9.904002E-1,-9.666764E-2,5.7152104E-1,-4.480199E-1,-1.0952499E0,7.0630664E-1,-5.475619E-2,2.2386985E-1,-6.980574E-1,8.155337E-1,-2.0156759E-1,3.8334078E-1,1.0542139E0,1.9313112E-1,-2.967812E-1,2.5262466E-2,1.219564E-1,-1.0281814E-1,-7.5194997E-1,-1.1517161E0,-2.0404217E-1,9.8817515E-1,4.947586E-1,-3.3593595E-1,4.1609105E-1,-1.637185E-1,-1.6064273E-1,1.05012834E-1,-6.564417E-3,-1.11235276E-1,3.5527474E-1,-6.481223E-2,7.130236E-1,1.1035074E0,4.0698108E-1,-2.6705587E-1,3.535677E-1,-4.0838948E-1,4.7164783E-1,7.585241E-1,-3.8531184E-1,-3.1913474E-1,7.169037E-1,-4.77268E-1,-1.6262175E0,-5.2619208E-2,-1.2010137E0,6.745552E-2,-1.2507473E-1,1.0907042E-1,-5.527739E-3,-3.3282933E-3,7.805251E-2,6.388884E-3,-1.05086885E-1,4.5272805E-2,-1.1579175E-1,6.401306E-2,-4.8518542E-2,9.857219E-2,-8.300628E-2,1.0059686E-1,-2.8107112E-2,1.1980986E-1,7.16634E-2,8.869424E-2,-3.4631036E-2,-5.2948654E-2,3.184599E-2,4.4932637E-2,-6.431979E-2,-2.1533411E-2,-1.04917884E-1,9.334205E-2,-6.1788866E-3,8.8240385E-2,2.1253387E-2,1.6445694E-2,-8.811795E-2,-7.148923E-2,1.3319254E-2,1.0898192E-1,2.0242611E-2,-1.8991E-2,-1.03551984E-1,-7.986233E-2,-1.9173072E-1,3.73128E-2,-4.7309987E-2,-1.239083E-1,1.99365E-2],"categories":[],"categories_nodes":[],"categories_segments":[],"categories_sizes":[],"default_left":[0,0,0,0,0,0,0,0,0,0,0,0,0,0,0,0,0,0,0,0,0,0,0,0,0,0,0,0,0,0,0,0,0,0,0,0,0,0,0,0,0,0,0,0,0,0,0,0,0,0,0,0,0,0,0,0,0,0,0,0,0,0,0,0,0,0,0,0,0,0,0,0,0,0,0,0,0,0,0,0,0,0,0,0,0,0,0,0,0,0,0,0,0,0,0,0,0,0,0,0,0],"id":5,"left_children":[1,3,5,7,9,11,13,15,17,19,21,23,25,27,29,31,-1,33,35,37,39,41,43,45,47,49,-1,51,53,55,57,59,61,63,65,67,-1,-1,-1,-1,69,-1,71,73,75,77,79,81,83,85,87,89,91,93,95,97,99,-1,-1,-1,-1,-1,-1,-1,-1,-1,-1,-1,-1,-1,-1,-1,-1,-1,-1,-1,-1,-1,-1,-1,-1,-1,-1,-1,-1,-1,-1,-1,-1,-1,-1,-1,-1,-1,-1,-1,-1,-1,-1,-1,-1],"loss_changes":[7.9332214E1,1.6979156E1,3.289174E1,8.711735E0,3.881176E0,6.0401077E0,1.2646057E1,2.7522469E0,1.0618056E1,3.4096625E0,1.5882912E0,5.5644393E0,5.553824E0,7.0975523E0,2.7088852E0,1.8284359E0,0E0,1.1501775E1,6.6240273E0,1.4226136E0,3.9461892E0,2.6601229E0,1.0174828E0,3.0029793E0,5.0440145E0,3.1768057E0,0E0,6.1117887E0,7.9191895E0,2.9059448E0,5.166841E0,1.7355995E0,3.6781993E0,7.9399915E0,5.082574E0,2.9069095E0,0E0,0E0,0E0,0E0,4.6316843E0,0E0,1.8478086E0,6.831665E-1,2.056161E0,1.8209922E0,3.1182337E0,5.950734E0,1.9391344E0,6.7858934E-2,2.0001242E0,4.918193E0,1.167516E0,4.450259E0,4.5410538E-1,7.8486335E-1,3.0405731E0,0E0,0E0,0E0,0E0,0E0,0E0,0E0,0E0,0E0,0E0,0E0,0E0,0E0,0E0,0E0,0E0,0E0,0E0,0E0,0E0,0E0,0E0,0E0,0E0,0E0,0E0,0E0,0E0,0E0,0E0,0E0,0E0,0E0,0E0,0E0,0E0,0E0,0E0,0E0,0E0,0E0,0E0,0E0,0E0],"parents":[2147483647,0,0,1,1,2,2,3,3,4,4,5,5,6,6,7,7,8,8,9,9,10,10,11,11,12,12,13,13,14,14,15,15,17,17,18,18,19,19,20,20,21,21,22,22,23,23,24,24,25,25,27,27,28,28,29,29,30,30,31,31,32,32,33,33,34,34,35,35,40,40,42,42,43,43,44,44,45,45,46,46,47,47,48,48,49,49,50,50,51,51,52,52,53,53,54,54,55,55,56,56],"right_children":[2,4,6,8,10,12,14,16,18,20,22,24,26,28,30,32,-1,34,36,38,40,42,44,46,48,50,-1,52,54,56,58,60,62,64,66,68,-1,-1,-1,-1,70,-1,72,74,76,78,80,82,84,86,88,90,92,94,96,98,100,-1,-1,-1,-1,-1,-1,-1,-1,-1,-1,-1,-1,-1,-1,-1,-1,-1,-1,-1,-1,-1,-1,-1,-1,-1,-1,-1,-1,-1,-1,-1,-1,-1,-1,-1,-1,-1,-1,-1,-1,-1,-1,-1,-1],"split_conditions":[2.1E1,1E0,1.2424533E0,4.772E2,1E0,1.0986123E0,4.9E1,1.6032629E0,2.7666666E1,3.4529412E0,1.5E-1,1.875E-1,5.208333E-1,9.3255526E-1,3.0769232E-1,7E0,-5.475619E-2,2.857143E-1,6.937E2,9.2E1,8E0,9.52381E-2,5.714286E-1,9.92E1,1.203121E0,4.1E1,1.219564E-1,8.4E-1,2.0588236E-1,4.204E2,3E0,1.1490597E0,1.1E1,1.891892E-1,6.8421054E-1,9.7600657E-1,-1.6064273E-1,1.05012834E-1,-6.564417E-3,-1.11235276E-1,1.5E0,-6.481223E-2,2.5E0,2.173913E-1,3E0,5.5E1,5.799E2,2.7E1,1.2820514E-1,7.122714E-1,1.14754096E-1,1.6883117E-1,1.1029412E0,8.947368E-1,2.0408163E-2,3.4529412E0,1E0,6.745552E-2,-1.2507473E-1,1.0907042E-1,-5.527739E-3,-3.3282933E-3,7.805251E-2,6.388884E-3,-1.05086885E-1,4.5272805E-2,-1.1579175E-1,6.401306E-2,-4.8518542E-2,9.857219E-2,-8.300628E-2,1.0059686E-1,-2.8107112E-2,1.1980986E-1,7.16634E-2,8.869424E-2,-3.4631036E-2,-5.2948654E-2,3.184599E-2,4.4932637E-2,-6.431979E-2,-2.1533411E-2,-1.04917884E-1,9.334205E-2,-6.1788866E-3,8.8240385E-2,2.1253387E-2,1.6445694E-2,-8.811795E-2,-7.148923E-2,1.3319254E-2,1.0898192E-1,2.0242611E-2,-1.8991E-2,-1.03551984E-1,-7.986233E-2,-1.9173072E-1,3.73128E-2,-4.7309987E-2,-1.239083E-1,1.99365E-2],"split_indices":[5,2,26,9,4,26,5,15,12,32,34,1,34,15,24,5,0,34,9,43,0,23,37,9,15,5,0,38,24,9,41,26,5,19,35,15,0,0,0,0,2,0,3,22,40,43,9,14,20,15,24,21,27,34,22,32,37,0,0,0,0,0,0,0,0,0,0,0,0,0,0,0,0,0,0,0,0,0,0,0,0,0,0,0,0,0,0,0,0,0,0,0,0,0,0,0,0,0,0,0,0],"split_type":[0,0,0,0,0,0,0,0,0,0,0,0,0,0,0,0,0,0,0,0,0,0,0,0,0,0,0,0,0,0,0,0,0,0,0,0,0,0,0,0,0,0,0,0,0,0,0,0,0,0,0,0,0,0,0,0,0,0,0,0,0,0,0,0,0,0,0,0,0,0,0,0,0,0,0,0,0,0,0,0,0,0,0,0,0,0,0,0,0,0,0,0,0,0,0,0,0,0,0,0,0],"sum_hessian":[4.5237518E2,2.1875145E2,2.3362375E2,1.5676941E2,6.1982037E1,1.0873821E2,1.2488553E2,3.899207E1,1.17777336E2,1.1550057E1,5.043198E1,9.396237E1,1.4775843E1,6.7386E1,5.7499535E1,3.786286E1,1.1292088E0,1.0458832E2,1.318902E1,5.548378E0,6.00168E0,5.4636374E0,4.496834E1,3.8394886E1,5.5567482E1,8.581322E0,6.194521E0,3.217741E1,3.520859E1,5.3798584E1,3.7009473E0,1.4659391E1,2.320347E1,2.6542103E1,7.804621E1,9.047284E0,4.1417356E0,4.230394E0,1.3179841E0,1.898628E0,4.1030517E0,1.0893967E0,4.3742404E0,4.1130836E1,3.8375056E0,9.753618E0,2.864127E1,4.892941E1,6.638071E0,2.7760277E0,5.805294E0,2.5942196E1,6.2352133E0,2.7967518E1,7.2410736E0,2.3981786E0,5.1400406E1,2.2053418E0,1.4956055E0,1.3306607E1,1.3527836E0,8.458085E0,1.4745386E1,1.7606398E1,8.935706E0,7.696709E1,1.0791302E0,2.301344E0,6.74594E0,2.7883904E0,1.3146613E0,3.3693879E0,1.0048528E0,3.1365147E1,9.765692E0,2.23564E0,1.6018655E0,6.80105E0,2.952568E0,2.6631968E1,2.0093017E0,3.8627777E1,1.0301634E1,3.1561267E0,3.4819443E0,1.760447E0,1.0155808E0,3.0699658E0,2.7353282E0,1.35267105E1,1.2415484E1,2.966595E0,3.2686186E0,1.9348259E1,8.619257E0,2.8582823E0,4.382791E0,1.2475841E0,1.1505945E0,5.01522E1,1.2482079E0],"tree_param":{"num_deleted":"0","num_feature":"46","num_nodes":"101","size_leaf_vector":"1"}},{"base_weights":[1.543085E-4,3.3966354E-1,-4.3378383E-1,1.2642401E-1,7.014878E-1,-4.1086745E-2,-7.259303E-1,3.7309283E-1,-1.3350321E-1,2.1729226E-1,8.3983713E-1,2.4894328E-1,-2.232709E-1,-4.215911E-1,-9.99417E-1,5.264361E-1,-6.7181766E-2,-5.8462664E-2,-1.1824676E0,-2.9318225E-1,6.135659E-1,9.095692E-1,2.9602277E-1,-1.0529814E-1,4.9615523E-1,-3.404499E-1,3.6053887E-1,-5.0518733E-1,3.9769983E-1,-1.1683023E0,-6.3509434E-1,1.0235989E0,3.8135213E-1,-3.028464E-1,5.599878E-1,4.7843865E-1,-1.7993774E-1,-1.6562063E-1,3.0534143E-2,9.331648E-2,-7.5206536E-1,8.323389E-1,-3.8149275E-2,5.846488E-1,1.0449927E0,-6.476842E-2,6.302977E-1,3.0593476E-1,-1.1528717E0,6.978022E-1,-2.2919099E-1,-2.0141326E-1,-8.229159E-1,6.3865596E-1,-7.297599E-2,-1.510446E-1,-4.0603814E-1,8.8806665E-1,-6.0895234E-2,1.5076145E-2,-1.2226254E0,-9.530616E-1,-4.9627632E-2,1.13671236E-1,3.407202E-2,5.187155E-2,-1.1299368E-2,-5.1414203E-2,9.111883E-2,1.073344E-1,-3.587084E-2,7.539062E-2,-5.6659974E-2,-6.610305E-2,3.6030188E-3,3.0704955E-2,-1.4261633E-1,-1.723992E-2,1.0574587E-1,9.47969E-2,8.049261E-3,3.992572E-4,1.10155545E-1,9.105842E-2,-1.5102287E-2,6.412996E-2,-4.9462613E-2,-8.224686E-4,-1.7114629E-1,1.0677022E-1,5.45806E-3,2.4266917E-2,-7.3672816E-2,-2.8253287E-2,9.083116E-2,-1.1446041E-1,-2.9154006E-2,-1.6725756E-2,8.901202E-2,-1.2811199E-2,-6.993305E-2,1.01110116E-1,2.6867315E-2,-1.3216712E-1,-3.983399E-2,-1.1064271E-1,-1.2944083E-2,4.045968E-2,-1.00021556E-1],"categories":[],"categories_nodes":[],"categories_segments":[],"categories_sizes":[],"default_left":[0,0,0,0,0,0,0,0,0,0,0,0,0,0,0,0,0,0,0,0,0,0,0,0,0,0,0,0,0,0,0,0,0,0,0,0,0,0,0,0,0,0,0,0,0,0,0,0,0,0,0,0,0,0,0,0,0,0,0,0,0,0,0,0,0,0,0,0,0,0,0,0,0,0,0,0,0,0,0,0,0,0,0,0,0,0,0,0,0,0,0,0,0,0,0,0,0,0,0,0,0,0,0,0,0,0,0,0,0],"id":6,"left_children":[1,3,5,7,9,11,13,15,17,19,21,23,25,27,29,31,33,35,37,39,41,43,45,47,49,51,53,55,57,59,61,63,65,67,69,71,73,-1,-1,-1,75,77,-1,79,81,-1,83,85,87,89,91,93,95,97,-1,-1,99,101,-1,-1,103,105,107,-1,-1,-1,-1,-1,-1,-1,-1,-1,-1,-1,-1,-1,-1,-1,-1,-1,-1,-1,-1,-1,-1,-1,-1,-1,-1,-1,-1,-1,-1,-1,-1,-1,-1,-1,-1,-1,-1,-1,-1,-1,-1,-1,-1,-1,-1],"loss_changes":[6.615663E1,1.9349512E1,2.2583961E1,1.0291402E1,6.060852E0,4.5546074E0,8.981194E0,5.586401E0,6.111085E0,4.6425953E0,2.466362E0,2.9704206E0,3.7363951E0,3.9813452E0,2.874035E0,4.016472E0,3.4398918E0,4.9335256E0,4.163591E0,6.508263E0,3.0916219E0,2.1813202E0,3.4623117E0,6.608495E0,3.0561666E0,2.819837E0,3.2908814E0,4.422761E0,3.3397143E0,2.9763298E0,3.8258286E0,6.328974E-1,3.3783245E0,4.7605686E0,3.4006908E0,4.4535584E0,6.396831E0,0E0,0E0,0E0,6.193876E0,2.6162357E0,0E0,3.7589192E0,2.5581398E0,0E0,1.8141136E0,3.32906E0,2.7373862E0,3.6870203E0,1.3906138E0,3.4860911E0,1.3128934E0,1.7611654E0,0E0,0E0,3.7707763E0,4.990363E-2,0E0,0E0,2.537777E0,1.5529356E0,4.02192E0,0E0,0E0,0E0,0E0,0E0,0E0,0E0,0E0,0E0,0E0,0E0,0E0,0E0,0E0,0E0,0E0,0E0,0E0,0E0,0E0,0E0,0E0,0E0,0E0,0E0,0E0,0E0,0E0,0E0,0E0,0E0,0E0,0E0,0E0,0E0,0E0,0E0,0E0,0E0,0E0,0E0,0E0,0E0,0E0,0E0,0E0],"parents":[2147483647,0,0,1,1,2,2,3,3,4,4,5,5,6,6,7,7,8,8,9,9,10,10,11,11,12,12,13,13,14,14,15,15,16,16,17,17,18,18,19,19,20,20,21,21,22,22,23,23,24,24,25,25,26,26,27,27,28,28,29,29,30,30,31,31,32,32,33,33,34,34,35,35,36,36,40,40,41,41,43,43,44,44,46,46,47,47,48,48,49,49,50,50,51,51,52,52,53,53,56,56,57,57,60,60,61,61,62,62],"right_children":[2,4,6,8,10,12,14,16,18,20,22,24,26,28,30,32,34,36,38,40,42,44,46,48,50,52,54,56,58,60,62,64,66,68,70,72,74,-1,-1,-1,76,78,-1,80,82,-1,84,86,88,90,92,94,96,98,-1,-1,100,102,-1,-1,104,106,108,-1,-1,-1,-1,-1,-1,-1,-1,-1,-1,-1,-1,-1,-1,-1,-1,-1,-1,-1,-1,-1,-1,-1,-1,-1,-1,-1,-1,-1,-1,-1,-1,-1,-1,-1,-1,-1,-1,-1,-1,-1,-1,-1,-1,-1,-1],"split_conditions":[3.1E1,7.5E-1,5E0,9.83298E-1,3.6363637E-1,3E0,4.9E1,2.2727273E-1,3.816E2,3.75E-1,1.2222222E0,6.7301166E-1,9.5E1,7E0,4.6052632E-1,9.8E1,3.7E1,1.904762E-1,1.4954764E0,8.695652E-2,2.580645E-1,9.044E2,1.5142857E0,1.875E-1,1.3337361E0,3.478261E-1,4.032E2,1.904762E-1,1.5625E-1,9.5027053E-1,3.8E0,3.846154E-1,2.5E1,1.7534E3,2.306306E1,1.6585187E0,3.415625E0,-1.6562063E-1,3.0534143E-2,9.331648E-2,2.857143E-1,8.959E2,-3.8149275E-2,5E-1,9E1,-6.476842E-2,1.3770236E0,1.35E0,3.4454546E0,3E0,2E-1,2.580645E-1,4.142857E0,1.085E2,-7.297599E-2,-1.510446E-1,8.695652E-2,3.75E-1,-6.0895234E-2,1.5076145E-2,3.0769232E-1,8.8E1,6.25E0,1.13671236E-1,3.407202E-2,5.187155E-2,-1.1299368E-2,-5.1414203E-2,9.111883E-2,1.073344E-1,-3.587084E-2,7.539062E-2,-5.6659974E-2,-6.610305E-2,3.6030188E-3,3.0704955E-2,-1.4261633E-1,-1.723992E-2,1.0574587E-1,9.47969E-2,8.049261E-3,3.992572E-4,1.10155545E-1,9.105842E-2,-1.5102287E-2,6.412996E-2,-4.9462613E-2,-8.224686E-4,-1.7114629E-1,1.0677022E-1,5.45806E-3,2.4266917E-2,-7.3672816E-2,-2.8253287E-2,9.083116E-2,-1.1446041E-1,-2.9154006E-2,-1.6725756E-2,8.901202E-2,-1.2811199E-2,-6.993305E-2,1.01110116E-1,2.6867315E-2,-1.3216712E-1,-3.983399E-2,-1.1064271E-1,-1.2944083E-2,4.045968E-2,-1.00021556E-1],"split_indices":[5,2,0,15,34,45,5,22,10,17,34,26,5,41,1,10,14,17,15,21,19,9,27,1,26,19,9,17,23,26,12,20,12,9,13,15,32,0,0,0,17,9,0,1,11,0,15,27,32,40,17,19,12,9,0,0,24,17,0,0,24,5,12,0,0,0,0,0,0,0,0,0,0,0,0,0,0,0,0,0,0,0,0,0,0,0,0,0,0,0,0,0,0,0,0,0,0,0,0,0,0,0,0,0,0,0,0,0,0],"split_type":[0,0,0,0,0,0,0,0,0,0,0,0,0,0,0,0,0,0,0,0,0,0,0,0,0,0,0,0,0,0,0,0,0,0,0,0,0,0,0,0,0,0,0,0,0,0,0,0,0,0,0,0,0,0,0,0,0,0,0,0,0,0,0,0,0,0,0,0,0,0,0,0,0,0,0,0,0,0,0,0,0,0,0,0,0,0,0,0,0,0,0,0,0,0,0,0,0,0,0,0,0,0,0,0,0,0,0,0,0],"sum_hessian":[4.470491E2,2.5093619E2,1.9611292E2,1.5873552E2,9.220067E1,8.414612E1,1.11966805E2,8.122155E1,7.751397E1,2.1061207E1,7.1139465E1,3.2322895E1,5.1823223E1,5.4197147E1,5.7769657E1,6.0095272E1,2.112628E1,7.332425E1,4.189718E0,9.318015E0,1.1743193E1,6.2458042E1,8.681423E0,1.3521446E1,1.8801449E1,4.3507492E1,8.31573E0,4.9527046E1,4.6700993E0,3.796421E1,1.9805449E1,1.2207683E1,4.788759E1,1.5731972E1,5.3943086E0,1.298665E1,6.0337597E1,3.0919983E0,1.0977193E0,2.255833E0,7.0621815E0,9.760732E0,1.9824611E0,1.9938042E1,4.252E1,2.025516E0,6.655907E0,1.0218182E1,3.303265E0,1.4741322E1,4.060128E0,3.4874775E1,8.632716E0,6.955688E0,1.3600428E0,3.1684573E0,4.635859E1,3.2195659E0,1.4505334E0,1.4314221E0,3.6532787E1,1.2427954E1,7.377494E0,9.902777E0,2.3049057E0,3.7435986E1,1.0451601E1,1.3890852E1,1.8411201E0,3.3525891E0,2.0417197E0,1.0498007E1,2.4886434E0,1.8055706E1,4.228189E1,2.9584656E0,4.103716E0,1.829523E0,7.9312086E0,1.10758915E1,8.862151E0,2.246435E0,4.0273563E1,4.776846E0,1.8790609E0,7.3416224E0,2.8765593E0,1.4161204E0,1.8871448E0,8.940146E0,5.8011746E0,2.374454E0,1.6856742E0,3.3193752E1,1.6810226E0,4.6584888E0,3.9742277E0,1.7338295E0,5.2218585E0,2.4540562E1,2.181803E1,2.158419E0,1.061147E0,3.207523E1,4.457556E0,1.0187569E1,2.240385E0,5.3807526E0,1.9967414E0],"tree_param":{"num_deleted":"0","num_feature":"46","num_nodes":"109","size_leaf_vector":"1"}},{"base_weights":[2.8379113E-4,-2.955589E-1,4.2781076E-1,1.0497712E-2,-5.0342095E-1,2.9147846E-1,9.5394194E-1,-2.5465662E-2,1.0081752E-1,-2.5573036E-1,-9.168559E-1,5.403226E-1,9.670933E-2,-1.3698359E-2,1.0360686E0,2.1494461E-2,-7.148308E-1,5.33195E-3,-4.9770898E-1,-1.2021164E0,-7.0254874E-1,5.8014107E-1,-4.672661E-2,-1.1811447E-1,6.48328E-1,-6.503721E-2,7.3115185E-2,1.1094255E0,7.210204E-2,1.11177765E-1,-4.063915E-1,-1.0754257E0,2.1229459E-2,-7.4048615E-1,2.2303599E-1,-5.924409E-1,5.4718155E-1,-1.2843013E0,9.257085E-4,-7.9302514E-1,1.6335961E-1,3.75401E-1,9.664616E-1,5.665225E-1,-2.3530647E-1,3.669919E-1,1.1046815E-1,1.1649213E-1,2.303708E-3,-5.8530893E-2,6.8941735E-2,1.9983359E-2,-4.2231157E-2,1.1448179E-2,-7.3331885E-2,-1.3278647E-2,-1.4929903E-1,2.3461288E-2,-1.03736416E-1,-1.6852241E-2,5.2779824E-2,-8.40097E-2,-3.2820854E-2,1.0395117E-1,-5.5698585E-2,-1.383333E-1,-4.030343E-2,-1.9745912E-2,-9.579241E-2,-5.4578792E-2,1.03506364E-1,5.9821334E-2,-7.584017E-3,1.041555E-1,-8.064095E-3,1.0736507E-1,-5.492118E-2,-1.045138E-1,-1.055479E-2,5.3512473E-2,-7.063168E-2],"categories":[],"categories_nodes":[],"categories_segments":[],"categories_sizes":[],"default_left":[0,0,0,0,0,0,0,0,0,0,0,0,0,0,0,0,0,0,0,0,0,0,0,0,0,0,0,0,0,0,0,0,0,0,0,0,0,0,0,0,0,0,0,0,0,0,0,0,0,0,0,0,0,0,0,0,0,0,0,0,0,0,0,0,0,0,0,0,0,0,0,0,0,0,0,0,0,0,0,0,0],"id":7,"left_children":[1,3,5,7,9,11,13,15,-1,17,19,21,23,25,27,29,31,33,35,37,39,41,-1,43,45,-1,-1,47,49,51,53,55,-1,57,59,61,63,65,-1,67,69,71,73,75,77,79,-1,-1,-1,-1,-1,-1,-1,-1,-1,-1,-1,-1,-1,-1,-1,-1,-1,-1,-1,-1,-1,-1,-1,-1,-1,-1,-1,-1,-1,-1,-1,-1,-1,-1,-1],"loss_changes":[5.606059E1,1.6670633E1,1.2724419E1,3.8624418E0,1.5743385E1,6.995245E0,2.9438362E0,3.3882287E0,0E0,6.2540274E0,2.70541E0,2.823698E0,9.886578E0,2.3112693E0,2.323864E0,3.8256052E0,2.459523E0,8.0548725E0,5.408716E0,2.351902E0,2.915825E0,4.513485E0,0E0,4.981588E0,2.5934248E0,0E0,0E0,1.8735428E0,1.8131703E0,3.9735923E0,3.0274115E0,1.7579818E0,0E0,3.48868E0,4.6690493E0,2.8376713E0,3.1827888E0,1.3640747E0,0E0,2.989933E0,3.1573215E0,4.261149E0,1.7132454E0,5.752881E0,5.385676E0,3.2557375E0,0E0,0E0,0E0,0E0,0E0,0E0,0E0,0E0,0E0,0E0,0E0,0E0,0E0,0E0,0E0,0E0,0E0,0E0,0E0,0E0,0E0,0E0,0E0,0E0,0E0,0E0,0E0,0E0,0E0,0E0,0E0,0E0,0E0,0E0,0E0],"parents":[2147483647,0,0,1,1,2,2,3,3,4,4,5,5,6,6,7,7,9,9,10,10,11,11,12,12,13,13,14,14,15,15,16,16,17,17,18,18,19,19,20,20,21,21,23,23,24,24,27,27,28,28,29,29,30,30,31,31,33,33,34,34,35,35,36,36,37,37,39,39,40,40,41,41,42,42,43,43,44,44,45,45],"right_children":[2,4,6,8,10,12,14,16,-1,18,20,22,24,26,28,30,32,34,36,38,40,42,-1,44,46,-1,-1,48,50,52,54,56,-1,58,60,62,64,66,-1,68,70,72,74,76,78,80,-1,-1,-1,-1,-1,-1,-1,-1,-1,-1,-1,-1,-1,-1,-1,-1,-1,-1,-1,-1,-1,-1,-1,-1,-1,-1,-1,-1,-1,-1,-1,-1,-1,-1,-1],"split_conditions":[7.48E1,5E0,1.5E1,1E0,4.9E1,7.011E2,9.8E1,7.952E2,1.0081752E-1,2.7E1,2.5E-1,5.712E2,1E0,8.571499E0,6E-1,4.0625E-1,1.0115E3,3.65625E0,7E0,4E-1,1.2195122E-1,2.306E2,-4.672661E-2,2.5E-1,1.2934791E0,-6.503721E-2,7.3115185E-2,1.08E2,6E-1,3.125E-1,1.3815789E-1,3.404348E0,2.1229459E-2,9.52381E-2,8.481E2,1.3043478E-1,8.636364E-1,1.26E2,9.257085E-4,1.2554823E0,7E0,2.9143324E1,1.3333334E0,2.54E1,7E0,1.1824957E0,1.1046815E-1,1.1649213E-1,2.303708E-3,-5.8530893E-2,6.8941735E-2,1.9983359E-2,-4.2231157E-2,1.1448179E-2,-7.3331885E-2,-1.3278647E-2,-1.4929903E-1,2.3461288E-2,-1.03736416E-1,-1.6852241E-2,5.2779824E-2,-8.40097E-2,-3.2820854E-2,1.0395117E-1,-5.5698585E-2,-1.383333E-1,-4.030343E-2,-1.9745912E-2,-9.579241E-2,-5.4578792E-2,1.03506364E-1,5.9821334E-2,-7.584017E-3,1.041555E-1,-8.064095E-3,1.0736507E-1,-5.492118E-2,-1.045138E-1,-1.055479E-2,5.3512473E-2,-7.063168E-2],"split_indices":[11,0,8,23,5,9,11,9,0,14,38,10,2,13,37,19,9,12,41,17,35,10,0,17,15,0,0,43,39,1,1,32,0,19,9,23,34,5,0,26,0,13,37,12,8,15,0,0,0,0,0,0,0,0,0,0,0,0,0,0,0,0,0,0,0,0,0,0,0,0,0,0,0,0,0,0,0,0,0,0,0],"split_type":[0,0,0,0,0,0,0,0,0,0,0,0,0,0,0,0,0,0,0,0,0,0,0,0,0,0,0,0,0,0,0,0,0,0,0,0,0,0,0,0,0,0,0,0,0,0,0,0,0,0,0,0,0,0,0,0,0,0,0,0,0,0,0,0,0,0,0,0,0,0,0,0,0,0,0,0,0,0,0,0,0],"sum_hessian":[4.412345E2,2.609615E2,1.8027301E2,1.05933784E2,1.550277E2,1.4440776E2,3.586526E1,1.0318861E2,2.7451744E0,9.7958755E1,5.706894E1,6.262351E1,8.178425E1,2.871037E0,3.2994225E1,9.751465E1,5.6739583E0,4.7591698E1,5.0367058E1,2.2504396E1,3.456454E1,6.06509E1,1.9726087E0,5.9426796E1,2.2357449E1,1.6163096E0,1.2547275E0,3.052073E1,2.4734957E0,8.122943E1,1.6285217E1,3.9699388E0,1.7040197E0,1.0210583E1,3.7381115E1,4.657728E1,3.7897801E0,2.1018227E1,1.486171E0,3.137086E1,3.1936843E0,4.0930508E1,1.9720392E1,8.125193E0,5.1301605E1,1.4946999E1,7.4104505E0,2.8968641E1,1.5520877E0,1.2229553E0,1.2505405E0,7.019052E1,1.1038914E1,6.5304594E0,9.754757E0,1.6233281E0,2.3466108E0,2.4320898E0,7.778493E0,1.655644E1,2.0824673E1,2.2917803E1,2.3659475E1,2.661581E0,1.1281992E0,1.8382765E1,2.635461E0,7.278942E0,2.4091917E1,1.9672078E0,1.2264766E0,2.718265E1,1.3747861E1,1.8405716E1,1.3146759E0,5.612083E0,2.513109E0,6.1105833E0,4.519102E1,1.335619E1,1.5908092E0],"tree_param":{"num_deleted":"0","num_feature":"46","num_nodes":"81","size_leaf_vector":"1"}},{"base_weights":[4.518325E-4,3.1545728E-1,-3.412975E-1,1.9487008E-1,8.681638E-1,-5.3693566E-2,-5.9182656E-1,5.6159407E-1,7.847452E-2,9.422465E-1,-1.4034082E-1,3.0928883E-1,-1.6584304E-1,-3.2445133E-1,-8.46184E-1,6.011283E-1,-5.28719E-2,-1.2449655E-1,4.2850855E-1,4.215291E-1,1.0766735E0,6.806762E-2,-8.4040254E-2,5.0401646E-3,9.9316645E-1,-4.2493752E-1,1.0815497E-1,-2.122836E-1,-1.0570453E0,-8.976393E-1,-8.196006E-2,4.1959557E-1,9.360302E-1,1.6693154E-1,-3.768379E-1,-1.5759675E-2,6.92491E-1,9.885772E-1,-5.077917E-1,1.1345103E-1,2.1652698E-3,3.5811025E-1,-7.2093076E-1,1.222896E-1,1.8231472E-3,-5.476405E-1,8.0104774E-1,4.7752276E-1,-2.2725266E-1,-3.794403E-1,3.7062326E-1,1.8990021E-2,-1.3982344E-1,-9.346386E-1,1.4053561E-2,7.2073415E-2,-1.08498946E-1,5.3369004E-2,-3.2518562E-2,1.0403048E-1,1.1157862E-2,-4.6624742E-2,3.236748E-2,-1.7837597E-2,-1.3716216E-1,2.4014456E-2,-1.4572112E-1,1.9585516E-2,9.708121E-2,2.2351004E-2,1.1102579E-1,-1.106398E-1,7.0812E-2,-3.3234532E-3,8.127686E-2,3.1649567E-2,-1.01813935E-1,-6.8036937E-3,-7.994407E-2,2.0846715E-2,9.3183875E-2,8.640687E-3,1.10404134E-1,-5.9743572E-2,3.3221822E-2,-1.148948E-1,-1.4729673E-2,5.8520388E-2,-8.0891855E-2,-1.1034735E-1,-5.6972332E-2],"categories":[],"categories_nodes":[],"categories_segments":[],"categories_sizes":[],"default_left":[0,0,0,0,0,0,0,0,0,0,0,0,0,0,0,0,0,0,0,0,0,0,0,0,0,0,0,0,0,0,0,0,0,0,0,0,0,0,0,0,0,0,0,0,0,0,0,0,0,0,0,0,0,0,0,0,0,0,0,0,0,0,0,0,0,0,0,0,0,0,0,0,0,0,0,0,0,0,0,0,0,0,0,0,0,0,0,0,0,0,0],"id":8,"left_children":[1,3,5,7,9,11,13,15,17,19,21,23,25,27,29,31,-1,33,35,37,39,-1,-1,41,43,45,47,49,51,53,55,57,59,61,63,65,67,69,71,-1,-1,73,75,-1,-1,77,79,81,83,85,87,-1,-1,89,-1,-1,-1,-1,-1,-1,-1,-1,-1,-1,-1,-1,-1,-1,-1,-1,-1,-1,-1,-1,-1,-1,-1,-1,-1,-1,-1,-1,-1,-1,-1,-1,-1,-1,-1,-1,-1],"loss_changes":[4.7127956E1,1.5013615E1,1.5097628E1,7.99315E0,3.1588345E0,4.075488E0,7.3506966E0,2.2662296E0,1.0290452E1,2.1968079E0,2.6656141E0,4.9225874E0,5.4535074E0,4.4006305E0,2.1614761E0,2.2876024E0,0E0,6.826974E0,6.2396917E0,5.462511E0,1.7726898E0,0E0,0E0,4.7170033E0,1.6097512E0,6.3587294E0,4.793784E0,5.018474E0,3.3381147E0,2.1729927E0,4.554766E0,2.7570577E0,1.1463795E0,4.4558964E0,9.548134E0,8.012713E0,4.417886E0,3.2767582E-1,3.8606868E0,0E0,0E0,2.2283025E0,2.1795871E0,0E0,0E0,4.3374643E0,1.1470723E-1,4.3938713E0,4.4437237E0,6.8688855E0,3.4252276E0,0E0,0E0,2.541378E0,0E0,0E0,0E0,0E0,0E0,0E0,0E0,0E0,0E0,0E0,0E0,0E0,0E0,0E0,0E0,0E0,0E0,0E0,0E0,0E0,0E0,0E0,0E0,0E0,0E0,0E0,0E0,0E0,0E0,0E0,0E0,0E0,0E0,0E0,0E0,0E0,0E0],"parents":[2147483647,0,0,1,1,2,2,3,3,4,4,5,5,6,6,7,7,8,8,9,9,10,10,11,11,12,12,13,13,14,14,15,15,17,17,18,18,19,19,20,20,23,23,24,24,25,25,26,26,27,27,28,28,29,29,30,30,31,31,32,32,33,33,34,34,35,35,36,36,37,37,38,38,41,41,42,42,45,45,46,46,47,47,48,48,49,49,50,50,53,53],"right_children":[2,4,6,8,10,12,14,16,18,20,22,24,26,28,30,32,-1,34,36,38,40,-1,-1,42,44,46,48,50,52,54,56,58,60,62,64,66,68,70,72,-1,-1,74,76,-1,-1,78,80,82,84,86,88,-1,-1,90,-1,-1,-1,-1,-1,-1,-1,-1,-1,-1,-1,-1,-1,-1,-1,-1,-1,-1,-1,-1,-1,-1,-1,-1,-1,-1,-1,-1,-1,-1,-1,-1,-1,-1,-1,-1,-1],"split_conditions":[2.6E1,1.5E1,1.2424533E0,4.772E2,6E-1,3.3833334E0,4.9E1,1.6032629E0,7.5E-1,9.8E1,5.2380955E-1,3.3222222E0,3.46875E0,2.5596766E1,3.0769232E-1,1.955E2,-5.28719E-2,1.0653847E0,7.923077E0,6.557377E-2,1.08E2,6.806762E-2,-8.4040254E-2,4E0,2.0588236E-1,7E0,3E0,1.1412712E1,1.3321791E0,1E0,3E0,1.3321791E0,3.75E1,9.649629E-1,1.2E1,7.0526314E0,4.5E-1,1.18644066E-1,1.7142858E-1,1.1345103E-1,2.1652698E-3,3.1333334E0,8.75E0,1.222896E-1,1.8231472E-3,1.875E-1,3E0,1.0114043E0,6.5E1,9.142857E-1,2.9032257E-1,1.8990021E-2,-1.3982344E-1,4.6052632E-1,1.4053561E-2,7.2073415E-2,-1.08498946E-1,5.3369004E-2,-3.2518562E-2,1.0403048E-1,1.1157862E-2,-4.6624742E-2,3.236748E-2,-1.7837597E-2,-1.3716216E-1,2.4014456E-2,-1.4572112E-1,1.9585516E-2,9.708121E-2,2.2351004E-2,1.1102579E-1,-1.106398E-1,7.0812E-2,-3.3234532E-3,8.127686E-2,3.1649567E-2,-1.01813935E-1,-6.8036937E-3,-7.994407E-2,2.0846715E-2,9.3183875E-2,8.640687E-3,1.10404134E-1,-5.9743572E-2,3.3221822E-2,-1.148948E-1,-1.4729673E-2,5.8520388E-2,-8.0891855E-2,-1.1034735E-1,-5.6972332E-2],"split_indices":[5,8,26,9,37,32,5,15,2,11,17,32,32,13,24,10,0,15,12,24,43,0,0,8,19,41,45,13,26,37,41,26,12,26,8,12,34,22,22,0,0,32,12,0,0,1,8,26,5,30,20,0,0,1,0,0,0,0,0,0,0,0,0,0,0,0,0,0,0,0,0,0,0,0,0,0,0,0,0,0,0,0,0,0,0,0,0,0,0,0,0],"split_type":[0,0,0,0,0,0,0,0,0,0,0,0,0,0,0,0,0,0,0,0,0,0,0,0,0,0,0,0,0,0,0,0,0,0,0,0,0,0,0,0,0,0,0,0,0,0,0,0,0,0,0,0,0,0,0,0,0,0,0,0,0,0,0,0,0,0,0,0,0,0,0,0,0,0,0,0,0,0,0,0,0,0,0,0,0,0,0,0,0,0,0],"sum_hessian":[4.3577676E2,2.2680112E2,2.0897566E2,1.8729128E2,3.9509846E1,9.785443E1,1.1112123E2,4.4201637E1,1.4308963E2,3.6867348E1,2.6424994E0,2.268251E1,7.517192E1,5.528371E1,5.5837517E1,4.308795E1,1.1136835E0,9.097887E1,5.2110767E1,8.413295E0,2.8454052E1,1.2289293E0,1.41357E0,1.6395657E1,6.286854E0,3.8353603E1,3.681832E1,4.9061634E1,6.222075E0,5.215157E1,3.6859477E0,2.9403019E1,1.3684934E1,4.2376675E1,4.8602192E1,1.9773438E1,3.233733E1,5.185482E0,3.2278132E0,2.6903826E1,1.5502269E0,1.1371793E1,5.0238643E0,4.882117E0,1.4047372E0,3.5367176E1,2.9864254E0,1.7320454E1,1.9497866E1,3.8399185E1,1.0662449E1,1.4319899E0,4.790085E0,5.045321E1,1.6983633E0,2.2037752E0,1.4821724E0,2.574285E1,3.6601694E0,1.1916012E1,1.7689221E0,8.0169325E0,3.4359745E1,4.150179E1,7.1004047E0,1.750002E1,2.2734184E0,1.2225631E1,2.0111698E1,1.1008354E0,4.0846467E0,2.2233174E0,1.0044956E0,6.609555E0,4.762238E0,1.1043085E0,3.9195557E0,1.2613138E1,2.2754038E1,1.0089637E0,1.9774617E0,1.1364112E1,5.9563427E0,1.1693086E1,7.80478E0,7.984136E0,3.041505E1,9.447622E0,1.2148266E0,3.3110226E1,1.7342983E1],"tree_param":{"num_deleted":"0","num_feature":"46","num_nodes":"91","size_leaf_vector":"1"}},{"base_weights":[9.3436666E-4,5.5363727E-1,-1.7152974E-1,1.4808449E-1,7.046975E-1,-1.28305415E-2,-4.0711334E-1,-3.2792654E-2,1.0273625E-1,7.9385704E-1,2.2310056E-2,1.5341456E-1,-2.7094907E-1,-5.065043E-2,-6.7568475E-1,-4.1951692E-1,5.6080735E-1,8.279037E-1,-4.5651834E-2,4.5621118E-1,-1.23493075E-1,1.0831129E-1,1.0857059E-1,-5.6315464E-1,-3.2332458E-2,-1.5303902E-1,7.825296E-1,-8.4440607E-1,-3.2695934E-1,-1.0634668E-1,-9.9808186E-1,-2.9178219E-2,1.03226714E-1,6.072352E-1,1.0417479E0,-5.7451107E-2,7.0700073E-1,-5.6222636E-1,1.620356E-1,6.943266E-2,-6.7978436E-1,-2.496245E-1,5.819482E-1,1.6325153E-1,-5.0858665E-1,1.0152619E0,-2.0410158E-2,5.4634836E-2,-8.9486456E-1,1.6671963E-2,-9.1107905E-1,-4.596899E-2,6.0977723E-2,-1.6193257E-1,1.528415E-2,4.5942772E-2,-9.351696E-2,8.20305E-2,6.5753753E-3,1.1221873E-1,1.3295119E-2,-3.4278338E-3,8.886648E-2,7.225171E-2,-1.2392626E-1,4.356852E-3,4.2825025E-2,-1.2036858E-1,-3.377808E-2,-1.2028257E-2,-1.2958716E-1,8.538174E-2,-1.8869914E-2,-4.9572438E-2,4.203584E-2,-6.064433E-2,7.700975E-2,1.11995876E-1,3.1690277E-2,-1.0263007E-1,-3.8889263E-2,5.6099106E-2,-4.3697596E-2,3.227864E-2,-1.12701E-1],"categories":[],"categories_nodes":[],"categories_segments":[],"categories_sizes":[],"default_left":[0,0,0,0,0,0,0,0,0,0,0,0,0,0,0,0,0,0,0,0,0,0,0,0,0,0,0,0,0,0,0,0,0,0,0,0,0,0,0,0,0,0,0,0,0,0,0,0,0,0,0,0,0,0,0,0,0,0,0,0,0,0,0,0,0,0,0,0,0,0,0,0,0,0,0,0,0,0,0,0,0,0,0,0,0],"id":9,"left_children":[1,3,5,7,9,11,13,15,-1,17,19,21,23,25,27,29,31,33,-1,35,-1,37,-1,39,41,43,45,47,49,51,53,55,-1,57,59,-1,61,63,65,-1,67,69,71,73,75,77,-1,-1,79,81,83,-1,-1,-1,-1,-1,-1,-1,-1,-1,-1,-1,-1,-1,-1,-1,-1,-1,-1,-1,-1,-1,-1,-1,-1,-1,-1,-1,-1,-1,-1,-1,-1,-1,-1],"loss_changes":[4.1215595E1,6.1954594E0,1.2315892E1,4.673549E0,4.5246124E0,8.535462E0,1.2661713E1,6.0122533E0,0E0,3.187729E0,5.8311396E0,4.971925E0,5.41378E0,5.073106E0,4.1690903E0,2.7584846E0,2.9105165E0,2.4161797E0,0E0,2.4506316E0,0E0,4.2901535E0,0E0,5.599142E0,6.0111427E0,5.9921684E0,1.7039142E0,4.0176086E0,5.2873783E0,3.1591165E0,4.1322136E0,2.8962326E0,0E0,3.891158E0,2.1472511E0,0E0,9.474671E-1,8.610731E0,3.4092336E0,0E0,5.4162035E0,4.331842E0,2.6299286E0,5.0481114E0,3.5928164E0,4.2937756E-2,0E0,0E0,2.8530502E0,4.5711946E0,2.9606037E0,0E0,0E0,0E0,0E0,0E0,0E0,0E0,0E0,0E0,0E0,0E0,0E0,0E0,0E0,0E0,0E0,0E0,0E0,0E0,0E0,0E0,0E0,0E0,0E0,0E0,0E0,0E0,0E0,0E0,0E0,0E0,0E0,0E0,0E0],"parents":[2147483647,0,0,1,1,2,2,3,3,4,4,5,5,6,6,7,7,9,9,10,10,11,11,12,12,13,13,14,14,15,15,16,16,17,17,19,19,21,21,23,23,24,24,25,25,26,26,27,27,28,28,29,29,30,30,31,31,33,33,34,34,36,36,37,37,38,38,40,40,41,41,42,42,43,43,44,44,45,45,48,48,49,49,50,50],"right_children":[2,4,6,8,10,12,14,16,-1,18,20,22,24,26,28,30,32,34,-1,36,-1,38,-1,40,42,44,46,48,50,52,54,56,-1,58,60,-1,62,64,66,-1,68,70,72,74,76,78,-1,-1,80,82,84,-1,-1,-1,-1,-1,-1,-1,-1,-1,-1,-1,-1,-1,-1,-1,-1,-1,-1,-1,-1,-1,-1,-1,-1,-1,-1,-1,-1,-1,-1,-1,-1,-1,-1],"split_conditions":[8E0,7.4074075E-2,4.4E1,3.65E1,2.2222222E-1,1.0653847E0,5E0,7.5E-1,1.0273625E-1,5E0,1.5625E-1,6.25E-1,4.6666667E-1,1.1E2,4.861111E-1,2.425E1,8.333333E0,1E0,-4.5651834E-2,1.5E-1,-1.23493075E-1,3.2923076E0,1.0857059E-1,4E0,2.915E2,3E0,5.555556E-1,7.1428573E-1,6.25E-1,1.3513514E-2,2.0689656E-1,7.0526314E0,1.03226714E-1,2.968E2,7E0,-5.7451107E-2,1.008E2,1.4285715E-1,3E0,6.943266E-2,3.4466667E0,2.2857144E0,1.0333333E0,1E0,4.054054E-2,1.3513514E-2,-2.0410158E-2,5.4634836E-2,2.5581396E-1,3.4363637E0,4E0,-4.596899E-2,6.0977723E-2,-1.6193257E-1,1.528415E-2,4.5942772E-2,-9.351696E-2,8.20305E-2,6.5753753E-3,1.1221873E-1,1.3295119E-2,-3.4278338E-3,8.886648E-2,7.225171E-2,-1.2392626E-1,4.356852E-3,4.2825025E-2,-1.2036858E-1,-3.377808E-2,-1.2028257E-2,-1.2958716E-1,8.538174E-2,-1.8869914E-2,-4.9572438E-2,4.203584E-2,-6.064433E-2,7.700975E-2,1.11995876E-1,3.1690277E-2,-1.0263007E-1,-3.8889263E-2,5.6099106E-2,-4.3697596E-2,3.227864E-2,-1.12701E-1],"split_indices":[5,21,5,12,24,15,8,2,0,18,23,23,34,5,1,12,12,2,0,34,0,32,0,0,10,40,19,30,1,25,22,12,0,10,5,0,11,17,41,0,32,27,34,18,37,25,0,0,21,32,14,0,0,0,0,0,0,0,0,0,0,0,0,0,0,0,0,0,0,0,0,0,0,0,0,0,0,0,0,0,0,0,0,0,0],"split_type":[0,0,0,0,0,0,0,0,0,0,0,0,0,0,0,0,0,0,0,0,0,0,0,0,0,0,0,0,0,0,0,0,0,0,0,0,0,0,0,0,0,0,0,0,0,0,0,0,0,0,0,0,0,0,0,0,0,0,0,0,0,0,0,0,0,0,0,0,0,0,0,0,0,0,0,0,0,0,0,0,0,0,0,0,0],"sum_hessian":[4.3038928E2,1.0183244E2,3.2855682E2,2.8173927E1,7.3658516E1,1.9694244E2,1.316144E2,2.416552E1,4.008408E0,6.50021E1,8.656416E0,1.2003667E2,7.690578E1,5.70642E1,7.4550186E1,1.4810136E1,9.355384E0,6.3607986E1,1.3941132E0,6.9090767E0,1.7473395E0,1.1556207E2,4.474594E0,3.39595E1,4.2946274E1,5.1546078E1,5.5181227E0,4.9284042E1,2.5266146E1,1.0377001E1,4.433135E0,4.5720387E0,4.7833457E0,3.3194157E1,3.041383E1,1.099485E0,5.809592E0,7.870069E0,1.07692E2,2.461948E0,3.1497551E1,3.216282E1,1.0783456E1,2.756524E1,2.3980837E1,4.441433E0,1.0766897E0,1.3814118E0,4.790263E1,1.6519413E1,8.746734E0,7.188301E0,3.1886992E0,2.6147623E0,1.8183725E0,3.2904058E0,1.2816327E0,2.3451283E1,9.742872E0,2.772503E1,2.688799E0,1.3032E0,4.5063915E0,2.6928818E0,5.177187E0,7.533233E1,3.2359676E1,1.1445358E1,2.0052195E1,2.961646E1,2.5463586E0,7.89155E0,2.8919053E0,7.4759564E0,2.0089285E1,2.2764423E1,1.2164137E0,3.3373957E0,1.1040372E0,3.720859E1,1.0694037E1,7.4017015E0,9.117711E0,1.2290246E0,7.5177093E0],"tree_param":{"num_deleted":"0","num_feature":"46","num_nodes":"85","size_leaf_vector":"1"}},{"base_weights":[1.5799247E-3,5.192779E-1,-1.5516104E-1,3.7647992E-1,9.636645E-1,5.761638E-2,-3.0272856E-1,2.4708137E-1,8.552013E-1,1.0345544E0,-1.495213E-2,2.296071E-1,-1.8640053E-1,-3.0791728E-2,-5.3431857E-1,3.8691863E-2,5.723559E-1,1.00253E0,-4.3970928E-2,1.1120492E-1,1.9938675E-1,3.6647844E-1,-1.4157945E-1,-6.0573936E-1,1.07480496E-1,3.7488797E-1,-1.4810967E-1,-3.179647E-1,-7.2188896E-1,1.5738548E-1,-9.448729E-1,-3.124127E-2,8.9021766E-1,1.0526367E0,2.5940064E-2,-2.9467285E-2,6.032538E-2,5.151582E-1,-8.1427135E-2,-9.021937E-1,1.1635804E-1,6.279837E-2,-7.701348E-1,2.8560245E-1,-8.257735E-1,1.2985729E-1,9.025042E-1,-3.922766E-1,1.0044283E-1,-1.9570468E-1,-9.2156816E-1,-9.604026E-1,-5.210202E-1,2.3432063E-2,-1.2155632E-1,-1.3657694E-1,-2.086879E-2,-4.279713E-2,8.375478E-2,9.889499E-2,-2.562241E-2,1.106977E-1,2.7218005E-2,5.9089333E-2,-3.4923982E-2,-3.9803397E-2,6.662821E-2,-1.3827698E-1,3.756288E-2,4.701488E-2,-3.7260663E-2,-9.305513E-2,8.4653266E-2,4.4483293E-2,-3.4605972E-2,-1.134601E-1,2.9121727E-2,3.9989457E-2,-4.4846732E-2,1.1665767E-1,-2.3089053E-2,-4.9701285E-2,7.08436E-2,4.594874E-2,-2.1428963E-2,-6.7256E-2,-1.0701558E-3,-1.2120575E-1,-4.920375E-3,1.906138E-2,-1.0255461E-1,-2.6720438E-2,-9.4936065E-2],"categories":[],"categories_nodes":[],"categories_segments":[],"categories_sizes":[],"default_left":[0,0,0,0,0,0,0,0,0,0,0,0,0,0,0,0,0,0,0,0,0,0,0,0,0,0,0,0,0,0,0,0,0,0,0,0,0,0,0,0,0,0,0,0,0,0,0,0,0,0,0,0,0,0,0,0,0,0,0,0,0,0,0,0,0,0,0,0,0,0,0,0,0,0,0,0,0,0,0,0,0,0,0,0,0,0,0,0,0,0,0,0,0],"id":10,"left_children":[1,3,5,7,9,11,13,15,17,19,-1,21,23,25,27,29,31,33,-1,-1,35,37,39,41,43,45,47,49,51,53,55,57,59,61,-1,-1,-1,63,65,67,69,-1,71,73,75,77,79,81,83,85,87,89,91,-1,-1,-1,-1,-1,-1,-1,-1,-1,-1,-1,-1,-1,-1,-1,-1,-1,-1,-1,-1,-1,-1,-1,-1,-1,-1,-1,-1,-1,-1,-1,-1,-1,-1,-1,-1,-1,-1,-1,-1],"loss_changes":[3.466504E1,5.937372E0,1.0314026E1,4.5448055E0,2.0094185E0,5.7140994E0,1.2188337E1,4.1701155E0,3.480092E0,1.2165337E0,0E0,4.1016445E0,7.018029E0,4.3481913E0,4.01532E0,4.674749E0,4.647471E0,2.709036E-1,0E0,0E0,7.9739463E-1,3.938809E0,4.4596043E0,5.229246E0,5.8913174E0,2.5350842E0,4.328785E0,3.5360827E0,2.1461506E0,4.0295296E0,1.0528064E0,3.55427E0,2.0425138E0,2.652464E-1,0E0,0E0,0E0,3.091385E0,3.9219244E0,4.041284E0,3.1957374E0,0E0,6.258847E0,3.1021085E0,2.2999983E0,2.5495846E0,2.1663108E0,4.4859586E0,4.14635E0,3.7992864E0,2.0215926E0,2.0001163E0,3.244072E0,0E0,0E0,0E0,0E0,0E0,0E0,0E0,0E0,0E0,0E0,0E0,0E0,0E0,0E0,0E0,0E0,0E0,0E0,0E0,0E0,0E0,0E0,0E0,0E0,0E0,0E0,0E0,0E0,0E0,0E0,0E0,0E0,0E0,0E0,0E0,0E0,0E0,0E0,0E0,0E0],"parents":[2147483647,0,0,1,1,2,2,3,3,4,4,5,5,6,6,7,7,8,8,9,9,11,11,12,12,13,13,14,14,15,15,16,16,17,17,20,20,21,21,22,22,23,23,24,24,25,25,26,26,27,27,28,28,29,29,30,30,31,31,32,32,33,33,37,37,38,38,39,39,40,40,42,42,43,43,44,44,45,45,46,46,47,47,48,48,49,49,50,50,51,51,52,52],"right_children":[2,4,6,8,10,12,14,16,18,20,-1,22,24,26,28,30,32,34,-1,-1,36,38,40,42,44,46,48,50,52,54,56,58,60,62,-1,-1,-1,64,66,68,70,-1,72,74,76,78,80,82,84,86,88,90,92,-1,-1,-1,-1,-1,-1,-1,-1,-1,-1,-1,-1,-1,-1,-1,-1,-1,-1,-1,-1,-1,-1,-1,-1,-1,-1,-1,-1,-1,-1,-1,-1,-1,-1,-1,-1,-1,-1,-1,-1],"split_conditions":[8E0,1.5E1,3.1E1,3.0769232E-1,7E0,1.0653847E0,1.2424533E0,3.336E2,2.7142856E0,2.1052632E-1,-1.495213E-2,2.2727273E-1,3.6842105E-1,3.3833334E0,4.9E1,2.912E2,7.5384617E0,1.1111112E0,-4.3970928E-2,1.1120492E-1,2.6086956E-1,7.8947365E-2,1.1E1,4.421E2,1.08E2,3.3222222E0,3.46875E0,1.3333334E-1,2.5E-1,2.5581396E-1,7.5E-1,8.319E2,8E0,1.7857143E-1,2.5940064E-2,-2.9467285E-2,6.032538E-2,3.6363637E-1,5.5E1,3E0,1.35E0,6.279837E-2,1.9732617E0,2.325E1,1.1764706E-1,4E0,2.0588236E-1,7E0,3E0,3.7E1,1.5941668E0,3.3428571E0,2.0588236E-1,2.3432063E-2,-1.2155632E-1,-1.3657694E-1,-2.086879E-2,-4.279713E-2,8.375478E-2,9.889499E-2,-2.562241E-2,1.106977E-1,2.7218005E-2,5.9089333E-2,-3.4923982E-2,-3.9803397E-2,6.662821E-2,-1.3827698E-1,3.756288E-2,4.701488E-2,-3.7260663E-2,-9.305513E-2,8.4653266E-2,4.4483293E-2,-3.4605972E-2,-1.134601E-1,2.9121727E-2,3.9989457E-2,-4.4846732E-2,1.1665767E-1,-2.3089053E-2,-4.9701285E-2,7.08436E-2,4.594874E-2,-2.1428963E-2,-6.7256E-2,-1.0701558E-3,-1.2120575E-1,-4.920375E-3,1.906138E-2,-1.0255461E-1,-2.6720438E-2,-9.4936065E-2],"split_indices":[5,8,5,21,5,15,26,10,27,24,0,22,38,32,5,11,12,34,0,0,24,25,5,9,43,32,32,31,38,21,2,10,41,31,0,0,0,35,43,41,27,0,15,12,25,8,19,41,45,5,26,32,19,0,0,0,0,0,0,0,0,0,0,0,0,0,0,0,0,0,0,0,0,0,0,0,0,0,0,0,0,0,0,0,0,0,0,0,0,0,0,0,0],"split_type":[0,0,0,0,0,0,0,0,0,0,0,0,0,0,0,0,0,0,0,0,0,0,0,0,0,0,0,0,0,0,0,0,0,0,0,0,0,0,0,0,0,0,0,0,0,0,0,0,0,0,0,0,0,0,0,0,0,0,0,0,0,0,0,0,0,0,0,0,0,0,0,0,0,0,0,0,0,0,0,0,0,0,0,0,0,0,0,0,0,0,0,0,0],"sum_hessian":[4.2520856E2,9.8281784E1,3.2692676E2,7.577851E1,2.250327E1,1.3413184E2,1.9279492E2,6.084753E1,1.493098E1,2.1222418E1,1.2808503E0,7.871213E1,5.5419712E1,8.919437E1,1.0360056E2,3.7769302E1,2.3078228E1,1.3608467E1,1.3225127E0,1.911703E1,2.1053903E0,5.7516266E1,2.1195862E1,2.2398344E1,3.3021366E1,1.951544E1,6.9678925E1,4.936058E1,5.4239983E1,3.4451756E1,3.317549E0,8.271997E0,1.4806231E1,1.235867E1,1.249797E0,1.0685638E0,1.0368264E0,4.306945E1,1.4446813E1,4.7351065E0,1.6460756E1,2.3020918E0,2.0096252E1,2.831173E1,4.709638E0,1.4177416E1,5.3380246E0,3.4857864E1,3.482106E1,4.2147766E1,7.2128134E0,2.3067802E1,3.1172182E1,3.3408966E1,1.0427889E0,1.5666533E0,1.7508957E0,6.0271225E0,2.244875E0,1.37586975E1,1.0475329E0,1.1163057E1,1.1956122E0,3.989079E1,3.1786642E0,1.0477799E1,3.969013E0,3.3813033E0,1.3538032E0,9.572818E0,6.887938E0,1.8668264E1,1.4279877E0,2.2847952E1,5.463777E0,3.677195E0,1.0324432E0,9.875006E0,4.30241E0,4.30558E0,1.0324442E0,3.2330025E1,2.5278413E0,1.6050655E1,1.8770405E1,1.1044524E1,3.1103243E1,5.11888E0,2.0939333E0,1.1324545E0,2.1935347E1,2.0593306E1,1.05788765E1],"tree_param":{"num_deleted":"0","num_feature":"46","num_nodes":"93","size_leaf_vector":"1"}},{"base_weights":[1.590525E-3,4.8581266E-1,-1.4114457E-1,3.474535E-1,9.357875E-1,6.587748E-2,-2.6863316E-1,2.2460943E-1,8.1552196E-1,1.0096554E0,-1.4043397E-2,1.0193991E-1,-8.934046E-1,-1.1647023E-1,-6.771213E-1,3.5665765E-2,5.5390877E-1,9.6378785E-1,-4.1062847E-2,1.09071516E-1,1.9142935E-2,4.333288E-2,6.1454684E-1,-9.389326E-3,-1.1859635E-1,7.2405696E-1,-1.6027832E-1,-9.4808376E-1,-4.8459986E-1,-1.5044294E-1,5.485954E-1,-2.8388527E-1,8.374723E-1,1.1194368E-1,5.34292E-1,1.1451624E-1,-4.4437018E-1,9.0941674E-1,-2.2689469E-1,9.859033E-1,-2.381503E-2,-7.9837483E-1,-7.468868E-2,-1.0351434E0,1.5140577E-2,-8.6782604E-1,-2.0668025E-1,2.3875654E-2,-9.513098E-2,7.705903E-2,-8.060099E-2,6.675886E-2,-1.1050304E-1,2.9543525E-2,1.0594535E-1,-5.9744418E-3,8.878851E-2,2.5799353E-2,-1.6016925E-2,4.8242747E-3,-1.3651055E-1,1.0663726E-1,-1.7192954E-2,-6.615711E-2,3.6329355E-2,1.09402575E-1,2.32739E-2,-1.1661541E-1,-3.569378E-3,-1.664795E-3,-8.23131E-2,-1.2089012E-1,-4.2332467E-2,-1.04663484E-1,-1.3781868E-2,2.4739964E-2,-7.475086E-2],"categories":[],"categories_nodes":[],"categories_segments":[],"categories_sizes":[],"default_left":[0,0,0,0,0,0,0,0,0,0,0,0,0,0,0,0,0,0,0,0,0,0,0,0,0,0,0,0,0,0,0,0,0,0,0,0,0,0,0,0,0,0,0,0,0,0,0,0,0,0,0,0,0,0,0,0,0,0,0,0,0,0,0,0,0,0,0,0,0,0,0,0,0,0,0,0,0],"id":11,"left_children":[1,3,5,7,9,11,13,15,17,19,-1,21,23,25,27,29,31,33,-1,-1,-1,35,37,-1,-1,39,41,43,45,47,49,51,53,-1,55,57,59,61,63,65,-1,67,69,71,-1,73,75,-1,-1,-1,-1,-1,-1,-1,-1,-1,-1,-1,-1,-1,-1,-1,-1,-1,-1,-1,-1,-1,-1,-1,-1,-1,-1,-1,-1,-1,-1],"loss_changes":[2.9174711E1,5.6578274E0,8.622428E0,4.134468E0,1.8914852E0,4.417306E0,1.2474729E1,3.766886E0,3.164568E0,1.1653137E0,0E0,3.6212282E0,9.724121E-1,5.5789413E0,2.3891792E0,3.876148E0,5.492696E0,3.301859E-1,0E0,0E0,0E0,3.871126E0,3.2785907E0,0E0,0E0,2.1321497E0,7.6862936E0,2.2278442E0,3.4386325E0,9.560789E0,3.8674564E0,5.691436E0,1.7059307E0,0E0,1.230739E0,3.857147E0,6.5157886E0,1.7734528E0,1.2699723E0,2.4328756E-1,0E0,4.6345043E0,5.4666357E0,1.6332226E0,0E0,1.6788883E0,5.3428054E0,0E0,0E0,0E0,0E0,0E0,0E0,0E0,0E0,0E0,0E0,0E0,0E0,0E0,0E0,0E0,0E0,0E0,0E0,0E0,0E0,0E0,0E0,0E0,0E0,0E0,0E0,0E0,0E0,0E0,0E0],"parents":[2147483647,0,0,1,1,2,2,3,3,4,4,5,5,6,6,7,7,8,8,9,9,11,11,12,12,13,13,14,14,15,15,16,16,17,17,21,21,22,22,25,25,26,26,27,27,28,28,29,29,30,30,31,31,32,32,34,34,35,35,36,36,37,37,38,38,39,39,41,41,42,42,43,43,45,45,46,46],"right_children":[2,4,6,8,10,12,14,16,18,20,-1,22,24,26,28,30,32,34,-1,-1,-1,36,38,-1,-1,40,42,44,46,48,50,52,54,-1,56,58,60,62,64,66,-1,68,70,72,-1,74,76,-1,-1,-1,-1,-1,-1,-1,-1,-1,-1,-1,-1,-1,-1,-1,-1,-1,-1,-1,-1,-1,-1,-1,-1,-1,-1,-1,-1,-1,-1],"split_conditions":[8E0,1.5E1,5E0,3.0769232E-1,7E0,9E0,4.9E1,7.222222E-1,2.7142856E0,2.1052632E-1,-1.4043397E-2,5E-1,1.25E-1,7.741935E-1,2.5E-1,1.4611453E0,1.116E2,8.126E2,-4.1062847E-2,1.09071516E-1,1.9142935E-2,3.125E-1,8.0487806E-1,-9.389326E-3,-1.1859635E-1,3.4E1,3.3666666E0,4E-1,6.849848E-1,1.0999439E0,3.5181818E0,9.8E1,1E0,1.1194368E-1,3.3333334E-1,1.2580645E0,3.4866667E0,1.7948718E-1,2.781E2,4.055E2,-2.381503E-2,1.7E2,8.7E1,1.04E2,1.5140577E-2,5E-1,1.826923E-1,2.3875654E-2,-9.513098E-2,7.705903E-2,-8.060099E-2,6.675886E-2,-1.1050304E-1,2.9543525E-2,1.0594535E-1,-5.9744418E-3,8.878851E-2,2.5799353E-2,-1.6016925E-2,4.8242747E-3,-1.3651055E-1,1.0663726E-1,-1.7192954E-2,-6.615711E-2,3.6329355E-2,1.09402575E-1,2.32739E-2,-1.1661541E-1,-3.569378E-3,-1.664795E-3,-8.23131E-2,-1.2089012E-1,-4.2332467E-2,-1.04663484E-1,-1.3781868E-2,2.4739964E-2,-7.475086E-2],"split_indices":[5,8,0,21,5,41,5,38,27,24,0,2,1,30,38,15,11,9,0,0,0,1,38,0,0,5,32,17,15,15,32,11,18,0,17,27,32,39,9,10,0,10,14,5,0,1,19,0,0,0,0,0,0,0,0,0,0,0,0,0,0,0,0,0,0,0,0,0,0,0,0,0,0,0,0,0,0],"split_type":[0,0,0,0,0,0,0,0,0,0,0,0,0,0,0,0,0,0,0,0,0,0,0,0,0,0,0,0,0,0,0,0,0,0,0,0,0,0,0,0,0,0,0,0,0,0,0,0,0,0,0,0,0,0,0,0,0,0,0,0,0,0,0,0,0,0,0,0,0,0,0,0,0,0,0,0,0],"sum_hessian":[4.2012326E2,9.5099396E1,3.2502386E2,7.4090164E1,2.1009233E1,1.2405716E2,2.0096669E2,5.9859867E1,1.4230293E1,1.9717733E1,1.2915006E0,1.2042378E2,3.6333754E0,1.4735988E2,5.360682E1,3.874009E1,2.1119781E1,1.2886083E1,1.3442099E0,1.7637411E1,2.0803227E0,1.09041466E2,1.1382321E1,1.3272301E0,2.3061452E0,6.530674E0,1.4082921E2,2.0636961E1,3.296986E1,2.8944658E1,9.795429E0,5.340383E0,1.5779398E1,8.279282E0,4.6068015E0,9.582098E1,1.3220489E1,8.368817E0,3.013504E0,5.1142907E0,1.4163833E0,1.5670792E1,1.2515841E2,1.9177011E1,1.4599485E0,1.2966978E1,2.000288E1,1.9950928E1,8.993731E0,8.7866E0,1.0088292E0,2.5604973E0,2.779886E0,5.2618446E0,1.0517553E1,2.029044E0,2.5777578E0,6.298342E1,3.283755E1,9.2299E0,3.9905884E0,7.3201537E0,1.0486635E0,1.6657339E0,1.3477701E0,4.0765057E0,1.0377853E0,1.0215611E1,5.4551806E0,1.17099724E2,8.058688E0,1.4175289E1,5.001723E0,1.0067342E1,2.899636E0,1.116842E1,8.83446E0],"tree_param":{"num_deleted":"0","num_feature":"46","num_nodes":"77","size_leaf_vector":"1"}},{"base_weights":[1.1577628E-3,4.5628384E-1,-1.2956734E-1,3.2327536E-1,9.086006E-1,-2.1801783E-1,1.3231242E-1,2.0675096E-1,7.81004E-1,9.855658E-1,-1.3191277E-2,8.606799E-3,-4.1338593E-1,-1.7272222E-1,3.322584E-1,1.8187108E-2,5.140757E-1,9.3048066E-1,-3.836749E-2,1.071101E-1,1.8002605E-2,-4.9451016E-2,4.9455872E-1,-7.0336956E-1,-2.9989165E-1,4.0900975E-2,-1.1011823E0,4.2777598E-1,-7.538028E-1,1.31161E-1,-8.89346E-1,-4.6722866E-3,8.695973E-1,1.0362605E0,3.9183113E-1,-8.448703E-2,9.383183E-2,7.9758906E-1,1.7859682E-2,-8.4641415E-1,-1.5314814E-1,-4.6045592E-1,-4.5522336E-2,5.7955885E-1,-2.760482E-1,-9.4252065E-2,-1.6968341E-1,4.9739566E-1,-6.2301874E-1,-1.20675616E-1,3.5108052E-2,2.0392628E-2,-1.09616615E-1,-1.2727009E-1,-2.00955E-2,-3.5142682E-2,8.2776725E-2,9.84019E-2,-2.5936976E-2,1.1062527E-1,3.3069666E-2,7.822742E-2,-3.3262193E-2,2.640116E-2,-1.9381724E-2,9.8022334E-2,-8.884754E-3,5.4949474E-2,-6.1652668E-2,-4.8195466E-2,-1.2072965E-1,8.693718E-2,-6.3296065E-2,4.943578E-2,-5.2443534E-2,2.6774758E-2,-5.5393457E-2,8.7244384E-2,-1.2577601E-2,-8.628967E-2,1.3136193E-2,7.0117764E-2,-7.713791E-2,9.565636E-2,3.01266E-2,3.0500028E-2,-1.2467783E-1],"categories":[],"categories_nodes":[],"categories_segments":[],"categories_sizes":[],"default_left":[0,0,0,0,0,0,0,0,0,0,0,0,0,0,0,0,0,0,0,0,0,0,0,0,0,0,0,0,0,0,0,0,0,0,0,0,0,0,0,0,0,0,0,0,0,0,0,0,0,0,0,0,0,0,0,0,0,0,0,0,0,0,0,0,0,0,0,0,0,0,0,0,0,0,0,0,0,0,0,0,0,0,0,0,0,0,0],"id":12,"left_children":[1,3,5,7,9,11,13,15,17,19,-1,21,23,25,27,29,31,33,-1,-1,-1,35,37,39,41,43,45,47,49,51,53,55,57,59,61,63,-1,65,67,69,71,73,75,77,79,81,-1,83,85,-1,-1,-1,-1,-1,-1,-1,-1,-1,-1,-1,-1,-1,-1,-1,-1,-1,-1,-1,-1,-1,-1,-1,-1,-1,-1,-1,-1,-1,-1,-1,-1,-1,-1,-1,-1,-1,-1],"loss_changes":[2.4832363E1,5.309244E0,7.539596E0,3.7598686E0,1.7805843E0,1.075192E1,5.08839E0,3.465486E0,2.8915071E0,1.137619E0,0E0,3.2230062E0,4.0804634E0,6.6535587E0,5.5269165E0,4.033E0,4.202388E0,3.4575748E-1,0E0,0E0,0E0,3.6154783E0,1.7466531E0,2.69866E0,3.8777714E0,4.9490547E0,3.599512E0,3.7300482E0,2.634539E0,3.3350623E0,8.9409876E-1,3.2500865E0,2.0007477E0,1.487751E-1,1.3276577E0,3.8459752E0,0E0,1.2899008E0,2.281532E0,3.140257E0,4.7869987E0,3.827384E0,6.208275E0,2.3230076E0,4.4975605E0,2.3659608E0,0E0,3.7105656E0,2.3188524E0,0E0,0E0,0E0,0E0,0E0,0E0,0E0,0E0,0E0,0E0,0E0,0E0,0E0,0E0,0E0,0E0,0E0,0E0,0E0,0E0,0E0,0E0,0E0,0E0,0E0,0E0,0E0,0E0,0E0,0E0,0E0,0E0,0E0,0E0,0E0,0E0,0E0,0E0],"parents":[2147483647,0,0,1,1,2,2,3,3,4,4,5,5,6,6,7,7,8,8,9,9,11,11,12,12,13,13,14,14,15,15,16,16,17,17,21,21,22,22,23,23,24,24,25,25,26,26,27,27,28,28,29,29,30,30,31,31,32,32,33,33,34,34,35,35,37,37,38,38,39,39,40,40,41,41,42,42,43,43,44,44,45,45,47,47,48,48],"right_children":[2,4,6,8,10,12,14,16,18,20,-1,22,24,26,28,30,32,34,-1,-1,-1,36,38,40,42,44,46,48,50,52,54,56,58,60,62,64,-1,66,68,70,72,74,76,78,80,82,-1,84,86,-1,-1,-1,-1,-1,-1,-1,-1,-1,-1,-1,-1,-1,-1,-1,-1,-1,-1,-1,-1,-1,-1,-1,-1,-1,-1,-1,-1,-1,-1,-1,-1,-1,-1,-1,-1,-1,-1],"split_conditions":[8E0,1.5E1,1.093E2,3.0769232E-1,7E0,1.153742E0,4.117647E-1,3.336E2,2.7142856E0,2.1052632E-1,-1.3191277E-2,1.0986123E0,3.7058823E0,1.764706E-1,8.5E1,2.912E2,8.333333E0,3.15E2,-3.836749E-2,1.071101E-1,1.8002605E-2,1E0,3E0,2.1428572E-1,4.6052632E-1,1.1904762E-1,2.3076923E-1,2.85E1,1.3043478E-1,2.5581396E-1,7.5E-1,8.319E2,8E0,1E1,1.2903225E-1,3.3857143E0,9.383183E-2,2E0,1.115942E0,1.6216215E-1,9.52381E-2,1.2554823E0,2.6E1,1E1,7E0,1.15384616E-1,-1.6968341E-1,3E-1,1.4166666E0,-1.20675616E-1,3.5108052E-2,2.0392628E-2,-1.09616615E-1,-1.2727009E-1,-2.00955E-2,-3.5142682E-2,8.2776725E-2,9.84019E-2,-2.5936976E-2,1.1062527E-1,3.3069666E-2,7.822742E-2,-3.3262193E-2,2.640116E-2,-1.9381724E-2,9.8022334E-2,-8.884754E-3,5.4949474E-2,-6.1652668E-2,-4.8195466E-2,-1.2072965E-1,8.693718E-2,-6.3296065E-2,4.943578E-2,-5.2443534E-2,2.6774758E-2,-5.5393457E-2,8.7244384E-2,-1.2577601E-2,-8.628967E-2,1.3136193E-2,7.0117764E-2,-7.713791E-2,9.565636E-2,3.01266E-2,3.0500028E-2,-1.2467783E-1],"split_indices":[5,8,10,21,5,26,38,10,27,24,0,26,12,25,14,11,12,11,0,0,0,23,41,21,1,21,34,12,23,21,2,10,41,0,19,32,0,16,27,20,19,26,14,8,0,23,0,17,27,0,0,0,0,0,0,0,0,0,0,0,0,0,0,0,0,0,0,0,0,0,0,0,0,0,0,0,0,0,0,0,0,0,0,0,0,0,0],"split_type":[0,0,0,0,0,0,0,0,0,0,0,0,0,0,0,0,0,0,0,0,0,0,0,0,0,0,0,0,0,0,0,0,0,0,0,0,0,0,0,0,0,0,0,0,0,0,0,0,0,0,0,0,0,0,0,0,0,0,0,0,0,0,0,0,0,0,0,0,0,0,0,0,0,0,0,0,0,0,0,0,0,0,0,0,0,0,0],"sum_hessian":[4.1538223E2,9.213146E1,3.2325076E2,7.2520706E1,1.9610758E1,2.4176242E2,8.1488335E1,5.8962303E1,1.3558398E1,1.830926E1,1.3014994E0,1.1237024E2,1.2939218E2,3.231904E1,4.9169296E1,3.7198048E1,2.176426E1,1.219443E1,1.3639679E0,1.6253712E1,2.055546E0,1.0118024E2,1.11900015E1,3.4934746E1,9.445744E1,2.7051003E1,5.268037E0,4.575163E1,3.4176705E0,3.3840855E1,3.3571904E0,9.2517395E0,1.2512519E1,9.420603E0,2.7738273E0,9.859747E1,2.582769E0,6.429632E0,4.7603693E0,2.7299263E1,7.6354804E0,5.740916E1,3.7048283E1,9.713786E0,1.7337217E1,2.3885324E0,2.8795047E0,4.340266E1,2.3489654E0,2.358562E0,1.0591086E0,3.2733982E1,1.1068738E0,1.6111559E0,1.7460344E0,6.939084E0,2.312656E0,1.1477642E1,1.0348767E0,8.053768E0,1.3668352E0,1.7505546E0,1.0232729E0,2.3207365E1,7.539011E1,5.2435017E0,1.1861308E0,2.662734E0,2.0976353E0,1.4744304E1,1.255496E1,2.1793044E0,5.456176E0,3.1828127E0,5.4226345E1,2.3216354E1,1.3831927E1,6.6962833E0,3.0175023E0,6.6460295E0,1.0691187E1,1.0819885E0,1.3065438E0,1.1829916E1,3.1572746E1,1.1496156E0,1.1993499E0],"tree_param":{"num_deleted":"0","num_feature":"46","num_nodes":"87","size_leaf_vector":"1"}},{"base_weights":[1.41774E-3,4.2677402E-1,-1.1771732E-1,2.4541256E-1,7.455076E-1,-1.8053948E-3,-2.921149E-1,6.776862E-1,1.04986265E-1,-1.2302998E-2,8.0803174E-1,1.2907396E-1,-2.0120834E-1,-2.6122332E-2,-5.0200206E-1,8.702015E-1,-1.4567412E-1,-7.772384E-2,5.011944E-1,-3.6423534E-2,9.006311E-1,8.83074E-2,1.0279802E-1,-3.76699E-1,1.329257E-1,-1.2220691E-1,7.637075E-1,-6.8491006E-1,-2.395135E-1,9.838084E-1,3.5535592E-1,-6.979329E-2,3.933921E-2,4.6161667E-1,-3.2764408E-1,-4.142123E-2,6.775378E-1,6.888416E-2,-7.1337424E-2,9.618442E-1,-2.5591379E-2,-5.0241065E-1,1.3645372E-1,-9.984731E-2,-7.4851316E-1,-9.3185015E-2,1.03286125E-1,1.5957789E-1,-4.3105555E-1,9.930152E-1,-1.866108E-2,3.956643E-2,-7.24544E-1,-9.69211E-1,-5.058826E-3,3.1793553E-2,1.0598508E-1,-3.4496192E-2,7.592281E-2,9.738807E-2,9.0293E-3,-1.11842565E-1,2.2386436E-3,8.889293E-2,-3.035288E-2,1.0233428E-1,1.3895969E-2,6.592514E-2,-1.07136E-1,-1.05596565E-1,1.6056303E-2,-5.5179205E-2,2.6241107E-2,-9.062477E-2,3.1019127E-2,1.6391147E-2,-1.02834694E-1,-7.56995E-3,7.880869E-2,-5.1786076E-2,7.34858E-2,1.1205818E-1,3.0156607E-2,-7.916583E-2,-1.5496489E-3,-1.2030858E-1,2.6993917E-3,-2.7655357E-2,6.288659E-2],"categories":[],"categories_nodes":[],"categories_segments":[],"categories_sizes":[],"default_left":[0,0,0,0,0,0,0,0,0,0,0,0,0,0,0,0,0,0,0,0,0,0,0,0,0,0,0,0,0,0,0,0,0,0,0,0,0,0,0,0,0,0,0,0,0,0,0,0,0,0,0,0,0,0,0,0,0,0,0,0,0,0,0,0,0,0,0,0,0,0,0,0,0,0,0,0,0,0,0,0,0,0,0,0,0,0,0,0,0],"id":13,"left_children":[1,3,5,7,9,11,13,15,17,-1,19,21,23,25,27,29,31,33,35,37,39,41,-1,43,45,47,49,51,53,55,57,-1,-1,59,61,-1,63,-1,-1,65,-1,67,69,71,73,75,-1,77,79,81,-1,-1,83,85,87,-1,-1,-1,-1,-1,-1,-1,-1,-1,-1,-1,-1,-1,-1,-1,-1,-1,-1,-1,-1,-1,-1,-1,-1,-1,-1,-1,-1,-1,-1,-1,-1,-1,-1],"loss_changes":[2.0918001E1,5.0379486E0,6.5183196E0,3.5136049E0,1.8514614E0,5.107965E0,7.1748095E0,2.392951E0,3.351399E0,0E0,2.3965836E0,4.239749E0,4.5977116E0,4.4828577E0,3.2884426E0,3.3653736E-1,1.3361595E0,4.4891143E0,2.633526E0,2.4299111E0,2.1774921E0,3.314834E0,0E0,5.186363E0,5.681003E0,4.631632E0,1.5824044E0,2.0786324E0,5.310333E0,1.210165E-1,1.3044678E0,0E0,0E0,1.9294107E0,6.2741194E0,0E0,2.8830657E0,0E0,0E0,1.1796036E0,0E0,6.5327225E0,3.2262435E0,5.1300817E0,3.8981714E0,5.662719E0,0E0,4.221654E0,2.939435E0,1.3160038E-1,0E0,0E0,1.9252071E0,1.79147E0,4.393776E0,0E0,0E0,0E0,0E0,0E0,0E0,0E0,0E0,0E0,0E0,0E0,0E0,0E0,0E0,0E0,0E0,0E0,0E0,0E0,0E0,0E0,0E0,0E0,0E0,0E0,0E0,0E0,0E0,0E0,0E0,0E0,0E0,0E0,0E0],"parents":[2147483647,0,0,1,1,2,2,3,3,4,4,5,5,6,6,7,7,8,8,10,10,11,11,12,12,13,13,14,14,15,15,16,16,17,17,18,18,19,19,20,20,21,21,23,23,24,24,25,25,26,26,27,27,28,28,29,29,30,30,33,33,34,34,36,36,39,39,41,41,42,42,43,43,44,44,45,45,47,47,48,48,49,49,52,52,53,53,54,54],"right_children":[2,4,6,8,10,12,14,16,18,-1,20,22,24,26,28,30,32,34,36,38,40,42,-1,44,46,48,50,52,54,56,58,-1,-1,60,62,-1,64,-1,-1,66,-1,68,70,72,74,76,-1,78,80,82,-1,-1,84,86,88,-1,-1,-1,-1,-1,-1,-1,-1,-1,-1,-1,-1,-1,-1,-1,-1,-1,-1,-1,-1,-1,-1,-1,-1,-1,-1,-1,-1,-1,-1,-1,-1,-1,-1],"split_conditions":[8E0,1E0,4.4E1,7.266361E-1,6E0,1.0653847E0,5E0,7E0,7.4E1,-1.2302998E-2,2.631579E-2,6.25E-1,3E0,1.1E2,4.375E-1,9.166667E-1,3E0,6.778E2,1.1553686E0,2.173913E-1,1.911647E0,3.2923076E0,1.0279802E-1,1.2727273E0,7.5E-1,3E0,5.555556E-1,6.8421054E-1,8.095238E-1,7.619048E-1,3E0,-6.979329E-2,3.933921E-2,2.0360947E1,9.184E2,-4.142123E-2,2.983E2,6.888416E-2,-7.1337424E-2,3.5714287E-1,-2.5591379E-2,1.4285715E-1,9.61E1,4.6153846E-1,1.4166666E0,1.7552618E0,1.03286125E-1,1.7E1,4.054054E-2,5.294118E-1,-1.866108E-2,3.956643E-2,1.4698129E0,2.015504E-1,3E0,3.1793553E-2,1.0598508E-1,-3.4496192E-2,7.592281E-2,9.738807E-2,9.0293E-3,-1.11842565E-1,2.2386436E-3,8.889293E-2,-3.035288E-2,1.0233428E-1,1.3895969E-2,6.592514E-2,-1.07136E-1,-1.05596565E-1,1.6056303E-2,-5.5179205E-2,2.6241107E-2,-9.062477E-2,3.1019127E-2,1.6391147E-2,-1.02834694E-1,-7.56995E-3,7.880869E-2,-5.1786076E-2,7.34858E-2,1.1205818E-1,3.0156607E-2,-7.916583E-2,-1.5496489E-3,-1.2030858E-1,2.6993917E-3,-2.7655357E-2,6.288659E-2],"split_indices":[5,2,5,15,14,15,8,5,14,0,23,23,18,5,1,38,0,9,15,22,26,32,0,27,2,40,19,30,33,30,5,0,0,13,9,0,11,0,0,19,0,17,9,34,34,15,0,14,37,38,0,0,15,21,18,0,0,0,0,0,0,0,0,0,0,0,0,0,0,0,0,0,0,0,0,0,0,0,0,0,0,0,0,0,0,0,0,0,0],"split_type":[0,0,0,0,0,0,0,0,0,0,0,0,0,0,0,0,0,0,0,0,0,0,0,0,0,0,0,0,0,0,0,0,0,0,0,0,0,0,0,0,0,0,0,0,0,0,0,0,0,0,0,0,0,0,0,0,0,0,0,0,0,0,0,0,0,0,0,0,0,0,0,0,0,0,0,0,0,0,0,0,0,0,0,0,0,0,0,0,0],"sum_hessian":[4.107973E2,8.931772E1,3.2147958E2,5.805437E1,3.1263346E1,1.9372934E2,1.2775025E2,1.3296841E1,4.475753E1,2.03446E0,2.9228886E1,1.17174095E2,7.6555244E1,5.6840294E1,7.090996E1,1.0730889E1,2.565951E0,3.118192E1,1.357561E1,2.9483361E0,2.6280548E1,1.1314123E2,4.0328627E0,5.0109715E1,2.644553E1,5.1429104E1,5.411192E0,4.0841423E1,3.0068535E1,8.044823E0,2.6860666E0,1.121894E0,1.4440571E0,9.605566E0,2.1576353E1,1.9749024E0,1.1600707E1,1.4148946E0,1.5334417E0,2.5119389E1,1.1611601E0,7.815537E0,1.0532569E2,2.9449928E1,2.0659786E1,2.1851698E1,4.593832E0,2.7145567E1,2.4283537E1,4.323114E0,1.0880779E0,1.1271785E0,3.9714245E1,6.5497465E0,2.3518787E1,1.3555797E0,6.689243E0,1.0358163E0,1.6502504E0,3.3547516E0,6.2508144E0,5.94663E0,1.5629724E1,9.621473E0,1.9792342E0,2.3145962E1,1.9734279E0,2.5172276E0,5.2983093E0,1.2391596E0,1.0408653E2,1.2870191E1,1.6579737E1,1.810618E1,2.553606E0,1.7786518E1,4.06518E0,2.0391665E1,6.7539024E0,2.3118164E1,1.1653736E0,3.125802E0,1.197312E0,3.617374E1,3.5405047E0,5.1362596E0,1.4134866E0,1.686126E1,6.657529E0],"tree_param":{"num_deleted":"0","num_feature":"46","num_nodes":"89","size_leaf_vector":"1"}},{"base_weights":[2.3823956E-3,-1.6151497E-1,2.6862442E-1,2.9715179E-2,-2.9477996E-1,1.6868429E-1,7.6213783E-1,2.368545E-3,8.804751E-2,-6.4956254E-1,-1.4546748E-1,3.7818757E-1,-1.9191753E-2,-1.7995192E-1,8.7094605E-1,3.4310054E-2,-8.3529496E-1,-3.0833545E-1,-8.6457455E-1,-5.62457E-1,-2.2500728E-3,7.5918853E-1,2.2896257E-1,-1.9908632E-1,5.1983476E-1,3.6568057E-2,-7.661372E-2,9.67576E-1,-1.0894401E-2,-8.120772E-3,5.9873545E-1,-1.0452946E-1,-2.9420113E-2,-5.1718765E-1,3.861753E-1,-1.0313679E0,-1.769655E-1,-1.0673289E0,-2.818677E-1,-1.1268305E-1,4.5232426E-2,8.4716797E-1,-2.3840548E-2,3.0349505E-1,-7.6612115E-1,-7.2886884E-2,-9.068774E-1,8.1276584E-1,9.511908E-2,1.0431644E0,-8.418213E-3,2.4407532E-3,-6.763887E-2,-2.1651568E-2,9.1188975E-2,-7.387728E-2,1.3095246E-3,-8.594497E-2,1.078283E-1,-4.760508E-2,-1.197886E-1,-8.4413625E-2,4.8374977E-2,-1.2791418E-1,-7.934924E-4,5.024166E-2,-4.604287E-2,2.6686838E-2,-1.8685497E-2,9.4180584E-2,-2.0974776E-2,3.7962373E-2,-3.7802342E-2,-1.1954156E-1,1.3333321E-2,5.3002793E-2,-1.8735759E-2,-1.5943354E-1,-1.576411E-3,-4.0558768E-3,9.383247E-2,-4.24768E-2,6.883776E-2,1.0829871E-1,3.729938E-2],"categories":[],"categories_nodes":[],"categories_segments":[],"categories_sizes":[],"default_left":[0,0,0,0,0,0,0,0,0,0,0,0,0,0,0,0,0,0,0,0,0,0,0,0,0,0,0,0,0,0,0,0,0,0,0,0,0,0,0,0,0,0,0,0,0,0,0,0,0,0,0,0,0,0,0,0,0,0,0,0,0,0,0,0,0,0,0,0,0,0,0,0,0,0,0,0,0,0,0,0,0,0,0,0,0],"id":14,"left_children":[1,3,5,7,9,11,13,15,-1,17,19,21,23,25,27,29,31,33,35,37,39,41,43,45,47,-1,-1,49,-1,51,53,-1,-1,55,57,59,61,63,65,-1,67,69,-1,71,73,75,77,79,81,83,-1,-1,-1,-1,-1,-1,-1,-1,-1,-1,-1,-1,-1,-1,-1,-1,-1,-1,-1,-1,-1,-1,-1,-1,-1,-1,-1,-1,-1,-1,-1,-1,-1,-1,-1],"loss_changes":[1.781622E1,6.4493003E0,7.5443335E0,2.4337802E0,7.799987E0,5.1498804E0,2.8131046E0,2.7695963E0,0E0,2.9508324E0,6.339459E0,3.3409328E0,6.8751583E0,1.403402E0,2.321291E0,2.391116E0,1.2451792E-1,2.8839588E0,2.839243E0,3.5437727E0,4.3246408E0,1.6910849E0,3.6332731E0,4.6753945E0,2.1311846E0,0E0,0E0,1.7893524E0,0E0,2.0524282E0,1.9794369E0,0E0,0E0,1.7316396E0,5.108715E0,1.3713398E0,3.2077549E0,2.084813E0,2.8645914E0,0E0,4.0494237E0,1.7790394E0,0E0,2.3939075E0,1.5026879E0,3.2835407E0,4.8420434E0,1.1494503E0,2.876517E0,1.309452E-1,0E0,0E0,0E0,0E0,0E0,0E0,0E0,0E0,0E0,0E0,0E0,0E0,0E0,0E0,0E0,0E0,0E0,0E0,0E0,0E0,0E0,0E0,0E0,0E0,0E0,0E0,0E0,0E0,0E0,0E0,0E0,0E0,0E0,0E0,0E0],"parents":[2147483647,0,0,1,1,2,2,3,3,4,4,5,5,6,6,7,7,9,9,10,10,11,11,12,12,13,13,14,14,15,15,16,16,17,17,18,18,19,19,20,20,21,21,22,22,23,23,24,24,27,27,29,29,30,30,33,33,34,34,35,35,36,36,37,37,38,38,40,40,41,41,43,43,44,44,45,45,46,46,47,47,48,48,49,49],"right_children":[2,4,6,8,10,12,14,16,-1,18,20,22,24,26,28,30,32,34,36,38,40,42,44,46,48,-1,-1,50,-1,52,54,-1,-1,56,58,60,62,64,66,-1,68,70,-1,72,74,76,78,80,82,84,-1,-1,-1,-1,-1,-1,-1,-1,-1,-1,-1,-1,-1,-1,-1,-1,-1,-1,-1,-1,-1,-1,-1,-1,-1,-1,-1,-1,-1,-1,-1,-1,-1,-1,-1],"split_conditions":[7.48E1,5E0,1.5E1,1E0,3.223684E-1,7.536E2,9.8E1,9E0,8.804751E-2,1.2554823E0,3.7058823E0,3.3875E0,1E0,1E1,6E-1,3.75E1,5.4E1,1.0608569E0,1.1714286E0,8.4615386E-1,3.043478E-1,8.333333E-1,1.25E0,1.3333334E-1,1.8333334E-1,3.6568057E-2,-7.661372E-2,1.08E2,-1.0894401E-2,9.276E2,5.5E1,-1.0452946E-1,-2.9420113E-2,3E0,1.875E-1,4.1666668E-2,3.3714285E0,1.262136E-1,9.722222E-1,-1.1268305E-1,2.5E1,1.18E2,-2.3840548E-2,4.375E-1,2E0,2.5E-1,2.6E2,4.1666668E-2,7.5384617E0,3.2E-1,-8.418213E-3,2.4407532E-3,-6.763887E-2,-2.1651568E-2,9.1188975E-2,-7.387728E-2,1.3095246E-3,-8.594497E-2,1.078283E-1,-4.760508E-2,-1.197886E-1,-8.4413625E-2,4.8374977E-2,-1.2791418E-1,-7.934924E-4,5.024166E-2,-4.604287E-2,2.6686838E-2,-1.8685497E-2,9.4180584E-2,-2.0974776E-2,3.7962373E-2,-3.7802342E-2,-1.1954156E-1,1.3333321E-2,5.3002793E-2,-1.8735759E-2,-1.5943354E-1,-1.576411E-3,-4.0558768E-3,9.383247E-2,-4.24768E-2,6.883776E-2,1.0829871E-1,3.729938E-2],"split_indices":[11,0,8,23,1,9,11,41,0,26,12,32,2,5,37,12,5,26,28,33,33,35,2,35,22,0,0,43,0,9,14,0,0,41,17,34,32,25,33,0,14,43,0,20,3,17,10,34,12,19,0,0,0,0,0,0,0,0,0,0,0,0,0,0,0,0,0,0,0,0,0,0,0,0,0,0,0,0,0,0,0,0,0,0,0],"split_type":[0,0,0,0,0,0,0,0,0,0,0,0,0,0,0,0,0,0,0,0,0,0,0,0,0,0,0,0,0,0,0,0,0,0,0,0,0,0,0,0,0,0,0,0,0,0,0,0,0,0,0,0,0,0,0,0,0,0,0,0,0,0,0,0,0,0,0,0,0,0,0,0,0,0,0,0,0,0,0,0,0,0,0,0,0],"sum_hessian":[4.06294E2,2.5172598E2,1.5456801E2,1.03698975E2,1.4802702E2,1.2965393E2,2.4914082E1,1.01441055E2,2.257914E0,4.2853096E1,1.0517392E2,6.0819862E1,6.883407E1,2.5118642E0,2.2402216E1,9.863883E1,2.802223E0,1.7505562E1,2.5347532E1,2.613944E1,7.903448E1,1.5966551E1,4.4853313E1,5.208267E1,1.6751402E1,1.4957552E0,1.016109E0,2.0402802E1,1.9994161E0,9.26588E1,5.980037E0,1.3474549E0,1.4547681E0,1.3654672E1,3.850891E0,1.999694E1,5.350592E0,8.336131E0,1.780331E1,2.2809415E0,7.675354E1,1.4811123E1,1.1554275E0,4.2374443E1,2.4788704E0,4.5137592E1,6.9450736E0,9.373041E0,7.378361E0,1.9042421E1,1.3603799E0,8.927668E1,3.3821146E0,1.7452172E0,4.23482E0,9.353169E0,4.301502E0,1.2890782E0,2.561813E0,5.5032263E0,1.4493714E1,2.5241604E0,2.826432E0,6.774271E0,1.56186E0,2.9652958E0,1.4838015E1,3.9184116E1,3.7569424E1,1.3693864E1,1.1172591E0,3.8515106E1,3.859337E0,1.4552559E0,1.0236145E0,6.6231823E0,3.8514412E1,3.4750571E0,3.4700165E0,1.2890893E0,8.083952E0,4.083712E0,3.2946491E0,1.7392914E1,1.6495072E0],"tree_param":{"num_deleted":"0","num_feature":"46","num_nodes":"85","size_leaf_vector":"1"}},{"base_weights":[1.3118931E-3,-8.77608E-2,4.3819213E-1,9.385422E-2,-2.102502E-1,1.9546863E-1,6.9673723E-1,8.067412E-1,4.978435E-2,-6.446008E-1,-1.271274E-1,6.740578E-1,-1.8276827E-1,7.6288104E-1,-4.8193082E-2,1.8188385E-2,9.939341E-2,2.5334598E-2,8.911767E-2,-1.1609129E-1,-4.7151253E-1,-4.3047467E-1,6.0122297E-3,-1.733567E-1,1.022066E0,-4.0735006E-1,7.6373416E-1,8.4887516E-1,1.9763967E-2,5.44119E-2,-7.2417563E-1,1.641639E-1,-6.656949E-1,-3.1774282E-1,-1.0399309E0,5.945012E-1,-4.8252106E-2,-9.7099453E-1,8.110583E-2,1.0883089E-1,2.2254935E-2,-5.990814E-1,6.0008705E-2,8.8419594E-2,1.768098E-2,-2.2556705E-2,9.034234E-1,6.925949E-2,-5.574907E-2,8.029005E-3,-8.341855E-2,2.0494184E-3,-1.0145219E-1,-6.066327E-2,9.65951E-2,-7.787982E-2,4.7532115E-2,5.4824043E-2,-3.9079152E-2,-1.1526988E-1,-1.9409379E-2,-1.2299908E-2,8.9116834E-2,-9.680067E-3,6.6568054E-2,-1.1019987E-2,-1.4484009E-1,-9.924971E-2,1.5723007E-2,2.0658849E-2,1.0222355E-1],"categories":[],"categories_nodes":[],"categories_segments":[],"categories_sizes":[],"default_left":[0,0,0,0,0,0,0,0,0,0,0,0,0,0,0,0,0,0,0,0,0,0,0,0,0,0,0,0,0,0,0,0,0,0,0,0,0,0,0,0,0,0,0,0,0,0,0,0,0,0,0,0,0,0,0,0,0,0,0,0,0,0,0,0,0,0,0,0,0,0,0],"id":15,"left_children":[1,3,5,7,9,11,13,15,17,19,21,23,25,27,-1,-1,-1,29,-1,-1,31,33,35,37,39,41,43,45,47,49,51,53,55,57,59,61,63,65,-1,-1,-1,67,-1,-1,-1,-1,69,-1,-1,-1,-1,-1,-1,-1,-1,-1,-1,-1,-1,-1,-1,-1,-1,-1,-1,-1,-1,-1,-1,-1,-1],"loss_changes":[1.5719342E1,7.484375E0,4.1568995E0,4.227724E0,7.164362E0,6.7620635E0,2.9197788E0,7.3663235E-1,2.6312697E0,2.3118258E0,6.8567667E0,5.0145426E0,4.832785E0,1.9887371E0,0E0,0E0,0E0,2.7939212E0,0E0,0E0,3.2748365E0,3.2271023E0,3.8266087E0,5.208386E0,3.8131332E-1,3.8063104E0,1.5667605E-1,1.8509579E0,2.0480056E0,2.8862007E0,1.0564663E0,4.7903204E0,2.930852E0,3.0695658E0,5.052557E-1,2.2628405E0,3.870663E0,1.3055277E0,0E0,0E0,0E0,4.76558E0,0E0,0E0,0E0,0E0,2.0197716E0,0E0,0E0,0E0,0E0,0E0,0E0,0E0,0E0,0E0,0E0,0E0,0E0,0E0,0E0,0E0,0E0,0E0,0E0,0E0,0E0,0E0,0E0,0E0,0E0],"parents":[2147483647,0,0,1,1,2,2,3,3,4,4,5,5,6,6,7,7,8,8,9,9,10,10,11,11,12,12,13,13,17,17,20,20,21,21,22,22,23,23,24,24,25,25,26,26,27,27,28,28,29,29,30,30,31,31,32,32,33,33,34,34,35,35,36,36,37,37,41,41,46,46],"right_children":[2,4,6,8,10,12,14,16,18,20,22,24,26,28,-1,-1,-1,30,-1,-1,32,34,36,38,40,42,44,46,48,50,52,54,56,58,60,62,64,66,-1,-1,-1,68,-1,-1,-1,-1,70,-1,-1,-1,-1,-1,-1,-1,-1,-1,-1,-1,-1,-1,-1,-1,-1,-1,-1,-1,-1,-1,-1,-1,-1],"split_conditions":[7.5E-1,5E0,1.1E1,4E0,3.7058823E0,1.3337361E0,3E0,1.008E2,1E0,6E0,3.223684E-1,4.776045E0,1.3333334E-1,8.3333336E-2,-4.8193082E-2,1.8188385E-2,9.939341E-2,9E0,8.911767E-2,-1.1609129E-1,2.25E0,1.6315789E0,3.4034297E0,2.965E2,1.1135E3,1.7418715E0,1.5E-1,2.652E2,8.695652E-2,7.5E-1,1.0246913E0,5.287587E-1,1.08E2,8.6756325E-1,5E0,3.809524E-1,1.9E1,1.2554823E0,8.110583E-2,1.0883089E-1,2.2254935E-2,4.2857143E-1,6.0008705E-2,8.8419594E-2,1.768098E-2,-2.2556705E-2,8.3333336E-2,6.925949E-2,-5.574907E-2,8.029005E-3,-8.341855E-2,2.0494184E-3,-1.0145219E-1,-6.066327E-2,9.65951E-2,-7.787982E-2,4.7532115E-2,5.4824043E-2,-3.9079152E-2,-1.1526988E-1,-1.9409379E-2,-1.2299908E-2,8.9116834E-2,-9.680067E-3,6.6568054E-2,-1.1019987E-2,-1.4484009E-1,-9.924971E-2,1.5723007E-2,2.0658849E-2,1.0222355E-1],"split_indices":[2,0,8,5,12,26,27,10,23,0,1,13,31,39,0,0,0,41,0,0,12,27,13,11,9,15,24,10,24,23,27,15,43,26,18,17,8,26,0,0,0,17,0,0,0,0,21,0,0,0,0,0,0,0,0,0,0,0,0,0,0,0,0,0,0,0,0,0,0,0,0],"split_type":[0,0,0,0,0,0,0,0,0,0,0,0,0,0,0,0,0,0,0,0,0,0,0,0,0,0,0,0,0,0,0,0,0,0,0,0,0,0,0,0,0,0,0,0,0,0,0,0,0,0,0,0,0,0,0,0,0,0,0,0,0,0,0,0,0,0,0,0,0,0,0],"sum_hessian":[4.0196155E2,3.3455118E2,6.741036E1,1.3484714E2,1.9970406E2,3.567475E1,3.1735613E1,6.8432226E0,1.280039E2,3.0993828E1,1.6871022E2,1.5402994E1,2.0271757E1,3.0383337E1,1.3522745E0,2.031992E0,4.8112307E0,1.2539034E2,2.6135674E0,6.3487687E0,2.464506E1,5.077972E1,1.17930504E2,4.630178E0,1.0772817E1,1.6844578E1,3.427179E0,2.7104467E1,3.2788692E0,1.2160026E2,3.7900867E0,5.80298E0,1.884208E1,4.4137E1,6.642719E0,9.115758E0,1.0881475E2,2.5652645E0,2.0649135E0,9.614972E0,1.1578448E0,1.4491883E1,2.352695E0,2.4233203E0,1.0038587E0,1.1580983E0,2.594637E1,1.4218247E0,1.8570446E0,1.19043076E2,2.5571833E0,1.3239306E0,2.466156E0,3.082767E0,2.7202132E0,1.7431622E1,1.4104582E0,2.9274378E0,4.1209564E1,5.541173E0,1.1015456E0,2.8378098E0,6.2779484E0,1.0269569E2,6.1190596E0,1.3542657E0,1.2109989E0,9.327597E0,5.1642866E0,4.1784525E0,2.1767918E1],"tree_param":{"num_deleted":"0","num_feature":"46","num_nodes":"71","size_leaf_vector":"1"}},{"base_weights":[1.9812009E-3,-1.1200579E-1,3.0677065E-1,6.7339785E-2,-2.3122676E-1,1.9562241E-1,7.9992574E-1,3.438249E-2,8.4917986E-1,