{"learner":{"attributes":{},"feature_names":["total_purchase_days_pre","purchases_per_week_all_pre","purchases_per_week_last_4w","purchases_per_week_last_2w","purchases_per_week_last_1w","days_since_last_purchase","purchased_in_last_7_days","purchased_in_last_14_days","total_orders_pre","total_spend_pre","total_spend_last_4w","total_spend_last_2w","mean_inter_purchase_interval_days","std_inter_purchase_interval_days","max_gap_between_purchases","cv_inter_purchase_interval","longest_consecutive_streak_days","share_weeks_with_purchase","modal_purchase_dow","share_purchases_dow0","share_purchases_dow1","share_purchases_dow2","share_purchases_dow3","share_purchases_dow4","share_purchases_dow5","share_purchases_dow6","entropy_dow","avg_basket_size","n_order_categories_avg","unique_stores_pre","preferred_store_ratio","second_store_ratio","avg_discount_per_order","coupon_usage_rate","avg_coffee_num","avg_food_num","avg_use_coffee_wallet","avg_delivery_pay","coffee_share_orders","take_address_rate","gender","level","has_inviter","manufacturer","callphone","push"],"feature_types":["int","float","float","float","float","int","int","int","int","float","float","float","float","float","float","float","int","float","int","float","float","float","float","float","float","float","float","float","float","int","float","float","float","float","float","float","float","float","float","float","int","int","int","int","int","int"],"gradient_booster":{"model":{"cats":{"enc":[],"feature_segments":[],"sorted_idx":[]},"gbtree_model_param":{"num_parallel_tree":"1","num_trees":"500"},"iteration_indptr":[0,1,2,3,4,5,6,7,8,9,10,11,12,13,14,15,16,17,18,19,20,21,22,23,24,25,26,27,28,29,30,31,32,33,34,35,36,37,38,39,40,41,42,43,44,45,46,47,48,49,50,51,52,53,54,55,56,57,58,59,60,61,62,63,64,65,66,67,68,69,70,71,72,73,74,75,76,77,78,79,80,81,82,83,84,85,86,87,88,89,90,91,92,93,94,95,96,97,98,99,100,101,102,103,104,105,106,107,108,109,110,111,112,113,114,115,116,117,118,119,120,121,122,123,124,125,126,127,128,129,130,131,132,133,134,135,136,137,138,139,140,141,142,143,144,145,146,147,148,149,150,151,152,153,154,155,156,157,158,159,160,161,162,163,164,165,166,167,168,169,170,171,172,173,174,175,176,177,178,179,180,181,182,183,184,185,186,187,188,189,190,191,192,193,194,195,196,197,198,199,200,201,202,203,204,205,206,207,208,209,210,211,212,213,214,215,216,217,218,219,220,221,222,223,224,225,226,227,228,229,230,231,232,233,234,235,236,237,238,239,240,241,242,243,244,245,246,247,248,249,250,251,252,253,254,255,256,257,258,259,260,261,262,263,264,265,266,267,268,269,270,271,272,273,274,275,276,277,278,279,280,281,282,283,284,285,286,287,288,289,290,291,292,293,294,295,296,297,298,299,300,301,302,303,304,305,306,307,308,309,310,311,312,313,314,315,316,317,318,319,320,321,322,323,324,325,326,327,328,329,330,331,332,333,334,335,336,337,338,339,340,341,342,343,344,345,346,347,348,349,350,351,352,353,354,355,356,357,358,359,360,361,362,363,364,365,366,367,368,369,370,371,372,373,374,375,376,377,378,379,380,381,382,383,384,385,386,387,388,389,390,391,392,393,394,395,396,397,398,399,400,401,402,403,404,405,406,407,408,409,410,411,412,413,414,415,416,417,418,419,420,421,422,423,424,425,426,427,428,429,430,431,432,433,434,435,436,437,438,439,440,441,442,443,444,445,446,447,448,449,450,451,452,453,454,455,456,457,458,459,460,461,462,463,464,465,466,467,468,469,470,471,472,473,474,475,476,477,478,479,480,481,482,483,484,485,486,487,488,489,490,491,492,493,494,495,496,497,498,499,500],"tree_info":[0,0,0,0,0,0,0,0,0,0,0,0,0,0,0,0,0,0,0,0,0,0,0,0,0,0,0,0,0,0,0,0,0,0,0,0,0,0,0,0,0,0,0,0,0,0,0,0,0,0,0,0,0,0,0,0,0,0,0,0,0,0,0,0,0,0,0,0,0,0,0,0,0,0,0,0,0,0,0,0,0,0,0,0,0,0,0,0,0,0,0,0,0,0,0,0,0,0,0,0,0,0,0,0,0,0,0,0,0,0,0,0,0,0,0,0,0,0,0,0,0,0,0,0,0,0,0,0,0,0,0,0,0,0,0,0,0,0,0,0,0,0,0,0,0,0,0,0,0,0,0,0,0,0,0,0,0,0,0,0,0,0,0,0,0,0,0,0,0,0,0,0,0,0,0,0,0,0,0,0,0,0,0,0,0,0,0,0,0,0,0,0,0,0,0,0,0,0,0,0,0,0,0,0,0,0,0,0,0,0,0,0,0,0,0,0,0,0,0,0,0,0,0,0,0,0,0,0,0,0,0,0,0,0,0,0,0,0,0,0,0,0,0,0,0,0,0,0,0,0,0,0,0,0,0,0,0,0,0,0,0,0,0,0,0,0,0,0,0,0,0,0,0,0,0,0,0,0,0,0,0,0,0,0,0,0,0,0,0,0,0,0,0,0,0,0,0,0,0,0,0,0,0,0,0,0,0,0,0,0,0,0,0,0,0,0,0,0,0,0,0,0,0,0,0,0,0,0,0,0,0,0,0,0,0,0,0,0,0,0,0,0,0,0,0,0,0,0,0,0,0,0,0,0,0,0,0,0,0,0,0,0,0,0,0,0,0,0,0,0,0,0,0,0,0,0,0,0,0,0,0,0,0,0,0,0,0,0,0,0,0,0,0,0,0,0,0,0,0,0,0,0,0,0,0,0,0,0,0,0,0,0,0,0,0,0,0,0,0,0,0,0,0,0,0,0,0,0,0,0,0,0,0,0,0,0,0,0,0,0,0,0,0,0,0,0,0,0,0,0,0,0,0,0,0,0,0,0,0,0,0,0,0,0,0,0,0,0,0,0,0,0,0,0,0,0,0,0,0,0,0,0,0,0,0,0,0,0,0,0,0,0,0,0,0,0,0,0,0,0],"trees":[{"base_weights":[1.7417534E-8,-4.6388862E-1,1.4649832E0,-2.6856374E-2,-1.0195007E0,9.7092766E-1,2.101282E0,1.0674374E0,-1.3494799E-1,3.7334988E-1,-1.1221852E0,4.839168E-1,1.3361111E0,1.5636488E0,2.5208354E0,1.74361E0,7.334881E-1,-5.420739E-1,2.410653E-1,1.0112706E0,-5.2497752E-2,1.0830956E0,-1.1349567E0,7.323633E-1,5.3359386E-2,8.124071E-1,1.5356886E0,8.4695566E-1,1.770489E0,2.164009E0,2.747605E0,1.9220333E0,7.3738694E-1,1.3536326E0,5.5558735E-1,9.853087E-1,-5.651622E-1,6.343554E-2,5.701649E-1,1.1771861E0,-5.665602E-2,6.5008575E-1,-2.7372068E-1,1.2679583E0,1.6990108E-2,-1.1839914E0,-7.9438764E-1,9.5223147E-1,1.8832178E-1,2.1645145E-1,-5.2683365E-1,1.4699211E0,5.162232E-1,1.7679857E0,1.1816583E0,-2.122853E-1,1.4893874E0,6.178148E-1,1.8899145E0,1.265056E0,2.289019E0,2.7642265E-1,8.731094E-2,2.2220016E-1,9.210885E-2,9.055585E-2,1.2378877E-3,1.6771315E-1,1.6411303E-2,1.5999226E-1,4.1061882E-2,1.3486527E-1,-2.2725435E-2,-7.810004E-2,-4.3096628E-2,4.501509E-2,-6.5801977E-3,1.7958294E-4,6.834505E-2,1.2756062E-1,-1.178267E-2,-9.5063135E-2,8.578111E-2,1.0690178E-1,-4.7099944E-2,4.359854E-2,-5.574097E-2,1.4705513E-1,4.4274416E-2,-1.071183E-1,-1.2725665E-1,-5.3842045E-2,-1.0423666E-1,1.0255581E-1,-2.3928856E-2,1.22440316E-1,-2.9307033E-4,-5.9432085E-3,5.7844788E-2,-8.831805E-2,4.808308E-2,1.7911084E-1,-1.4664634E-2,7.163521E-2,-4.0119953E-2,5.6816578E-2,1.8653491E-1,1.6886185E-1,8.644392E-2,1.3034748E-1,-4.9788248E-2,1.7464972E-1,2.9784514E-2,9.566317E-2,-9.0392575E-2,1.9336934E-1,2.8995473E-2,1.6734505E-1,1.5772938E-3,1.3443413E-2,2.3523533E-1],"categories":[],"categories_nodes":[],"categories_segments":[],"categories_sizes":[],"default_left":[0,0,0,0,0,0,0,0,0,0,0,0,0,0,0,0,0,0,0,0,0,0,0,0,0,0,0,0,0,0,0,0,0,0,0,0,0,0,0,0,0,0,0,0,0,0,0,0,0,0,0,0,0,0,0,0,0,0,0,0,0,0,0,0,0,0,0,0,0,0,0,0,0,0,0,0,0,0,0,0,0,0,0,0,0,0,0,0,0,0,0,0,0,0,0,0,0,0,0,0,0,0,0,0,0,0,0,0,0,0,0,0,0,0,0,0,0,0,0,0,0],"id":0,"left_children":[1,3,5,7,9,11,13,15,17,19,21,23,25,27,29,31,33,35,37,39,41,43,45,47,49,51,53,55,57,59,61,63,65,67,69,71,73,75,77,79,81,83,85,87,-1,89,91,93,95,97,99,101,103,105,107,109,111,113,115,117,119,-1,-1,-1,-1,-1,-1,-1,-1,-1,-1,-1,-1,-1,-1,-1,-1,-1,-1,-1,-1,-1,-1,-1,-1,-1,-1,-1,-1,-1,-1,-1,-1,-1,-1,-1,-1,-1,-1,-1,-1,-1,-1,-1,-1,-1,-1,-1,-1,-1,-1,-1,-1,-1,-1,-1,-1,-1,-1,-1,-1],"loss_changes":[1.9402513E3,5.265062E2,2.1381311E2,1.4382928E2,1.3695837E2,6.8425446E1,6.355957E1,2.3405273E1,1.6950868E2,1.80634E1,2.6278076E1,1.7931442E1,2.1890991E1,1.8335388E1,7.5230713E0,4.9406815E0,7.5113754E0,1.9301636E1,3.3628963E1,4.778017E0,6.5051227E0,7.3544836E-1,1.3834106E1,1.2553635E1,6.032608E0,1.1550941E1,1.1001099E1,2.201304E1,1.2999939E1,4.901764E0,6.420288E-1,6.798027E0,8.369341E-1,5.8820343E0,8.41173E0,3.954401E0,1.4848572E1,1.8778404E1,1.2988869E1,3.0894318E0,4.518477E0,5.221063E0,6.6180353E0,1.0619545E-1,0E0,6.344116E0,6.6995544E0,6.8473816E0,6.321538E0,4.9811106E0,5.4573107E0,1.0174225E1,8.571601E0,9.932068E0,9.166687E0,6.2387433E0,5.5982895E0,6.61236E0,5.9373474E0,5.436043E0,7.8275757E0,0E0,0E0,0E0,0E0,0E0,0E0,0E0,0E0,0E0,0E0,0E0,0E0,0E0,0E0,0E0,0E0,0E0,0E0,0E0,0E0,0E0,0E0,0E0,0E0,0E0,0E0,0E0,0E0,0E0,0E0,0E0,0E0,0E0,0E0,0E0,0E0,0E0,0E0,0E0,0E0,0E0,0E0,0E0,0E0,0E0,0E0,0E0,0E0,0E0,0E0,0E0,0E0,0E0,0E0,0E0,0E0,0E0,0E0,0E0,0E0],"parents":[2147483647,0,0,1,1,2,2,3,3,4,4,5,5,6,6,7,7,8,8,9,9,10,10,11,11,12,12,13,13,14,14,15,15,16,16,17,17,18,18,19,19,20,20,21,21,22,22,23,23,24,24,25,25,26,26,27,27,28,28,29,29,30,30,31,31,32,32,33,33,34,34,35,35,36,36,37,37,38,38,39,39,40,40,41,41,42,42,43,43,45,45,46,46,47,47,48,48,49,49,50,50,51,51,52,52,53,53,54,54,55,55,56,56,57,57,58,58,59,59,60,60],"right_children":[2,4,6,8,10,12,14,16,18,20,22,24,26,28,30,32,34,36,38,40,42,44,46,48,50,52,54,56,58,60,62,64,66,68,70,72,74,76,78,80,82,84,86,88,-1,90,92,94,96,98,100,102,104,106,108,110,112,114,116,118,120,-1,-1,-1,-1,-1,-1,-1,-1,-1,-1,-1,-1,-1,-1,-1,-1,-1,-1,-1,-1,-1,-1,-1,-1,-1,-1,-1,-1,-1,-1,-1,-1,-1,-1,-1,-1,-1,-1,-1,-1,-1,-1,-1,-1,-1,-1,-1,-1,-1,-1,-1,-1,-1,-1,-1,-1,-1,-1,-1,-1],"split_conditions":[7.5E-1,4.5E1,2E0,5E0,5E0,3.1034482E-1,6.7076164E-1,7.052897E-2,2.1818182E-1,4E0,7.826087E-1,1.1E1,1.3114753E-1,1E0,2E0,1.7777778E0,2.9E1,7.878788E-1,5E-1,9.90566E-2,7.235142E-2,1.08E2,3E-1,2.7169836E1,1.5555556E-1,8.958333E-1,8E0,8.039216E-1,8.059E2,1.1111111E-1,7E0,3.5266666E0,2.5252524E-1,1.25E-1,3.4E2,2.8E1,9.259259E-2,9.736842E0,3.0172414E-1,1.2070241E0,1.9607844E-2,6E0,6.5E1,2.5322998E-1,1.6990108E-2,9.6E1,7.5E1,1.6153846E0,2.976E2,1.923077E-1,1.6853933E-1,1.1282052E0,2.542373E-1,5.3846157E-1,1.7307693E-1,1.1029411E1,1.1320755E-1,7.339E2,3.846154E-1,6.7981E3,6E-1,2.7642265E-1,8.731094E-2,2.2220016E-1,9.210885E-2,9.055585E-2,1.2378877E-3,1.6771315E-1,1.6411303E-2,1.5999226E-1,4.1061882E-2,1.3486527E-1,-2.2725435E-2,-7.810004E-2,-4.3096628E-2,4.501509E-2,-6.5801977E-3,1.7958294E-4,6.834505E-2,1.2756062E-1,-1.178267E-2,-9.5063135E-2,8.578111E-2,1.0690178E-1,-4.7099944E-2,4.359854E-2,-5.574097E-2,1.4705513E-1,4.4274416E-2,-1.071183E-1,-1.2725665E-1,-5.3842045E-2,-1.0423666E-1,1.0255581E-1,-2.3928856E-2,1.22440316E-1,-2.9307033E-4,-5.9432085E-3,5.7844788E-2,-8.831805E-2,4.808308E-2,1.7911084E-1,-1.4664634E-2,7.163521E-2,-4.0119953E-2,5.6816578E-2,1.8653491E-1,1.6886185E-1,8.644392E-2,1.3034748E-1,-4.9788248E-2,1.7464972E-1,2.9784514E-2,9.566317E-2,-9.0392575E-2,1.9336934E-1,2.8995473E-2,1.6734505E-1,1.5772938E-3,1.3443413E-2,2.3523533E-1],"split_indices":[2,5,4,0,0,17,1,1,17,0,30,5,23,2,2,34,14,30,2,1,1,14,17,13,25,30,5,38,9,19,5,32,23,17,9,5,19,12,1,15,23,8,5,1,0,5,5,34,10,23,22,34,20,38,23,12,25,9,21,9,34,0,0,0,0,0,0,0,0,0,0,0,0,0,0,0,0,0,0,0,0,0,0,0,0,0,0,0,0,0,0,0,0,0,0,0,0,0,0,0,0,0,0,0,0,0,0,0,0,0,0,0,0,0,0,0,0,0,0,0,0],"split_type":[0,0,0,0,0,0,0,0,0,0,0,0,0,0,0,0,0,0,0,0,0,0,0,0,0,0,0,0,0,0,0,0,0,0,0,0,0,0,0,0,0,0,0,0,0,0,0,0,0,0,0,0,0,0,0,0,0,0,0,0,0,0,0,0,0,0,0,0,0,0,0,0,0,0,0,0,0,0,0,0,0,0,0,0,0,0,0,0,0,0,0,0,0,0,0,0,0,0,0,0,0,0,0,0,0,0,0,0,0,0,0,0,0,0,0,0,0,0,0,0,0],"sum_hessian":[2.8530364E3,2.1674075E3,6.856288E2,1.2137482E3,9.536593E2,3.8737585E2,2.9825293E2,1.0831522E2,1.105433E3,6.529798E1,8.883613E2,1.6699516E2,2.2038068E2,1.3280197E2,1.6545096E2,3.44138E1,7.390143E1,5.305461E2,5.748869E2,2.5589748E1,3.970823E1,4.632627E0,8.837287E2,1.0544741E2,6.1547756E1,6.220956E1,1.5817111E2,3.0884178E1,1.01917786E2,6.83864E1,9.706456E1,2.8457565E1,5.9562345E0,1.5000887E1,5.890054E1,7.279842E0,5.2326624E2,3.7413977E2,2.0074716E2,2.2060127E1,3.5296204E0,9.044652E0,3.0663578E1,3.5296204E0,1.1030064E0,7.7033966E2,1.1338905E2,7.456323E1,3.0884178E1,4.853228E1,1.3015475E1,1.8089304E1,4.4120255E1,9.3093735E1,6.507738E1,1.1912469E1,1.897171E1,1.0147658E1,9.1770134E1,9.706456E0,5.867994E1,9.574095E1,1.3236077E0,2.095712E1,7.5004435E0,4.632627E0,1.3236077E0,1.1471267E1,3.5296204E0,5.9562345E0,5.2944305E1,5.515032E0,1.7648102E0,1.9876175E2,3.245045E2,9.3093735E1,2.8104602E2,3.3531395E1,1.6721576E2,2.0515919E1,1.5442089E0,1.7648102E0,1.7648102E0,6.618038E0,2.426614E0,8.60345E0,2.2060127E1,2.2060127E0,1.3236077E0,3.445792E2,4.2576047E2,5.735633E1,5.6032722E1,7.03718E1,4.1914244E0,3.970823E0,2.6913355E1,2.8016361E1,2.0515919E1,9.706456E0,3.309019E0,1.5000887E1,3.0884178E0,3.639921E1,7.7210445E0,7.5004435E0,8.559329E1,2.3383736E1,4.169364E1,1.3236077E0,1.0588861E1,1.5221488E1,3.7502217E0,8.60345E0,1.5442089E0,8.912292E1,2.6472154E0,7.059241E0,2.6472154E0,1.7648102E0,5.691513E1],"tree_param":{"num_deleted":"0","num_feature":"46","num_nodes":"121","size_leaf_vector":"1"}},{"base_weights":[-1.0816654E-3,-4.2580104E-1,1.2617713E0,-2.4117915E-2,-9.5507383E-1,8.484143E-1,1.7782661E0,9.3610317E-1,-1.22437574E-1,3.3346155E-1,-1.0551182E0,4.29318E-1,1.1548805E0,1.1200699E0,1.9967086E0,1.5005115E0,6.497135E-1,-4.9804848E-1,2.151546E-1,6.436681E-1,-3.6994034E-1,9.87696E-1,-1.0677433E0,6.448209E-1,4.7723174E-2,6.5039814E-1,1.2996243E0,4.5355207E-1,1.3956391E0,1.7058644E0,2.2567375E0,1.6433915E0,6.627912E-1,1.1805925E0,4.9421683E-1,-3.1175146E-1,-6.6634697E-1,5.69869E-2,5.0338304E-1,9.7562045E-1,1.0057827E-1,-5.353016E-1,5.7337016E-1,1.2306179E0,2.1476807E-2,-1.1159476E0,-7.380457E-1,8.309809E-1,1.7218325E-1,-5.6376535E-1,1.9539425E-1,1.8861983E0,4.759491E-1,1.1233722E0,1.5961366E0,1.0397313E0,-3.515424E-1,-7.492624E-3,1.4522212E0,1.7367048E0,-4.931626E-2,2.3058157E0,1.0523328E0,1.8817534E-1,8.168466E-2,8.3660714E-2,-3.9317897E-3,1.448688E-1,1.5063359E-2,1.3990639E-1,3.6509246E-2,1.1716924E-1,-3.472914E-2,-7.2055295E-2,-1.976957E-2,3.0999327E-2,-1.2365862E-2,5.7421397E-2,-2.4389664E-2,6.740978E-2,1.3439317E-1,4.519809E-2,-1.136294E-1,-7.004186E-2,3.920845E-2,1.0672461E-1,-2.9837644E-2,2.290149E-2,1.752248E-1,-1.004951E-1,-1.20380424E-1,-4.952054E-2,-9.777683E-2,1.21912934E-1,6.083709E-2,-9.160009E-2,3.2976907E-2,-7.832052E-2,4.8267666E-2,3.5021633E-2,-5.5612303E-2,1.3515823E-2,2.2434954E-1,-3.955425E-3,9.649547E-2,1.1765826E-1,1.2225978E-2,1.4434702E-3,1.6609809E-1,1.364753E-1,-6.892761E-2,-6.867892E-2,1.2214917E-1,1.5235643E-1,1.3551368E-2,1.7607822E-1,-3.5528988E-2,8.152994E-2,2.3263967E-1,-3.5122864E-2,1.6805385E-1],"categories":[],"categories_nodes":[],"categories_segments":[],"categories_sizes":[],"default_left":[0,0,0,0,0,0,0,0,0,0,0,0,0,0,0,0,0,0,0,0,0,0,0,0,0,0,0,0,0,0,0,0,0,0,0,0,0,0,0,0,0,0,0,0,0,0,0,0,0,0,0,0,0,0,0,0,0,0,0,0,0,0,0,0,0,0,0,0,0,0,0,0,0,0,0,0,0,0,0,0,0,0,0,0,0,0,0,0,0,0,0,0,0,0,0,0,0,0,0,0,0,0,0,0,0,0,0,0,0,0,0,0,0,0,0,0,0,0,0,0,0],"id":1,"left_children":[1,3,5,7,9,11,13,15,17,19,21,23,25,27,29,31,33,35,37,39,41,43,45,47,49,51,53,55,57,59,61,63,65,67,69,71,73,75,77,79,81,83,85,87,-1,89,91,93,95,97,99,101,103,105,107,109,111,-1,113,115,-1,117,119,-1,-1,-1,-1,-1,-1,-1,-1,-1,-1,-1,-1,-1,-1,-1,-1,-1,-1,-1,-1,-1,-1,-1,-1,-1,-1,-1,-1,-1,-1,-1,-1,-1,-1,-1,-1,-1,-1,-1,-1,-1,-1,-1,-1,-1,-1,-1,-1,-1,-1,-1,-1,-1,-1,-1,-1,-1,-1],"loss_changes":[1.5273842E3,4.5302747E2,1.5150293E2,1.14590256E2,1.18878174E2,5.0880524E1,4.343988E1,1.7248558E1,1.3969412E2,1.4858384E1,2.306543E1,1.3994209E1,1.5982941E1,1.432515E1,1.40928955E1,3.3617325E0,5.73608E0,1.6138992E1,2.6432951E1,8.350327E0,3.6046565E0,8.174968E-1,1.2664368E1,9.43988E0,5.7659254E0,1.0610584E1,7.5133667E0,1.2306864E1,4.8629913E0,8.729218E0,4.7945557E0,4.588562E0,8.986528E-1,4.3718815E0,6.6082706E0,1.3552061E1,6.793686E0,1.7219069E1,1.1019215E1,2.3113308E0,8.725098E0,3.1082373E0,1.8838972E0,1.778626E0,0E0,5.991699E0,5.9897346E0,5.9872932E0,5.796001E0,3.2348354E0,6.151127E0,3.6169872E0,1.2167474E1,5.9855347E0,6.5414276E0,9.311167E0,6.8550916E0,0E0,4.966568E0,6.4029846E0,0E0,1.6783447E0,6.4295874E0,0E0,0E0,0E0,0E0,0E0,0E0,0E0,0E0,0E0,0E0,0E0,0E0,0E0,0E0,0E0,0E0,0E0,0E0,0E0,0E0,0E0,0E0,0E0,0E0,0E0,0E0,0E0,0E0,0E0,0E0,0E0,0E0,0E0,0E0,0E0,0E0,0E0,0E0,0E0,0E0,0E0,0E0,0E0,0E0,0E0,0E0,0E0,0E0,0E0,0E0,0E0,0E0,0E0,0E0,0E0,0E0,0E0,0E0],"parents":[2147483647,0,0,1,1,2,2,3,3,4,4,5,5,6,6,7,7,8,8,9,9,10,10,11,11,12,12,13,13,14,14,15,15,16,16,17,17,18,18,19,19,20,20,21,21,22,22,23,23,24,24,25,25,26,26,27,27,28,28,29,29,30,30,31,31,32,32,33,33,34,34,35,35,36,36,37,37,38,38,39,39,40,40,41,41,42,42,43,43,45,45,46,46,47,47,48,48,49,49,50,50,51,51,52,52,53,53,54,54,55,55,56,56,58,58,59,59,61,61,62,62],"right_children":[2,4,6,8,10,12,14,16,18,20,22,24,26,28,30,32,34,36,38,40,42,44,46,48,50,52,54,56,58,60,62,64,66,68,70,72,74,76,78,80,82,84,86,88,-1,90,92,94,96,98,100,102,104,106,108,110,112,-1,114,116,-1,118,120,-1,-1,-1,-1,-1,-1,-1,-1,-1,-1,-1,-1,-1,-1,-1,-1,-1,-1,-1,-1,-1,-1,-1,-1,-1,-1,-1,-1,-1,-1,-1,-1,-1,-1,-1,-1,-1,-1,-1,-1,-1,-1,-1,-1,-1,-1,-1,-1,-1,-1,-1,-1,-1,-1,-1,-1,-1,-1],"split_conditions":[7.5E-1,4.5E1,2E0,5E0,5E0,3.1034482E-1,1.7E1,7.052897E-2,2.1818182E-1,1E-1,7.826087E-1,1.1E1,1.12676054E-1,8.780488E-1,2E0,1.7777778E0,2.9E1,1.8E1,5E-1,2E0,2.9411766E-1,6.2E1,3E-1,2.7169836E1,7.1428573E-1,1.5544E3,1.25E0,3E0,2.856E2,3.4932076E1,6E0,3.5266666E0,2.357143E0,1.25E-1,3.4E2,7.878788E-1,2.2727273E-1,4.6E1,3.125E-1,1.3392857E0,7.6E-1,1.2888889E0,1.2661499E-1,6.3E1,2.1476807E-2,9.6E1,7.5E1,9.259259E-2,2.8557756E1,1.9E1,2.4592E3,5.3846157E-1,1.5384616E-1,1.9182085E1,5.159705E-1,1.0144927E-1,3.4615386E-1,-7.492624E-3,3.846154E-1,1.1102E3,-4.931626E-2,1.4898489E0,2E0,1.8817534E-1,8.168466E-2,8.3660714E-2,-3.9317897E-3,1.448688E-1,1.5063359E-2,1.3990639E-1,3.6509246E-2,1.1716924E-1,-3.472914E-2,-7.2055295E-2,-1.976957E-2,3.0999327E-2,-1.2365862E-2,5.7421397E-2,-2.4389664E-2,6.740978E-2,1.3439317E-1,4.519809E-2,-1.136294E-1,-7.004186E-2,3.920845E-2,1.0672461E-1,-2.9837644E-2,2.290149E-2,1.752248E-1,-1.004951E-1,-1.20380424E-1,-4.952054E-2,-9.777683E-2,1.21912934E-1,6.083709E-2,-9.160009E-2,3.2976907E-2,-7.832052E-2,4.8267666E-2,3.5021633E-2,-5.5612303E-2,1.3515823E-2,2.2434954E-1,-3.955425E-3,9.649547E-2,1.1765826E-1,1.2225978E-2,1.4434702E-3,1.6609809E-1,1.364753E-1,-6.892761E-2,-6.867892E-2,1.2214917E-1,1.5235643E-1,1.3551368E-2,1.7607822E-1,-3.5528988E-2,8.152994E-2,2.3263967E-1,-3.5122864E-2,1.6805385E-1],"split_indices":[2,5,4,0,0,17,8,1,17,17,30,5,19,34,2,34,14,5,2,29,25,43,17,13,34,9,2,5,10,13,5,32,28,17,9,30,25,14,21,27,30,28,1,5,0,5,5,22,13,8,9,34,23,13,1,31,23,0,21,11,0,26,29,0,0,0,0,0,0,0,0,0,0,0,0,0,0,0,0,0,0,0,0,0,0,0,0,0,0,0,0,0,0,0,0,0,0,0,0,0,0,0,0,0,0,0,0,0,0,0,0,0,0,0,0,0,0,0,0,0,0],"split_type":[0,0,0,0,0,0,0,0,0,0,0,0,0,0,0,0,0,0,0,0,0,0,0,0,0,0,0,0,0,0,0,0,0,0,0,0,0,0,0,0,0,0,0,0,0,0,0,0,0,0,0,0,0,0,0,0,0,0,0,0,0,0,0,0,0,0,0,0,0,0,0,0,0,0,0,0,0,0,0,0,0,0,0,0,0,0,0,0,0,0,0,0,0,0,0,0,0,0,0,0,0,0,0,0,0,0,0,0,0,0,0,0,0,0,0,0,0,0,0,0,0],"sum_hessian":[2.845693E3,2.13E3,7.156932E2,1.2115552E3,9.184448E2,3.9900626E2,3.166869E2,1.1174054E2,1.0998147E3,6.6004005E1,8.524408E2,1.6954807E2,2.2945819E2,8.043954E1,2.3624734E2,3.618627E1,7.555427E1,5.203684E2,5.794462E2,4.586295E1,2.0141054E1,4.761544E0,8.4767926E2,1.079144E2,6.163368E1,5.238204E1,1.7707616E2,2.430325E1,5.6136284E1,1.150846E2,1.2116274E2,3.0092083E1,6.0941877E0,1.5623139E1,5.9931126E1,2.4833159E2,2.7203683E2,3.7490936E2,2.0453687E2,2.7970278E1,1.7892673E1,1.7504978E1,2.636075E0,3.1723597E0,1.5891848E0,7.3747064E2,1.1020862E2,7.687651E1,3.1037888E1,1.1440831E1,5.0192844E1,5.26591E0,4.7116127E1,1.1406348E2,6.3012684E1,1.389502E1,1.0408231E1,2.0678856E0,5.4068398E1,1.1370024E2,1.3843588E0,1.1554012E2,5.622623E0,2.2365572E1,7.726511E0,4.731325E0,1.3628625E0,1.2073811E1,3.5493288E0,6.2561016E0,5.3675026E1,5.062295E0,2.432693E2,2.4335231E2,2.8684513E1,1.5587698E2,2.1903238E2,1.8703989E2,1.749699E1,1.6935806E1,1.10344715E1,1.4428134E1,3.4645398E0,1.5067091E1,2.4378881E0,1.5395836E0,1.0964915E0,1.5791695E0,1.5931901E0,3.3132217E2,4.0614847E2,5.6271267E1,5.393735E1,2.638844E1,5.0488068E1,3.3173983E0,2.772049E1,9.665518E0,1.7753133E0,4.2061607E1,8.131237E0,1.1259822E0,4.1399283E0,2.3384064E1,2.3732063E1,1.0814041E2,5.9230647E0,2.5297146E0,6.048297E1,1.1873662E1,2.0213573E0,9.044133E0,1.3640974E0,5.1140358E1,2.928042E0,1.1256305E2,1.1371877E0,2.1268117E0,1.1341331E2,1.8747922E0,3.7478309E0],"tree_param":{"num_deleted":"0","num_feature":"46","num_nodes":"121","size_leaf_vector":"1"}},{"base_weights":[-1.7348411E-3,-5.263646E-1,8.2394016E-1,-1.4380915E-1,-9.0183556E-1,4.8700884E-1,1.5103297E0,7.782021E-1,-2.4041356E-1,2.956751E-1,-9.9953896E-1,2.557761E-1,8.93833E-1,1.1114154E0,1.7864923E0,1.235897E0,5.4113114E-1,-4.8039916E-1,8.5735224E-2,1.083415E0,4.7294643E-2,9.1085476E-1,-1.0122437E0,1.3633163E0,2.0636183E-1,1.1862587E0,6.276128E-1,1.437353E0,7.309984E-1,1.5635709E0,1.9839259E0,-5.493334E-2,1.3746699E0,1.4268352E0,4.108925E-1,8.55466E-1,-5.027916E-1,4.480567E-2,1.1008655E0,1.3415377E0,4.5386276E-1,3.0580977E-1,-4.0184945E-1,1.1340114E-1,1.9556472E-2,-1.1110717E0,-8.5783565E-1,2.0130794E0,8.714317E-1,3.1424674E-1,-3.27522E-1,1.3978975E-1,1.3144941E0,7.8415716E-1,-3.0111764E-2,1.2002777E0,1.8905469E0,-1.1766533E-1,9.753519E-1,1.6054766E0,5.972519E-2,2.006958E0,4.904668E-2,-5.4594696E-2,5.1796865E-2,1.5516281E-1,7.09639E-2,4.6378918E-2,1.7773592E-1,1.24631E-1,2.8417889E-2,-1.9546926E-3,1.16486154E-1,-2.4956515E-2,-5.8706142E-2,-1.9708289E-2,1.6517874E-2,1.6738155E-1,-1.8038955E-2,1.4892197E-1,6.7340955E-3,-8.351043E-2,9.161578E-2,7.1892254E-2,-2.054977E-2,-6.819343E-2,2.268451E-2,-1.1161969E-1,1.5835153E-2,-5.4955304E-2,-9.663578E-2,2.2336593E-1,4.3549556E-2,1.3132314E-1,-1.6517E-2,-8.565281E-2,3.4035407E-2,9.542291E-2,-4.7278445E-2,-2.502256E-2,1.5593697E-1,1.1046616E-1,1.5799113E-1,5.512771E-2,1.15283154E-1,-2.2662101E-2,1.13020994E-1,1.3419217E-1,3.9699916E-2,8.037134E-2,2.1328263E-1,3.8361583E-2,-7.9134144E-2,5.5553902E-2,1.2616503E-1,2.6616165E-2,1.6561972E-1,6.634851E-2,-5.6909468E-2,3.684504E-2,2.0225643E-1],"categories":[],"categories_nodes":[],"categories_segments":[],"categories_sizes":[],"default_left":[0,0,0,0,0,0,0,0,0,0,0,0,0,0,0,0,0,0,0,0,0,0,0,0,0,0,0,0,0,0,0,0,0,0,0,0,0,0,0,0,0,0,0,0,0,0,0,0,0,0,0,0,0,0,0,0,0,0,0,0,0,0,0,0,0,0,0,0,0,0,0,0,0,0,0,0,0,0,0,0,0,0,0,0,0,0,0,0,0,0,0,0,0,0,0,0,0,0,0,0,0,0,0,0,0,0,0,0,0,0,0,0,0,0,0,0,0,0,0,0,0],"id":2,"left_children":[1,3,5,7,9,11,13,15,17,19,21,23,25,27,29,31,33,35,37,39,41,43,45,47,49,51,53,55,57,59,61,63,65,67,69,71,73,75,77,79,81,83,85,-1,-1,87,89,91,93,95,97,99,101,103,105,107,109,111,113,115,117,119,-1,-1,-1,-1,-1,-1,-1,-1,-1,-1,-1,-1,-1,-1,-1,-1,-1,-1,-1,-1,-1,-1,-1,-1,-1,-1,-1,-1,-1,-1,-1,-1,-1,-1,-1,-1,-1,-1,-1,-1,-1,-1,-1,-1,-1,-1,-1,-1,-1,-1,-1,-1,-1,-1,-1,-1,-1,-1,-1],"loss_changes":[1.2247906E3,2.482107E2,2.533227E2,7.657149E1,1.0236157E2,6.922664E1,3.780902E1,8.181782E0,6.0858257E1,1.2975151E1,2.050354E1,2.5559042E1,2.005458E1,1.759993E1,6.220154E0,4.9217453E0,5.8173676E0,1.3824791E1,1.3671064E1,1.9772263E0,6.121468E0,7.1301746E-1,1.1284119E1,4.6340065E0,2.6204603E1,1.6750961E1,1.4641781E1,6.323395E0,1.493021E1,6.470932E0,2.7514343E0,1.2920191E0,1.7781525E0,1.4414892E0,4.917737E0,2.1215367E0,9.264793E0,9.305322E0,9.666045E0,1.9273739E0,4.423173E0,7.1937876E0,3.554075E0,0E0,0E0,3.3359375E0,1.0085861E1,1.7584095E0,6.234297E0,1.1830093E1,1.47263565E1,8.636926E0,4.509094E0,9.213722E0,6.6993213E0,5.753113E0,5.0606384E0,5.9985895E0,5.9792404E0,6.4432373E0,1.8444235E0,1.9814758E0,0E0,0E0,0E0,0E0,0E0,0E0,0E0,0E0,0E0,0E0,0E0,0E0,0E0,0E0,0E0,0E0,0E0,0E0,0E0,0E0,0E0,0E0,0E0,0E0,0E0,0E0,0E0,0E0,0E0,0E0,0E0,0E0,0E0,0E0,0E0,0E0,0E0,0E0,0E0,0E0,0E0,0E0,0E0,0E0,0E0,0E0,0E0,0E0,0E0,0E0,0E0,0E0,0E0,0E0,0E0,0E0,0E0,0E0,0E0],"parents":[2147483647,0,0,1,1,2,2,3,3,4,4,5,5,6,6,7,7,8,8,9,9,10,10,11,11,12,12,13,13,14,14,15,15,16,16,17,17,18,18,19,19,20,20,21,21,22,22,23,23,24,24,25,25,26,26,27,27,28,28,29,29,30,30,31,31,32,32,33,33,34,34,35,35,36,36,37,37,38,38,39,39,40,40,41,41,42,42,45,45,46,46,47,47,48,48,49,49,50,50,51,51,52,52,53,53,54,54,55,55,56,56,57,57,58,58,59,59,60,60,61,61],"right_children":[2,4,6,8,10,12,14,16,18,20,22,24,26,28,30,32,34,36,38,40,42,44,46,48,50,52,54,56,58,60,62,64,66,68,70,72,74,76,78,80,82,84,86,-1,-1,88,90,92,94,96,98,100,102,104,106,108,110,112,114,116,118,120,-1,-1,-1,-1,-1,-1,-1,-1,-1,-1,-1,-1,-1,-1,-1,-1,-1,-1,-1,-1,-1,-1,-1,-1,-1,-1,-1,-1,-1,-1,-1,-1,-1,-1,-1,-1,-1,-1,-1,-1,-1,-1,-1,-1,-1,-1,-1,-1,-1,-1,-1,-1,-1,-1,-1,-1,-1,-1,-1],"split_conditions":[5E-1,4.6E1,1.5E0,5E0,5E0,3.75E-1,2.7E1,7.052897E-2,2.413793E-1,2.857143E-1,7.826087E-1,4.17E2,7E0,3E0,3E0,6.25E-1,1.3071428E1,7.878788E-1,6.785714E-1,1.43E2,1E-1,1.338983E0,1.724138E-1,3.5E1,3.190909E1,5.641026E-1,1.5873016E-1,2.5E0,7.3333335E-1,1.892066E1,1.9254081E0,8.2E-1,3E0,2.8E1,3.3890235E-1,7.4074075E-2,5.1E1,9.0625E-1,9.230769E-1,6.756757E-3,1.57E2,2E0,1.2888889E0,1.1340114E-1,1.9556472E-2,2.1818182E0,6.2E1,1.5076923E0,4E0,7.1428575E-2,7.826087E-1,5E0,1E0,2.0634921E-1,1.8309858E-1,1.3E0,1.0204082E-1,1.5909091E1,1.3793103E-1,6.81427E-1,9.5454544E-1,3.175E0,4.904668E-2,-5.4594696E-2,5.1796865E-2,1.5516281E-1,7.09639E-2,4.6378918E-2,1.7773592E-1,1.24631E-1,2.8417889E-2,-1.9546926E-3,1.16486154E-1,-2.4956515E-2,-5.8706142E-2,-1.9708289E-2,1.6517874E-2,1.6738155E-1,-1.8038955E-2,1.4892197E-1,6.7340955E-3,-8.351043E-2,9.161578E-2,7.1892254E-2,-2.054977E-2,-6.819343E-2,2.268451E-2,-1.1161969E-1,1.5835153E-2,-5.4955304E-2,-9.663578E-2,2.2336593E-1,4.3549556E-2,1.3132314E-1,-1.6517E-2,-8.565281E-2,3.4035407E-2,9.542291E-2,-4.7278445E-2,-2.502256E-2,1.5593697E-1,1.1046616E-1,1.5799113E-1,5.512771E-2,1.15283154E-1,-2.2662101E-2,1.13020994E-1,1.3419217E-1,3.9699916E-2,8.037134E-2,2.1328263E-1,3.8361583E-2,-7.9134144E-2,5.5553902E-2,1.2616503E-1,2.6616165E-2,1.6561972E-1,6.634851E-2,-5.6909468E-2,3.684504E-2,2.0225643E-1],"split_indices":[2,5,3,0,0,17,8,1,17,15,30,9,5,5,4,30,12,30,17,5,17,28,17,43,12,38,24,3,38,13,26,34,41,5,15,21,14,30,33,36,5,29,27,0,0,35,5,28,0,38,30,16,2,19,21,34,20,12,19,15,30,32,0,0,0,0,0,0,0,0,0,0,0,0,0,0,0,0,0,0,0,0,0,0,0,0,0,0,0,0,0,0,0,0,0,0,0,0,0,0,0,0,0,0,0,0,0,0,0,0,0,0,0,0,0,0,0,0,0,0,0],"split_type":[0,0,0,0,0,0,0,0,0,0,0,0,0,0,0,0,0,0,0,0,0,0,0,0,0,0,0,0,0,0,0,0,0,0,0,0,0,0,0,0,0,0,0,0,0,0,0,0,0,0,0,0,0,0,0,0,0,0,0,0,0,0,0,0,0,0,0,0,0,0,0,0,0,0,0,0,0,0,0,0,0,0,0,0,0,0,0,0,0,0,0,0,0,0,0,0,0,0,0,0,0,0,0,0,0,0,0,0,0,0,0,0,0,0,0,0,0,0,0,0,0],"sum_hessian":[2.8254805E3,1.7279268E3,1.0975536E3,8.565737E2,8.71353E2,7.3732764E2,3.6022598E2,8.056738E1,7.7600635E2,6.557694E1,8.057761E2,4.7115753E2,2.6617014E2,1.4941779E2,2.1080818E2,2.6053902E1,5.4513477E1,4.467831E2,3.2922327E2,1.49142885E1,5.066266E1,4.856284E0,8.009198E2,1.8987791E1,4.5216974E2,1.25195274E2,1.4097487E2,7.897467E1,7.0443115E1,1.03202354E2,1.07605835E2,2.5877225E0,2.3466179E1,5.7121015E0,4.8801376E1,6.7523937E0,4.400307E2,3.1746725E2,1.1755986E1,9.775355E0,5.138932E0,3.235762E1,1.8305038E1,3.2553053E0,1.6009787E0,4.8457507E2,3.1634473E2,6.848528E0,1.2139262E1,3.764997E2,7.567003E1,1.3894994E1,1.1130028E2,1.1371698E2,2.7257885E1,5.4245945E1,2.4728722E1,1.58640785E1,5.4579033E1,1.0033876E2,2.8635948E0,1.05632935E2,1.9729002E0,1.418784E0,1.1689386E0,1.7481386E1,5.984793E0,2.1441894E0,3.5679123E0,5.2635255E0,4.3537853E1,2.008605E0,4.7437887E0,1.1086091E2,3.291698E2,1.0527695E2,2.1219032E2,7.9116683E0,3.8443182E0,8.608825E0,1.1665313E0,1.1436857E0,3.9952466E0,1.7672781E1,1.4684838E1,1.2604861E1,5.700177E0,4.827467E2,1.8283621E0,8.394455E1,2.3240018E2,5.6435637E0,1.204964E0,8.324499E0,3.8147633E0,7.5186768E0,3.6898102E2,7.135913E0,6.853412E1,1.1546454E1,2.3485398E0,6.504175E1,4.6258533E1,7.122295E1,4.2494022E1,2.3998285E1,3.2596002E0,4.5544434E1,8.701511E0,5.2946997E0,1.9434023E1,9.342732E0,6.521346E0,2.3321716E1,3.1257318E1,3.8891969E0,9.644956E1,1.4327836E0,1.430811E0,1.2287952E0,1.0440414E2],"tree_param":{"num_deleted":"0","num_feature":"46","num_nodes":"121","size_leaf_vector":"1"}},{"base_weights":[-1.704625E-3,-4.8649856E-1,7.3324686E-1,-1.457565E-1,-8.659216E-1,4.3455812E-1,1.3376946E0,6.821393E-1,-2.3397996E-1,2.6497644E-1,-9.6269196E-1,1.02179E-1,6.692933E-1,9.978511E-1,1.5920712E0,1.0857217E0,4.7839E-1,-3.977701E-1,1.804183E-1,9.812268E-1,2.8422285E-2,1.0334283E0,-9.7636247E-1,1.2181234E0,2.3435747E-2,3.2396832E-1,7.9669607E-1,8.716908E-1,1.6228843E0,1.2767228E0,1.7245909E0,1.3088851E0,4.4029778E-1,8.6746E-1,2.2329535E-1,-6.176734E-1,-2.8219718E-1,-7.861575E-1,2.4079919E-1,1.5822834E0,6.5654033E-1,1.8682268E-1,-7.116868E-1,8.770072E-3,1.264543E-1,-1.0254419E0,-7.169693E-1,1.7867594E0,7.8122616E-1,1.0317265E0,-4.4392943E-2,-8.056246E-3,5.5866563E-1,8.206058E-1,-5.2063644E-1,9.7380656E-1,1.8234326E-1,1.7375427E0,6.451031E-4,-1.9783936E-2,1.3256739E0,1.7495205E0,2.0227605E-1,2.8321892E-2,1.3707641E-1,8.546304E-2,-6.991733E-2,1.0486313E-1,-5.16648E-2,7.6178745E-3,1.2853473E-1,7.667939E-2,-6.399959E-2,-7.765211E-3,-4.3932028E-2,-1.3001205E-1,2.9086713E-3,2.0228535E-2,1.1705839E-1,4.758077E-2,1.8135089E-1,2.8732908E-3,8.0934845E-2,5.5226326E-2,-1.8019594E-2,1.776794E-2,-1.0608613E-1,-1.0589744E-1,-8.232512E-2,1.0776719E-1,-7.503631E-2,4.0036373E-2,1.9737849E-1,1.1693404E-1,-1.5275813E-2,1.5732077E-1,3.5427228E-2,6.6908817E-3,-5.7576068E-2,3.6509976E-2,-5.801819E-2,-1.1990347E-2,7.628443E-2,7.0267275E-2,1.05811395E-1,-1.2362283E-1,1.15629494E-1,-2.4940891E-2,9.991618E-2,-6.898064E-2,8.1353605E-2,1.8293169E-1,4.748741E-2,-4.7386754E-2,1.3680422E-1,1.01927035E-1,1.7780942E-1,-5.2472223E-2,8.399405E-2],"categories":[],"categories_nodes":[],"categories_segments":[],"categories_sizes":[],"default_left":[0,0,0,0,0,0,0,0,0,0,0,0,0,0,0,0,0,0,0,0,0,0,0,0,0,0,0,0,0,0,0,0,0,0,0,0,0,0,0,0,0,0,0,0,0,0,0,0,0,0,0,0,0,0,0,0,0,0,0,0,0,0,0,0,0,0,0,0,0,0,0,0,0,0,0,0,0,0,0,0,0,0,0,0,0,0,0,0,0,0,0,0,0,0,0,0,0,0,0,0,0,0,0,0,0,0,0,0,0,0,0,0,0,0,0,0,0,0,0],"id":3,"left_children":[1,3,5,7,9,11,13,15,17,19,21,23,25,27,29,31,33,35,37,39,41,43,45,47,49,51,53,55,57,59,61,63,65,67,69,71,73,75,77,79,81,83,85,-1,-1,87,89,91,93,95,97,99,101,103,105,107,109,111,-1,-1,113,115,117,-1,-1,-1,-1,-1,-1,-1,-1,-1,-1,-1,-1,-1,-1,-1,-1,-1,-1,-1,-1,-1,-1,-1,-1,-1,-1,-1,-1,-1,-1,-1,-1,-1,-1,-1,-1,-1,-1,-1,-1,-1,-1,-1,-1,-1,-1,-1,-1,-1,-1,-1,-1,-1,-1,-1,-1],"loss_changes":[9.9730225E2,2.1792035E2,2.00271E2,6.514841E1,8.756207E1,5.813919E1,3.0176636E1,6.5475426E0,5.4699116E1,1.0759646E1,2.1068604E1,2.7210247E1,1.8970993E1,1.1200317E1,6.510132E0,3.4630508E0,5.651843E0,1.4493851E1,1.3535788E1,2.0401888E0,5.8646846E0,1.0881791E0,8.566284E0,3.675064E0,1.9918001E1,9.314887E0,1.0461975E1,9.344589E0,4.7533417E0,4.9926834E0,5.1085205E0,9.0218735E-1,4.7107506E0,6.3035545E0,5.670691E0,6.609558E0,1.218375E1,5.769824E0,7.4981356E0,3.714161E-1,1.1234379E0,5.607213E0,2.9297037E0,0E0,0E0,3.277954E0,7.9744797E0,1.3078728E0,5.0069323E0,6.1761456E0,1.6196833E1,1.0985817E1,9.791704E0,8.032089E0,8.978917E0,3.8961868E0,1.0846205E1,1.9125366E0,0E0,0E0,5.4942474E0,1.1398315E0,2.0400214E0,0E0,0E0,0E0,0E0,0E0,0E0,0E0,0E0,0E0,0E0,0E0,0E0,0E0,0E0,0E0,0E0,0E0,0E0,0E0,0E0,0E0,0E0,0E0,0E0,0E0,0E0,0E0,0E0,0E0,0E0,0E0,0E0,0E0,0E0,0E0,0E0,0E0,0E0,0E0,0E0,0E0,0E0,0E0,0E0,0E0,0E0,0E0,0E0,0E0,0E0,0E0,0E0,0E0,0E0,0E0,0E0],"parents":[2147483647,0,0,1,1,2,2,3,3,4,4,5,5,6,6,7,7,8,8,9,9,10,10,11,11,12,12,13,13,14,14,15,15,16,16,17,17,18,18,19,19,20,20,21,21,22,22,23,23,24,24,25,25,26,26,27,27,28,28,29,29,30,30,31,31,32,32,33,33,34,34,35,35,36,36,37,37,38,38,39,39,40,40,41,41,42,42,45,45,46,46,47,47,48,48,49,49,50,50,51,51,52,52,53,53,54,54,55,55,56,56,57,57,60,60,61,61,62,62],"right_children":[2,4,6,8,10,12,14,16,18,20,22,24,26,28,30,32,34,36,38,40,42,44,46,48,50,52,54,56,58,60,62,64,66,68,70,72,74,76,78,80,82,84,86,-1,-1,88,90,92,94,96,98,100,102,104,106,108,110,112,-1,-1,114,116,118,-1,-1,-1,-1,-1,-1,-1,-1,-1,-1,-1,-1,-1,-1,-1,-1,-1,-1,-1,-1,-1,-1,-1,-1,-1,-1,-1,-1,-1,-1,-1,-1,-1,-1,-1,-1,-1,-1,-1,-1,-1,-1,-1,-1,-1,-1,-1,-1,-1,-1,-1,-1,-1,-1,-1,-1],"split_conditions":[5E-1,4.9E1,1.5E0,5E0,5E0,3.0749354E-1,6.7076164E-1,7.052897E-2,3.030303E-1,2.857143E-1,7.826087E-1,4.17E2,1.1111111E-1,4E0,7.605E2,3E0,2.2829805E1,8.4745765E-2,1.724138E-2,7.8E1,1.2661499E-1,1.0397208E0,1.7E1,3.5E1,7.826087E-1,1.0701754E0,4E-1,2.3E1,3.2142857E-1,4.2857143E-1,1E1,6.25E-1,2.5454545E-1,2.175E2,1.12E2,7.878788E-1,2.1954498E1,8.571429E-2,1.8E0,5.1111114E-1,1.980198E-2,1.2048192E-2,3.79E2,8.770072E-3,1.264543E-1,2.8846154E-1,1.3E1,3.3555555E0,4E0,1.4335664E-1,3.7333332E1,1.0533333E0,5.714286E-1,1E0,3E0,8E0,1.0847458E0,3.4545454E-1,6.451031E-4,-1.9783936E-2,5E-1,1.5E0,4.06E2,2.8321892E-2,1.3707641E-1,8.546304E-2,-6.991733E-2,1.0486313E-1,-5.16648E-2,7.6178745E-3,1.2853473E-1,7.667939E-2,-6.399959E-2,-7.765211E-3,-4.3932028E-2,-1.3001205E-1,2.9086713E-3,2.0228535E-2,1.1705839E-1,4.758077E-2,1.8135089E-1,2.8732908E-3,8.0934845E-2,5.5226326E-2,-1.8019594E-2,1.776794E-2,-1.0608613E-1,-1.0589744E-1,-8.232512E-2,1.0776719E-1,-7.503631E-2,4.0036373E-2,1.9737849E-1,1.1693404E-1,-1.5275813E-2,1.5732077E-1,3.5427228E-2,6.6908817E-3,-5.7576068E-2,3.6509976E-2,-5.801819E-2,-1.1990347E-2,7.628443E-2,7.0267275E-2,1.05811395E-1,-1.2362283E-1,1.15629494E-1,-2.4940891E-2,9.991618E-2,-6.898064E-2,8.1353605E-2,1.8293169E-1,4.748741E-2,-4.7386754E-2,1.3680422E-1,1.01927035E-1,1.7780942E-1,-5.2472223E-2,8.399405E-2],"split_indices":[2,5,3,0,0,1,1,1,17,15,30,9,19,4,10,41,13,19,21,5,1,26,8,43,30,28,21,12,20,33,5,30,21,10,11,30,13,20,28,34,33,20,9,0,0,19,0,32,0,22,12,27,38,2,41,43,28,17,0,0,34,2,11,0,0,0,0,0,0,0,0,0,0,0,0,0,0,0,0,0,0,0,0,0,0,0,0,0,0,0,0,0,0,0,0,0,0,0,0,0,0,0,0,0,0,0,0,0,0,0,0,0,0,0,0,0,0,0,0],"split_type":[0,0,0,0,0,0,0,0,0,0,0,0,0,0,0,0,0,0,0,0,0,0,0,0,0,0,0,0,0,0,0,0,0,0,0,0,0,0,0,0,0,0,0,0,0,0,0,0,0,0,0,0,0,0,0,0,0,0,0,0,0,0,0,0,0,0,0,0,0,0,0,0,0,0,0,0,0,0,0,0,0,0,0,0,0,0,0,0,0,0,0,0,0,0,0,0,0,0,0,0,0,0,0,0,0,0,0,0,0,0,0,0,0,0,0,0,0,0,0],"sum_hessian":[2.7970505E3,1.6855525E3,1.111498E3,8.8877203E2,7.9678046E2,7.450496E2,3.6644843E2,8.494159E1,8.0383044E2,6.266882E1,7.3411163E2,3.0897876E2,4.360709E2,1.5897833E2,2.0747011E2,2.7044226E1,5.789736E1,5.761488E2,2.2768164E2,1.477732E1,4.78915E1,4.485989E0,7.296256E2,1.9411442E1,2.895673E2,1.1847838E2,3.1759253E2,1.3427097E2,2.4707375E1,6.453489E1,1.4293521E2,1.9331999E1,7.712226E0,2.1977211E1,3.5920155E1,1.9698895E2,3.7915985E2,1.2680033E1,2.1500162E2,3.8243861E0,1.0952934E1,4.0064373E1,7.8271255E0,1.1518903E0,3.3340988E0,6.110553E2,1.1857029E2,7.091704E0,1.2319738E1,1.735595E1,2.7221136E2,4.946553E1,6.901285E1,3.1230127E2,5.2912374E0,1.1658772E2,1.7683237E1,2.3000925E1,1.7064501E0,1.9758109E0,6.255908E1,1.4048537E2,2.4498525E0,1.4172668E0,1.7914732E1,5.8390255E0,1.8732004E0,1.9647808E1,2.3294013E0,3.249117E1,3.4289849E0,2.596564E0,1.9439238E2,1.6537132E2,2.1378853E2,7.4122734E0,5.26776E0,2.0761911E2,7.3825064E0,1.1895996E0,2.6347864E0,2.376634E0,8.576301E0,1.9822437E1,2.0241938E1,2.3451207E0,5.4820046E0,5.204959E2,9.055939E1,1.5947361E0,1.16975555E2,1.2162778E0,5.8754263E0,8.525148E0,3.79459E0,8.911143E0,8.444806E0,2.257907E2,4.6420662E1,3.0157705E1,1.9307827E1,1.6058073E1,5.2954777E1,2.1132687E2,1.0097441E2,3.8928547E0,1.3983825E0,2.188151E0,1.1439957E2,7.385489E0,1.0297749E1,2.102407E1,1.976854E0,1.2047395E0,6.135434E1,6.670881E0,1.3381448E2,1.2275019E0,1.2223505E0],"tree_param":{"num_deleted":"0","num_feature":"46","num_nodes":"119","size_leaf_vector":"1"}},{"base_weights":[-1.7902909E-3,-4.4984615E-1,6.561603E-1,-1.1222567E-1,-7.955626E-1,3.8861188E-1,1.1986929E0,6.956635E-1,-1.8700714E-1,2.4571113E-1,-8.8953084E-1,9.326605E-2,5.945248E-1,8.950252E-1,1.4421997E0,8.9823014E-1,3.422964E-1,-4.2045525E-1,4.9796995E-2,6.73847E-1,-6.1647356E-2,7.470403E-1,-9.0165347E-1,1.100907E0,2.1400264E-2,2.7398777E-1,7.0203155E-1,1.1423951E0,6.0085046E-1,1.4628116E0,1.8994702E-1,1.0147836E0,2.5246987E-1,1.1263938E0,5.620406E-2,-2.1369438E-1,-5.422357E-1,1.2933382E-1,-3.6229503E-1,1.4586008E0,4.338926E-1,-2.0981091E-1,7.8927314E-1,9.40127E-2,1.4104542E-2,-7.6210064E-1,-1.0272076E0,1.6155494E0,7.04709E-1,9.197092E-1,-4.0336866E-2,3.371526E-1,-6.079822E-1,4.979619E-1,8.4539896E-1,-2.5596017E-1,1.2223442E0,-1.1606303E-1,7.8473604E-1,1.2368733E0,1.6038601E0,8.231555E-2,-6.483569E-2,1.05986916E-1,-8.701743E-3,6.7078605E-2,-5.481831E-2,1.8254722E-2,1.4380524E-1,-8.219549E-2,2.087075E-2,-4.8613064E-2,-3.6025287E-3,7.9387106E-2,-5.6412894E-2,7.734882E-3,7.02414E-2,1.2419193E-1,-4.297361E-2,4.9553152E-2,1.6939378E-1,5.8272626E-2,-5.341485E-2,4.3096293E-2,-4.563139E-2,1.1676174E-1,-1.883823E-2,-8.6029194E-2,-3.944865E-2,-1.120896E-1,-9.030541E-2,1.7817155E-1,3.685252E-2,1.1189522E-1,-7.219245E-3,1.3796064E-1,2.3017805E-2,6.011262E-3,-5.3167503E-2,6.149554E-2,1.3056099E-2,-1.1132368E-1,4.4177167E-2,6.663507E-2,2.7181401E-3,1.12525046E-1,6.5611646E-2,-1.186258E-1,5.5673778E-2,1.3107485E-1,4.3372776E-2,1.6002633E-2,-1.18671894E-1,9.594182E-2,1.6701095E-2,-1.9495266E-2,1.2749419E-1,1.6227177E-1,2.0942586E-2],"categories":[],"categories_nodes":[],"categories_segments":[],"categories_sizes":[],"default_left":[0,0,0,0,0,0,0,0,0,0,0,0,0,0,0,0,0,0,0,0,0,0,0,0,0,0,0,0,0,0,0,0,0,0,0,0,0,0,0,0,0,0,0,0,0,0,0,0,0,0,0,0,0,0,0,0,0,0,0,0,0,0,0,0,0,0,0,0,0,0,0,0,0,0,0,0,0,0,0,0,0,0,0,0,0,0,0,0,0,0,0,0,0,0,0,0,0,0,0,0,0,0,0,0,0,0,0,0,0,0,0,0,0,0,0,0,0,0,0],"id":4,"left_children":[1,3,5,7,9,11,13,15,17,19,21,23,25,27,29,31,33,35,37,39,41,43,45,47,49,51,53,55,57,59,61,63,65,67,69,71,73,75,77,79,81,83,85,-1,-1,87,89,91,93,95,97,99,101,103,105,107,109,111,113,115,117,-1,-1,-1,-1,-1,-1,-1,-1,-1,-1,-1,-1,-1,-1,-1,-1,-1,-1,-1,-1,-1,-1,-1,-1,-1,-1,-1,-1,-1,-1,-1,-1,-1,-1,-1,-1,-1,-1,-1,-1,-1,-1,-1,-1,-1,-1,-1,-1,-1,-1,-1,-1,-1,-1,-1,-1,-1,-1],"loss_changes":[8.1517755E2,1.9191486E2,1.621377E2,5.048014E1,7.972711E1,4.5660667E1,2.603186E1,4.7618027E0,4.223287E1,8.995544E0,1.5464783E1,2.2424004E1,1.5064148E1,1.147142E1,4.9728394E0,3.0855103E0,6.0877132E0,9.56868E0,1.2500626E1,4.737402E0,5.274813E0,5.728216E-1,1.2191956E1,3.0652752E0,1.6140657E1,6.491021E0,9.260025E0,1.033506E1,1.0429932E1,4.3893127E0,2.8923354E0,1.9440918E0,3.0871568E0,1.8782759E0,3.0030038E0,6.963152E0,7.5093155E0,9.455929E0,7.2126875E0,5.7823086E-1,3.6630988E0,5.7732086E0,2.5206194E0,0E0,0E0,1.2459686E1,3.4884644E0,1.041336E0,4.400513E0,5.61709E0,1.3488714E1,5.99969E0,4.6806984E0,1.0999035E1,9.4809265E0,4.951072E0,5.355423E0,5.1797695E0,6.5887146E0,4.6763153E0,2.809082E0,0E0,0E0,0E0,0E0,0E0,0E0,0E0,0E0,0E0,0E0,0E0,0E0,0E0,0E0,0E0,0E0,0E0,0E0,0E0,0E0,0E0,0E0,0E0,0E0,0E0,0E0,0E0,0E0,0E0,0E0,0E0,0E0,0E0,0E0,0E0,0E0,0E0,0E0,0E0,0E0,0E0,0E0,0E0,0E0,0E0,0E0,0E0,0E0,0E0,0E0,0E0,0E0,0E0,0E0,0E0,0E0,0E0,0E0],"parents":[2147483647,0,0,1,1,2,2,3,3,4,4,5,5,6,6,7,7,8,8,9,9,10,10,11,11,12,12,13,13,14,14,15,15,16,16,17,17,18,18,19,19,20,20,21,21,22,22,23,23,24,24,25,25,26,26,27,27,28,28,29,29,30,30,31,31,32,32,33,33,34,34,35,35,36,36,37,37,38,38,39,39,40,40,41,41,42,42,45,45,46,46,47,47,48,48,49,49,50,50,51,51,52,52,53,53,54,54,55,55,56,56,57,57,58,58,59,59,60,60],"right_children":[2,4,6,8,10,12,14,16,18,20,22,24,26,28,30,32,34,36,38,40,42,44,46,48,50,52,54,56,58,60,62,64,66,68,70,72,74,76,78,80,82,84,86,-1,-1,88,90,92,94,96,98,100,102,104,106,108,110,112,114,116,118,-1,-1,-1,-1,-1,-1,-1,-1,-1,-1,-1,-1,-1,-1,-1,-1,-1,-1,-1,-1,-1,-1,-1,-1,-1,-1,-1,-1,-1,-1,-1,-1,-1,-1,-1,-1,-1,-1,-1,-1,-1,-1,-1,-1,-1,-1,-1,-1,-1,-1,-1,-1,-1,-1,-1,-1,-1,-1],"split_conditions":[5E-1,4.5E1,1.5E0,5E0,5E0,3.0749354E-1,2.9E1,1E-1,2.1428572E-1,4E0,7.826087E-1,4.17E2,1.0526316E-1,3E0,1E1,4E0,4.8E1,1.8E1,2.22E1,1E0,3.5E-1,2.1518987E-1,9.4E1,3.5E1,7.826087E-1,2.2E1,8.75E-1,2.835E2,7.419355E-1,2E0,3.2258064E-2,1.2342569E-1,1.724138E-2,4E0,2.3809524E-2,7.012987E-1,7.6E-1,1.368E2,7.826087E-1,2.652E2,9.90566E-2,7.1428575E-2,3.475281E0,9.40127E-2,1.4104542E-2,1.7E1,1.0169394E0,1.5076923E0,9.90566E-2,2.236842E-1,3.7333332E1,1.3793103E-1,2.015504E-1,7.7E1,9.5454544E-1,1E0,9.491525E-1,6.7241377E-1,2.6286469E1,1.4451859E0,4.105263E0,8.231555E-2,-6.483569E-2,1.05986916E-1,-8.701743E-3,6.7078605E-2,-5.481831E-2,1.8254722E-2,1.4380524E-1,-8.219549E-2,2.087075E-2,-4.8613064E-2,-3.6025287E-3,7.9387106E-2,-5.6412894E-2,7.734882E-3,7.02414E-2,1.2419193E-1,-4.297361E-2,4.9553152E-2,1.6939378E-1,5.8272626E-2,-5.341485E-2,4.3096293E-2,-4.563139E-2,1.1676174E-1,-1.883823E-2,-8.6029194E-2,-3.944865E-2,-1.120896E-1,-9.030541E-2,1.7817155E-1,3.685252E-2,1.1189522E-1,-7.219245E-3,1.3796064E-1,2.3017805E-2,6.011262E-3,-5.3167503E-2,6.149554E-2,1.3056099E-2,-1.1132368E-1,4.4177167E-2,6.663507E-2,2.7181401E-3,1.12525046E-1,6.5611646E-2,-1.186258E-1,5.5673778E-2,1.3107485E-1,4.3372776E-2,1.6002633E-2,-1.18671894E-1,9.594182E-2,1.6701095E-2,-1.9495266E-2,1.2749419E-1,1.6227177E-1,2.0942586E-2],"split_indices":[2,5,3,8,0,1,8,17,17,0,30,9,19,5,5,41,14,5,12,18,25,22,5,43,30,5,38,11,34,2,36,1,21,0,34,38,30,11,30,9,1,17,32,0,0,8,15,28,1,20,12,20,20,43,38,18,39,34,13,26,27,0,0,0,0,0,0,0,0,0,0,0,0,0,0,0,0,0,0,0,0,0,0,0,0,0,0,0,0,0,0,0,0,0,0,0,0,0,0,0,0,0,0,0,0,0,0,0,0,0,0,0,0,0,0,0,0,0,0],"split_type":[0,0,0,0,0,0,0,0,0,0,0,0,0,0,0,0,0,0,0,0,0,0,0,0,0,0,0,0,0,0,0,0,0,0,0,0,0,0,0,0,0,0,0,0,0,0,0,0,0,0,0,0,0,0,0,0,0,0,0,0,0,0,0,0,0,0,0,0,0,0,0,0,0,0,0,0,0,0,0,0,0,0,0,0,0,0,0,0,0,0,0,0,0,0,0,0,0,0,0,0,0,0,0,0,0,0,0,0,0,0,0,0,0,0,0,0,0,0,0],"sum_hessian":[2.7632002E3,1.6439844E3,1.1192158E3,8.324011E2,8.1158325E2,7.5071783E2,3.6849802E2,6.981914E1,7.62582E2,6.704409E1,7.445392E2,3.0898547E2,4.4173236E2,1.6607191E2,2.0242612E2,4.339892E1,2.6420221E1,3.836216E2,3.7896036E2,2.7519016E1,3.952507E1,5.0287595E0,7.3951044E2,1.9616777E1,2.8936868E2,1.1183602E2,3.2989636E2,8.86463E1,7.7425606E1,1.9898274E2,3.4433742E0,3.6279385E1,7.1195335E0,6.2776914E0,2.0142529E1,1.4321819E2,2.4040343E2,3.1822644E2,6.0733925E1,5.2548256E0,2.226419E1,3.4305225E1,5.2198467E0,3.3954864E0,1.6332734E0,3.5357883E2,3.8593158E2,7.194206E0,1.242257E1,1.7714588E1,2.716541E2,1.0493829E2,6.8977327E0,1.3797523E2,1.9192111E2,4.675063E0,8.3971245E1,1.5880646E1,6.154496E1,8.023213E1,1.1875062E2,1.9719458E0,1.4714285E0,3.488976E1,1.3896279E0,4.782847E0,2.3366866E0,1.9519647E0,4.325727E0,2.330883E0,1.7811646E1,5.5846886E1,8.737129E1,3.3072395E0,2.3709618E2,2.9280096E2,2.542547E1,1.7476586E0,5.8986263E1,1.6417836E0,3.613042E0,1.964228E1,2.6219103E0,9.322772E0,2.4982452E1,3.6233416E0,1.5965054E0,2.7798712E2,7.5591705E1,2.1537642E2,1.7055518E2,5.969939E0,1.2242672E0,7.815224E0,4.607346E0,1.002645E1,7.688138E0,2.2627248E2,4.5381634E1,4.3912582E1,6.1025707E1,4.615691E0,2.2820413E0,1.0131976E2,3.665548E1,7.543974E1,1.1648137E2,1.9654975E0,2.7095654E0,7.491153E1,9.059715E0,1.3301207E1,2.5794394E0,4.754648E1,1.3998484E1,1.9711848E0,7.826095E1,1.170046E2,1.7460167E0],"tree_param":{"num_deleted":"0","num_feature":"46","num_nodes":"119","size_leaf_vector":"1"}},{"base_weights":[-1.8312384E-3,-3.091038E-1,8.027749E-1,-2.2356033E-2,-7.4955565E-1,1.0069978E0,3.5246274E-1,6.2482166E-1,-9.318E-2,2.2512645E-1,-8.4183675E-1,6.9750386E-1,1.2336354E0,1.9888061E-1,8.0455685E-1,9.917075E-1,4.3568617E-1,-3.9562413E-1,1.2116462E-1,4.3466994E-1,-2.9094878E-1,6.842382E-1,-8.537818E-1,3.842798E-2,7.891714E-1,8.5857886E-1,1.3870922E0,2.7068192E-1,-3.2019094E-1,-5.512489E-1,9.086488E-1,1.1588552E0,4.5458052E-1,5.7196385E-1,-1.1505752E-3,9.663154E-1,-4.175938E-1,3.6948204E-1,4.947545E-3,5.850142E-1,-3.4728804E-1,-4.334604E-1,4.5534062E-1,8.2868296E-1,4.221137E-3,-7.184734E-1,-9.840086E-1,8.104468E-1,-2.9658014E-1,1.0039722E0,5.516927E-1,1.0159625E0,2.2439626E-1,1.420093E0,6.1801855E-2,7.1768805E-2,5.059017E-1,-6.903348E-1,7.201105E-1,3.8439896E-2,-1.1737994E-1,9.817071E-1,-1.062876E-1,1.307018E-1,3.275771E-2,9.876775E-2,-2.3016725E-2,1.00668274E-1,3.0456517E-2,4.0175125E-2,-8.0646716E-2,1.4579372E-1,4.4256084E-2,-4.72359E-2,-1.377652E-3,1.0468546E-1,2.2611173E-2,-1.787998E-2,1.4988887E-2,7.956858E-2,8.79244E-3,6.5511666E-2,-9.1848224E-2,-5.8497936E-2,3.4830317E-2,-3.4652278E-2,9.339407E-2,1.03771485E-1,1.9777812E-2,-8.179902E-2,-3.958861E-2,-1.0813929E-1,-8.556485E-2,5.7579703E-3,1.661981E-1,3.1542376E-2,-8.809727E-2,1.19538285E-1,5.9391547E-2,1.6921537E-1,4.5609176E-2,4.707677E-2,1.16789795E-1,-3.3767022E-2,1.0069054E-1,1.4369853E-1,-3.7517894E-2,9.063337E-2,-7.465821E-2,-2.875701E-2,3.2748464E-2,7.8693174E-2,1.6269905E-2,-9.813466E-2,1.9395782E-2,1.0213858E-1,-3.47041E-2,1.19029276E-1,4.3694753E-2],"categories":[],"categories_nodes":[],"categories_segments":[],"categories_sizes":[],"default_left":[0,0,0,0,0,0,0,0,0,0,0,0,0,0,0,0,0,0,0,0,0,0,0,0,0,0,0,0,0,0,0,0,0,0,0,0,0,0,0,0,0,0,0,0,0,0,0,0,0,0,0,0,0,0,0,0,0,0,0,0,0,0,0,0,0,0,0,0,0,0,0,0,0,0,0,0,0,0,0,0,0,0,0,0,0,0,0,0,0,0,0,0,0,0,0,0,0,0,0,0,0,0,0,0,0,0,0,0,0,0,0,0,0,0,0,0,0,0,0],"id":5,"left_children":[1,3,5,7,9,11,13,15,17,19,21,23,25,27,29,31,33,35,37,39,41,43,45,47,49,51,53,55,57,59,61,63,65,67,69,71,73,75,77,79,81,83,85,87,-1,89,91,93,95,97,99,101,103,105,107,109,111,113,115,-1,-1,117,-1,-1,-1,-1,-1,-1,-1,-1,-1,-1,-1,-1,-1,-1,-1,-1,-1,-1,-1,-1,-1,-1,-1,-1,-1,-1,-1,-1,-1,-1,-1,-1,-1,-1,-1,-1,-1,-1,-1,-1,-1,-1,-1,-1,-1,-1,-1,-1,-1,-1,-1,-1,-1,-1,-1,-1,-1],"loss_changes":[6.7437244E2,2.4927971E2,6.896811E1,5.4903667E1,7.019354E1,3.5478577E1,1.627735E1,7.7671547E0,7.002293E1,7.4912233E0,1.3548645E1,1.333992E1,1.59470215E1,6.7220078E0,8.92638E0,3.0113678E0,4.748269E0,1.3806252E1,1.8250587E1,5.944682E0,2.352759E0,5.287378E-1,1.1735352E1,7.5009274E0,9.353958E0,8.663368E0,9.082886E0,7.306731E0,9.0040245E0,3.2932403E0,9.08379E0,3.19421E0,4.242234E0,6.7596836E0,6.8007216E0,1.263464E0,9.757744E0,1.9344175E1,1.1528065E1,4.2587166E0,5.4703374E0,2.2800722E0,1.7578518E0,4.4209957E-1,0E0,1.0912415E1,3.5386658E0,5.5223975E0,7.541611E0,7.1990204E0,9.5277405E0,5.3386765E0,8.694611E0,6.742218E0,4.86843E0,8.014862E0,6.791605E0,4.5149813E0,2.3758225E0,0E0,0E0,5.655285E0,0E0,0E0,0E0,0E0,0E0,0E0,0E0,0E0,0E0,0E0,0E0,0E0,0E0,0E0,0E0,0E0,0E0,0E0,0E0,0E0,0E0,0E0,0E0,0E0,0E0,0E0,0E0,0E0,0E0,0E0,0E0,0E0,0E0,0E0,0E0,0E0,0E0,0E0,0E0,0E0,0E0,0E0,0E0,0E0,0E0,0E0,0E0,0E0,0E0,0E0,0E0,0E0,0E0,0E0,0E0,0E0,0E0],"parents":[2147483647,0,0,1,1,2,2,3,3,4,4,5,5,6,6,7,7,8,8,9,9,10,10,11,11,12,12,13,13,14,14,15,15,16,16,17,17,18,18,19,19,20,20,21,21,22,22,23,23,24,24,25,25,26,26,27,27,28,28,29,29,30,30,31,31,32,32,33,33,34,34,35,35,36,36,37,37,38,38,39,39,40,40,41,41,42,42,43,43,45,45,46,46,47,47,48,48,49,49,50,50,51,51,52,52,53,53,54,54,55,55,56,56,57,57,58,58,61,61],"right_children":[2,4,6,8,10,12,14,16,18,20,22,24,26,28,30,32,34,36,38,40,42,44,46,48,50,52,54,56,58,60,62,64,66,68,70,72,74,76,78,80,82,84,86,88,-1,90,92,94,96,98,100,102,104,106,108,110,112,114,116,-1,-1,118,-1,-1,-1,-1,-1,-1,-1,-1,-1,-1,-1,-1,-1,-1,-1,-1,-1,-1,-1,-1,-1,-1,-1,-1,-1,-1,-1,-1,-1,-1,-1,-1,-1,-1,-1,-1,-1,-1,-1,-1,-1,-1,-1,-1,-1,-1,-1,-1,-1,-1,-1,-1,-1,-1,-1,-1,-1],"split_conditions":[7.5E-1,4.5E1,7E0,5E0,5E0,1.25E0,5.4545456E-1,7.052897E-2,2.4078624E-1,1E-1,7.826087E-1,5.714286E-1,3E0,2.3352942E1,6.9986326E-1,3.5266666E0,1.6853932E-2,7.826087E-1,1E1,1.72E2,2.9411766E-1,1.08E2,9.6E1,1.2530463E0,2.9411765E-2,2.3728813E-1,3E-1,1.096875E1,2.2352941E-1,3.476923E0,1.14754096E-1,1.7777778E0,1.980198E-2,1E-1,2.555E2,1.627907E-1,2.2727273E-1,3.4E1,3.030303E-1,5.586E2,5.4545455E-2,1.2888889E0,1.980198E-2,2.5322998E-1,4.221137E-3,1.6E1,1.0169394E0,4.761905E-2,4.6E1,4.416E2,7.948718E-1,8.076923E-1,5.045045E-1,3.448276E-1,3E0,1.3793103E-1,1.9182085E1,1.9333333E0,1.5171064E0,3.8439896E-2,-1.1737994E-1,3E0,-1.062876E-1,1.307018E-1,3.275771E-2,9.876775E-2,-2.3016725E-2,1.00668274E-1,3.0456517E-2,4.0175125E-2,-8.0646716E-2,1.4579372E-1,4.4256084E-2,-4.72359E-2,-1.377652E-3,1.0468546E-1,2.2611173E-2,-1.787998E-2,1.4988887E-2,7.956858E-2,8.79244E-3,6.5511666E-2,-9.1848224E-2,-5.8497936E-2,3.4830317E-2,-3.4652278E-2,9.339407E-2,1.03771485E-1,1.9777812E-2,-8.179902E-2,-3.958861E-2,-1.0813929E-1,-8.556485E-2,5.7579703E-3,1.661981E-1,3.1542376E-2,-8.809727E-2,1.19538285E-1,5.9391547E-2,1.6921537E-1,4.5609176E-2,4.707677E-2,1.16789795E-1,-3.3767022E-2,1.0069054E-1,1.4369853E-1,-3.7517894E-2,9.063337E-2,-7.465821E-2,-2.875701E-2,3.2748464E-2,7.8693174E-2,1.6269905E-2,-9.813466E-2,1.9395782E-2,1.0213858E-1,-3.47041E-2,1.19029276E-1,4.3694753E-2],"split_indices":[2,5,5,0,0,2,17,1,1,17,30,38,16,12,15,32,37,30,5,5,25,14,5,26,25,23,22,12,23,32,31,34,33,17,10,1,25,14,17,9,17,28,33,1,0,8,15,23,14,10,30,34,1,21,5,19,13,27,26,0,0,18,0,0,0,0,0,0,0,0,0,0,0,0,0,0,0,0,0,0,0,0,0,0,0,0,0,0,0,0,0,0,0,0,0,0,0,0,0,0,0,0,0,0,0,0,0,0,0,0,0,0,0,0,0,0,0,0,0],"split_type":[0,0,0,0,0,0,0,0,0,0,0,0,0,0,0,0,0,0,0,0,0,0,0,0,0,0,0,0,0,0,0,0,0,0,0,0,0,0,0,0,0,0,0,0,0,0,0,0,0,0,0,0,0,0,0,0,0,0,0,0,0,0,0,0,0,0,0,0,0,0,0,0,0,0,0,0,0,0,0,0,0,0,0,0,0,0,0,0,0,0,0,0,0,0,0,0,0,0,0,0,0,0,0,0,0,0,0,0,0,0,0,0,0,0,0,0,0,0,0],"sum_hessian":[2.7256719E3,1.9728661E3,7.528057E2,1.1955663E3,7.7729987E2,5.170707E2,2.3573503E2,1.17159546E2,1.0784067E3,6.7103775E1,7.1019604E2,2.2030376E2,2.9676694E2,1.7703418E2,5.870086E1,3.840942E1,7.875012E1,4.4693195E2,6.314748E2,4.7837795E1,1.9265976E1,5.0786433E0,7.0511743E2,2.7072897E1,1.9323087E2,8.808283E1,2.086841E2,1.5594182E2,2.1092348E1,3.8791263E0,5.482173E1,2.84108E1,9.99862E0,5.9788795E1,1.8961329E1,6.4127007E0,4.4051923E2,2.0062543E2,4.3084937E2,4.0334656E1,7.503141E0,1.6528809E1,2.7371671E0,3.908557E0,1.1700865E0,3.4900787E2,3.5610956E2,7.763317E0,1.930958E1,9.9765114E1,9.3465744E1,7.008741E1,1.7995422E1,2.0354414E2,5.1399455E0,8.519877E1,7.074306E1,1.5805198E1,5.287151E0,1.702674E0,2.1764524E0,5.3346924E1,1.4748075E0,2.3627295E1,4.783506E0,5.3731008E0,4.625519E0,2.1717388E1,3.8071407E1,1.2972354E1,5.9889746E0,2.3877828E0,4.0249176E0,3.8776175E2,5.275748E1,3.3945152E1,1.6668028E2,1.8988797E2,2.409614E2,2.7906794E1,1.242786E1,2.6702027E0,4.832938E0,1.40562E1,2.4726093E0,1.1262218E0,1.6109455E0,2.4515152E0,1.4570417E0,2.6555087E2,8.345701E1,1.9826512E2,1.5784444E2,4.6870093E0,3.0763078E0,9.656785E0,9.652794E0,6.671023E1,3.3054882E1,5.9372926E0,8.752845E1,1.6168386E1,5.391902E1,1.0803723E1,7.1917E0,2.018445E2,1.6996454E0,2.4545107E0,2.6854346E0,3.5370544E1,4.9828224E1,3.818363E1,3.2559425E1,1.1809167E1,3.9960303E0,4.156566E0,1.130585E0,3.7719383E1,1.56275425E1],"tree_param":{"num_deleted":"0","num_feature":"46","num_nodes":"119","size_leaf_vector":"1"}},{"base_weights":[-1.7952647E-3,-3.862436E-1,5.3557736E-1,-1.1020209E-1,-7.2827095E-1,3.163214E-1,9.9130166E-1,5.4411525E-1,-1.721177E-1,2.0019361E-1,-8.203415E-1,4.0147313E-1,-7.7644326E-2,1.1164849E0,3.0862564E-1,8.2487935E-1,3.619464E-1,-3.6871278E-1,2.3418346E-2,7.6926523E-1,6.8893167E-3,8.263661E-1,-8.3371574E-1,2.3662883E-1,6.177049E-1,9.656993E-1,-1.7107561E-1,5.5037534E-1,1.2051685E0,5.8551925E-1,-3.6211544E-1,9.427138E-1,-1.0628339E-1,6.521703E-1,3.2159095E-3,-1.6509263E-1,-4.7924545E-1,2.4854915E-1,-9.118236E-2,1.3293128E0,4.7988412E-1,1.3989195E-1,-6.4464164E-1,3.2164964E-3,1.0283521E0,-9.3616045E-1,-6.983206E-1,3.2520455E-1,-2.7958786E-1,3.7970006E-1,7.570394E-1,1.230979E0,8.035967E-2,6.1807775E-1,-3.297478E-1,8.357023E-1,-2.825598E-2,1.1008967E0,1.4466678E0,8.379654E-1,-1.7333122E-1,-2.977634E-3,-9.465714E-1,3.311975E-2,1.1500653E-1,4.8536506E-2,-8.693028E-2,-6.296053E-2,7.6374896E-2,-2.7163139E-2,4.8113186E-2,-4.3937754E-2,1.6433481E-3,7.761027E-2,-5.0026286E-2,-2.4892006E-2,4.071696E-2,-2.260264E-2,1.2120142E-2,1.5502906E-1,3.6346894E-2,-6.6258623E-3,6.2239338E-2,5.431598E-3,1.4822091E-1,1.6452348E-2,-9.835373E-2,3.5679575E-2,1.317818E-1,-9.431126E-2,4.6373677E-2,-7.597735E-2,-2.2541499E-2,4.496453E-2,8.9384755E-3,1.0909981E-2,-6.314581E-2,6.426211E-2,-1.6808955E-2,8.6462036E-2,2.9866818E-2,1.4345087E-1,1.39296325E-2,9.6996374E-2,-9.482333E-2,-2.9396331E-2,1.090584E-1,-6.6048585E-2,2.2860018E-3,-1.193766E-2,1.02373436E-1,5.2437346E-2,-6.334628E-2,7.624534E-2,1.2104764E-1,1.5046786E-1,3.5304155E-2,-8.6479455E-2,9.331335E-2,7.491667E-2,-1.0859697E-1,6.293807E-2,-5.2674707E-2,-6.6961693E-3,-1.2858671E-1],"categories":[],"categories_nodes":[],"categories_segments":[],"categories_sizes":[],"default_left":[0,0,0,0,0,0,0,0,0,0,0,0,0,0,0,0,0,0,0,0,0,0,0,0,0,0,0,0,0,0,0,0,0,0,0,0,0,0,0,0,0,0,0,0,0,0,0,0,0,0,0,0,0,0,0,0,0,0,0,0,0,0,0,0,0,0,0,0,0,0,0,0,0,0,0,0,0,0,0,0,0,0,0,0,0,0,0,0,0,0,0,0,0,0,0,0,0,0,0,0,0,0,0,0,0,0,0,0,0,0,0,0,0,0,0,0,0,0,0,0,0,0,0,0,0],"id":6,"left_children":[1,3,5,7,9,11,13,15,17,19,21,23,25,27,29,31,33,35,37,39,41,43,45,47,49,51,53,55,57,59,61,63,65,67,69,71,73,75,77,79,81,83,85,-1,87,89,91,93,95,97,99,101,103,105,107,109,111,113,115,117,119,121,123,-1,-1,-1,-1,-1,-1,-1,-1,-1,-1,-1,-1,-1,-1,-1,-1,-1,-1,-1,-1,-1,-1,-1,-1,-1,-1,-1,-1,-1,-1,-1,-1,-1,-1,-1,-1,-1,-1,-1,-1,-1,-1,-1,-1,-1,-1,-1,-1,-1,-1,-1,-1,-1,-1,-1,-1,-1,-1,-1,-1,-1,-1],"loss_changes":[5.551842E2,1.4782617E2,1.116738E2,3.5262177E1,5.995926E1,2.546553E1,3.0728027E1,3.5519257E0,3.0523748E1,7.025051E0,1.4708496E1,2.2081375E1,1.3382192E1,1.4743042E1,1.0932629E1,3.2649345E0,4.937041E0,8.831089E0,1.0314763E1,1.9868689E0,4.3115344E0,8.7018275E-1,8.111664E0,1.6344074E1,8.637474E0,2.55367E0,1.58923435E1,7.1893053E0,5.0670776E0,8.045358E0,3.6671426E0,2.8783817E0,2.2902691E0,4.2307177E0,3.0495334E0,7.018507E0,7.1445503E0,1.0740923E1,7.6190104E0,4.9353886E-1,9.941251E-1,4.6610336E0,2.4754002E0,0E0,3.9616203E-1,3.9099426E0,7.8535614E0,8.876846E0,7.2624745E0,1.4709783E1,8.062912E0,1.7155542E0,4.2813964E0,9.509396E0,1.2256624E1,5.348358E0,5.4497213E0,6.0826416E0,4.326538E0,5.8492756E0,1.0178061E1,4.2506742E0,1.8990169E0,0E0,0E0,0E0,0E0,0E0,0E0,0E0,0E0,0E0,0E0,0E0,0E0,0E0,0E0,0E0,0E0,0E0,0E0,0E0,0E0,0E0,0E0,0E0,0E0,0E0,0E0,0E0,0E0,0E0,0E0,0E0,0E0,0E0,0E0,0E0,0E0,0E0,0E0,0E0,0E0,0E0,0E0,0E0,0E0,0E0,0E0,0E0,0E0,0E0,0E0,0E0,0E0,0E0,0E0,0E0,0E0,0E0,0E0,0E0,0E0,0E0,0E0],"parents":[2147483647,0,0,1,1,2,2,3,3,4,4,5,5,6,6,7,7,8,8,9,9,10,10,11,11,12,12,13,13,14,14,15,15,16,16,17,17,18,18,19,19,20,20,21,21,22,22,23,23,24,24,25,25,26,26,27,27,28,28,29,29,30,30,31,31,32,32,33,33,34,34,35,35,36,36,37,37,38,38,39,39,40,40,41,41,42,42,44,44,45,45,46,46,47,47,48,48,49,49,50,50,51,51,52,52,53,53,54,54,55,55,56,56,57,57,58,58,59,59,60,60,61,61,62,62],"right_children":[2,4,6,8,10,12,14,16,18,20,22,24,26,28,30,32,34,36,38,40,42,44,46,48,50,52,54,56,58,60,62,64,66,68,70,72,74,76,78,80,82,84,86,-1,88,90,92,94,96,98,100,102,104,106,108,110,112,114,116,118,120,122,124,-1,-1,-1,-1,-1,-1,-1,-1,-1,-1,-1,-1,-1,-1,-1,-1,-1,-1,-1,-1,-1,-1,-1,-1,-1,-1,-1,-1,-1,-1,-1,-1,-1,-1,-1,-1,-1,-1,-1,-1,-1,-1,-1,-1,-1,-1,-1,-1,-1,-1,-1,-1,-1,-1,-1,-1,-1,-1,-1,-1,-1,-1],"split_conditions":[5E-1,4.9E1,1.25E0,5E0,5E0,2.52E1,8E0,4.8E1,2.1428572E-1,2.857143E-1,7.826087E-1,1E0,7.6E-1,1.4E1,8.666667E0,2.175E2,1E-1,1.8E1,1.1568155E1,7.8E1,1.2661499E-1,1.0397208E0,1.6363636E-1,1.6363636E-1,9.230769E-1,7E1,7.701401E-1,4E0,2.75E0,4.761905E-2,1.3636364E-1,2E0,6.451613E-2,3.01E1,7E1,9.259259E-2,7.6E-1,7.058824E-1,1.923077E-1,7.751938E-3,1.980198E-2,7.1428573E-1,3.79E2,3.2164964E-3,6.3E1,2.1818182E0,2.857143E-1,3.529E2,3.454717E0,5.9E1,1.791297E0,1.6071941E0,2.027972E-1,1.178655E0,1.241444E0,7.884E2,1.5229551E0,1.3793103E-1,6E0,5.355E2,1.6831683E-1,1.3461233E0,7.647059E-1,3.311975E-2,1.1500653E-1,4.8536506E-2,-8.693028E-2,-6.296053E-2,7.6374896E-2,-2.7163139E-2,4.8113186E-2,-4.3937754E-2,1.6433481E-3,7.761027E-2,-5.0026286E-2,-2.4892006E-2,4.071696E-2,-2.260264E-2,1.2120142E-2,1.5502906E-1,3.6346894E-2,-6.6258623E-3,6.2239338E-2,5.431598E-3,1.4822091E-1,1.6452348E-2,-9.835373E-2,3.5679575E-2,1.317818E-1,-9.431126E-2,4.6373677E-2,-7.597735E-2,-2.2541499E-2,4.496453E-2,8.9384755E-3,1.0909981E-2,-6.314581E-2,6.426211E-2,-1.6808955E-2,8.6462036E-2,2.9866818E-2,1.4345087E-1,1.39296325E-2,9.6996374E-2,-9.482333E-2,-2.9396331E-2,1.090584E-1,-6.6048585E-2,2.2860018E-3,-1.193766E-2,1.02373436E-1,5.2437346E-2,-6.334628E-2,7.624534E-2,1.2104764E-1,1.5046786E-1,3.5304155E-2,-8.6479455E-2,9.331335E-2,7.491667E-2,-1.0859697E-1,6.293807E-2,-5.2674707E-2,-6.6961693E-3,-1.2858671E-1],"split_indices":[2,5,2,8,0,12,5,14,17,15,30,3,30,0,12,10,17,5,13,5,1,26,17,25,34,43,15,5,2,31,24,0,17,12,43,19,30,34,21,25,33,25,9,0,5,35,35,10,32,43,26,15,22,26,15,9,26,19,5,9,23,15,38,0,0,0,0,0,0,0,0,0,0,0,0,0,0,0,0,0,0,0,0,0,0,0,0,0,0,0,0,0,0,0,0,0,0,0,0,0,0,0,0,0,0,0,0,0,0,0,0,0,0,0,0,0,0,0,0,0,0,0,0,0,0],"split_type":[0,0,0,0,0,0,0,0,0,0,0,0,0,0,0,0,0,0,0,0,0,0,0,0,0,0,0,0,0,0,0,0,0,0,0,0,0,0,0,0,0,0,0,0,0,0,0,0,0,0,0,0,0,0,0,0,0,0,0,0,0,0,0,0,0,0,0,0,0,0,0,0,0,0,0,0,0,0,0,0,0,0,0,0,0,0,0,0,0,0,0,0,0,0,0,0,0,0,0,0,0,0,0,0,0,0,0,0,0,0,0,0,0,0,0,0,0,0,0,0,0,0,0,0,0],"sum_hessian":[2.6853447E3,1.5655771E3,1.1197676E3,8.6709174E2,6.9848535E2,7.5717377E2,3.6259375E2,7.428354E1,7.9280817E2,6.290997E1,6.355754E2,6.225885E2,1.3458531E2,3.0587042E2,5.6723328E1,2.7842981E1,4.6440556E1,3.948919E2,3.979163E2,1.51956625E1,4.7714306E1,4.6306796E0,6.309447E2,3.544601E2,2.681284E2,1.0294219E1,1.24291084E2,4.2402344E1,2.6346808E2,4.0239017E1,1.648431E1,2.4704351E1,3.1386297E0,2.5219343E1,2.1221212E1,1.3981755E2,2.5507434E2,1.3383374E2,2.6408255E2,3.9525456E0,1.1243117E1,4.0277416E1,7.4368896E0,1.1739596E0,3.4567199E0,3.5581116E2,2.7513354E2,3.0286298E2,5.1597115E1,1.003833E2,1.6774507E2,7.6204534E0,2.6737657E0,2.0322447E1,1.0396864E2,2.8101185E1,1.4301157E1,1.8789815E2,7.556994E1,3.011607E1,1.0122947E1,1.0832826E1,5.6514845E0,6.9132433E0,1.7791107E1,1.9728007E0,1.165829E0,1.6477597E0,2.3571583E1,1.3747005E1,7.474207E0,5.5116455E1,8.47011E1,3.6086152E0,2.5146573E2,3.2218876E1,1.0161487E2,1.6148824E2,1.0259432E2,2.724163E0,1.2283825E0,2.4373686E0,8.805749E0,3.8841633E1,1.4357839E0,2.3471768E0,5.0897126E0,1.7136582E0,1.7430617E0,3.5437756E2,1.4335966E0,2.429555E2,3.217806E1,1.976549E2,1.0520808E2,2.484378E1,2.6753334E1,6.77111E1,3.2672207E1,1.3514088E2,3.26042E1,6.158288E0,1.4621655E0,1.4643155E0,1.2094501E0,7.0644217E0,1.3258025E1,5.3197483E1,5.077116E1,4.6824646E0,2.341872E1,7.5451E0,6.756057E0,4.790345E1,1.399947E2,7.1406364E1,4.163571E0,1.1660426E0,2.8950027E1,5.1233587E0,4.9995875E0,4.816329E0,6.0164967E0,1.9064496E0,3.7450347E0],"tree_param":{"num_deleted":"0","num_feature":"46","num_nodes":"125","size_leaf_vector":"1"}},{"base_weights":[-1.7725461E-3,4.6944416E-1,-3.7136272E-1,2.7288276E-1,9.3805474E-1,-1.1217189E-1,-6.866327E-1,4.432638E-1,5.2781403E-2,6.4494884E-1,1.1604714E0,-2.2899517E-1,1.7492183E-1,1.8507159E-1,-7.7729505E-1,2.4078996E-1,5.5938697E-1,9.8812956E-1,4.1099573E-3,1.152799E0,4.5408753E-1,1.1793505E0,-1.7028801E-1,3.739819E-1,-3.1878904E-1,2.3252127E-1,-4.322211E-1,5.3787184E-1,-9.118516E-2,7.728273E-1,-7.905315E-1,3.2785386E-1,-2.5626156E-1,7.064654E-1,3.952178E-1,1.579675E-1,4.7354773E-1,-1.0625913E-1,3.4940884E-1,-9.825853E-3,1.2619059E0,-2.1790119E-1,5.681684E-1,1.2560066E0,8.294002E-1,-1.0057493E-1,6.5996125E-2,4.1711786E-1,-7.788765E-2,-2.4045509E-1,-6.8244004E-1,1.0827423E-1,6.2251973E-1,-5.8042616E-1,4.3492746E-1,7.673456E-1,1.5230386E-2,3.6596787E-1,-4.183653E-1,9.666666E-1,1.974833E-3,-6.605543E-1,-9.026844E-1,1.4786302E-3,5.0397437E-2,-9.696836E-2,4.8062424E-3,7.663425E-2,2.162913E-2,4.3084025E-2,-1.20097995E-1,5.3967773E-3,1.1442411E-1,9.3517633E-4,-4.9035847E-2,4.793061E-2,-3.523117E-2,8.878389E-2,-9.11545E-2,1.3159752E-1,-1.6495837E-2,1.9293597E-2,-9.2376456E-2,1.9971892E-2,7.338946E-2,1.2732826E-1,4.8121028E-3,9.128337E-2,-5.6286074E-2,8.8117845E-2,3.0965988E-2,-2.5929455E-2,8.091019E-2,-7.181704E-2,2.878505E-2,-5.397537E-2,1.770243E-2,7.652212E-2,-5.0425973E-2,3.221654E-2,-8.050724E-2,6.674628E-2,-2.1777991E-3,1.2534201E-1,1.7741848E-2,2.4633624E-2,-8.309266E-2,9.021899E-2,-1.881237E-2,-9.920963E-2,-1.3149241E-2,2.8352736E-2,1.1398436E-1,-6.9704436E-2,1.1878077E-2,-9.3449436E-2,-4.6604984E-2],"categories":[],"categories_nodes":[],"categories_segments":[],"categories_sizes":[],"default_left":[0,0,0,0,0,0,0,0,0,0,0,0,0,0,0,0,0,0,0,0,0,0,0,0,0,0,0,0,0,0,0,0,0,0,0,0,0,0,0,0,0,0,0,0,0,0,0,0,0,0,0,0,0,0,0,0,0,0,0,0,0,0,0,0,0,0,0,0,0,0,0,0,0,0,0,0,0,0,0,0,0,0,0,0,0,0,0,0,0,0,0,0,0,0,0,0,0,0,0,0,0,0,0,0,0,0,0,0,0,0,0,0,0,0,0,0,0],"id":7,"left_children":[1,3,5,7,9,11,13,15,17,19,21,23,25,27,29,31,33,35,37,39,41,43,45,47,49,51,53,55,57,59,61,63,65,67,69,-1,71,73,75,77,79,81,83,85,87,-1,-1,89,-1,91,93,95,97,99,101,103,105,107,109,111,-1,113,115,-1,-1,-1,-1,-1,-1,-1,-1,-1,-1,-1,-1,-1,-1,-1,-1,-1,-1,-1,-1,-1,-1,-1,-1,-1,-1,-1,-1,-1,-1,-1,-1,-1,-1,-1,-1,-1,-1,-1,-1,-1,-1,-1,-1,-1,-1,-1,-1,-1,-1,-1,-1,-1,-1],"loss_changes":[4.6101782E2,1.0692352E2,1.2115083E2,3.0770893E1,2.1640808E1,2.7387238E1,5.302841E1,1.0744789E1,1.6359097E1,1.4056908E1,5.0751038E0,3.1521627E1,8.367517E0,6.271908E0,1.3051331E1,7.458556E0,6.8030396E0,4.662361E0,1.309602E1,5.142235E0,8.631901E0,4.093445E0,3.1523504E0,4.0861855E0,1.4231369E1,1.0426382E1,2.9298525E0,3.3685513E0,5.6369386E0,8.040898E-1,8.174591E0,8.012248E0,5.6831117E0,4.337715E0,8.527536E0,0E0,3.0150461E0,1.1569258E1,7.755431E0,4.4208574E0,3.069931E0,5.0587244E0,5.6636753E0,3.1749878E0,4.8513966E0,0E0,0E0,3.3952694E0,0E0,8.461655E0,3.2929459E0,7.4666395E0,8.765303E0,3.9538732E0,3.9819056E-1,5.387867E0,2.0857928E0,4.8723073E0,3.4635208E0,2.049222E-1,0E0,8.114273E0,4.0126038E0,0E0,0E0,0E0,0E0,0E0,0E0,0E0,0E0,0E0,0E0,0E0,0E0,0E0,0E0,0E0,0E0,0E0,0E0,0E0,0E0,0E0,0E0,0E0,0E0,0E0,0E0,0E0,0E0,0E0,0E0,0E0,0E0,0E0,0E0,0E0,0E0,0E0,0E0,0E0,0E0,0E0,0E0,0E0,0E0,0E0,0E0,0E0,0E0,0E0,0E0,0E0,0E0,0E0,0E0],"parents":[2147483647,0,0,1,1,2,2,3,3,4,4,5,5,6,6,7,7,8,8,9,9,10,10,11,11,12,12,13,13,14,14,15,15,16,16,17,17,18,18,19,19,20,20,21,21,22,22,23,23,24,24,25,25,26,26,27,27,28,28,29,29,30,30,31,31,32,32,33,33,34,34,36,36,37,37,38,38,39,39,40,40,41,41,42,42,43,43,44,44,47,47,49,49,50,50,51,51,52,52,53,53,54,54,55,55,56,56,57,57,58,58,59,59,61,61,62,62],"right_children":[2,4,6,8,10,12,14,16,18,20,22,24,26,28,30,32,34,36,38,40,42,44,46,48,50,52,54,56,58,60,62,64,66,68,70,-1,72,74,76,78,80,82,84,86,88,-1,-1,90,-1,92,94,96,98,100,102,104,106,108,110,112,-1,114,116,-1,-1,-1,-1,-1,-1,-1,-1,-1,-1,-1,-1,-1,-1,-1,-1,-1,-1,-1,-1,-1,-1,-1,-1,-1,-1,-1,-1,-1,-1,-1,-1,-1,-1,-1,-1,-1,-1,-1,-1,-1,-1,-1,-1,-1,-1,-1,-1,-1,-1,-1,-1,-1,-1],"split_conditions":[1.4E1,1.25E0,4.9E1,1.7545454E1,3.6901E3,3.0357143E-1,5E0,8.4782606E-1,4E0,2E0,2.6920252E1,5E0,6.9539E3,7.235142E-2,7.826087E-1,1.7480942E1,6E0,1.007874E0,7.5E-1,2E0,1E0,6E0,2.25E0,7.5E-1,3.8666668E1,2.346E2,2.1518987E-1,2.535211E-1,7.8E1,1.08E2,9.6E1,1.5294664E0,7.758621E-1,5E0,9E0,1.579675E-1,1.11E2,1.3513513E-1,1.679259E0,1.6241E3,3.548387E-1,1.2927735E0,1.3043478E-1,1.3607142E1,2.6551723E0,-1.0057493E-1,6.5996125E-2,3.4615386E-1,-7.788765E-2,3.7333332E1,9E0,4.761905E-2,1.6071941E0,1.0869565E-1,1.0560344E0,1.2048192E-2,5E0,8.039216E-1,1.04E2,1.7857144E-2,1.974833E-3,4.8767E3,4.2426407E1,1.4786302E-3,5.0397437E-2,-9.696836E-2,4.8062424E-3,7.663425E-2,2.162913E-2,4.3084025E-2,-1.20097995E-1,5.3967773E-3,1.1442411E-1,9.3517633E-4,-4.9035847E-2,4.793061E-2,-3.523117E-2,8.878389E-2,-9.11545E-2,1.3159752E-1,-1.6495837E-2,1.9293597E-2,-9.2376456E-2,1.9971892E-2,7.338946E-2,1.2732826E-1,4.8121028E-3,9.128337E-2,-5.6286074E-2,8.8117845E-2,3.0965988E-2,-2.5929455E-2,8.091019E-2,-7.181704E-2,2.878505E-2,-5.397537E-2,1.770243E-2,7.652212E-2,-5.0425973E-2,3.221654E-2,-8.050724E-2,6.674628E-2,-2.1777991E-3,1.2534201E-1,1.7741848E-2,2.4633624E-2,-8.309266E-2,9.021899E-2,-1.881237E-2,-9.920963E-2,-1.3149241E-2,2.8352736E-2,1.1398436E-1,-6.9704436E-2,1.1878077E-2,-9.3449436E-2,-4.6604984E-2],"split_indices":[5,2,5,12,9,17,0,38,0,5,13,0,9,1,30,13,5,27,2,16,4,5,2,2,12,10,22,22,5,14,5,26,33,16,41,0,14,31,26,9,21,15,19,12,1,0,0,33,0,12,41,21,15,22,1,20,8,38,5,22,0,9,13,0,0,0,0,0,0,0,0,0,0,0,0,0,0,0,0,0,0,0,0,0,0,0,0,0,0,0,0,0,0,0,0,0,0,0,0,0,0,0,0,0,0,0,0,0,0,0,0,0,0,0,0,0,0],"split_type":[0,0,0,0,0,0,0,0,0,0,0,0,0,0,0,0,0,0,0,0,0,0,0,0,0,0,0,0,0,0,0,0,0,0,0,0,0,0,0,0,0,0,0,0,0,0,0,0,0,0,0,0,0,0,0,0,0,0,0,0,0,0,0,0,0,0,0,0,0,0,0,0,0,0,0,0,0,0,0,0,0,0,0,0,0,0,0,0,0,0,0,0,0,0,0,0,0,0,0,0,0,0,0,0,0,0,0,0,0,0,0,0,0,0,0,0,0],"sum_hessian":[2.645137E3,1.1625936E3,1.4825433E3,8.201566E2,3.4243704E2,8.14379E2,6.6816425E2,4.617223E2,3.5843433E2,1.494233E2,1.9301375E2,5.7898334E2,2.3539572E2,6.2848145E1,6.053161E2,1.6941016E2,2.9231213E2,1.6774117E1,3.4166022E2,3.9440014E1,1.09983284E2,1.9042603E2,2.5877266E0,7.4635E1,5.0434833E2,2.1556241E2,1.9833307E1,2.7184513E1,3.566363E1,4.6391335E0,6.00677E2,1.4444879E2,2.4961353E1,1.5243922E2,1.3987291E2,6.84059E0,9.933526E0,2.5942996E2,8.223024E1,3.4617832E0,3.5978233E1,1.5829598E1,9.415369E1,1.5408484E2,3.6341183E1,1.1844542E0,1.4032724E0,7.2558304E1,2.0766923E0,4.163284E2,8.801993E1,1.6444923E2,5.1113167E1,1.7220747E1,2.612562E0,1.856504E1,8.6194725E0,1.4827429E1,2.0836203E1,3.4639168E0,1.1752164E0,2.814205E2,3.1925647E2,5.2395607E1,9.205319E1,6.8101254E0,1.8151228E1,1.3534303E2,1.7096193E1,1.3753365E2,2.3392658E0,6.7753754E0,3.1581502E0,2.0015926E2,5.9270714E1,6.9653465E1,1.2576772E1,1.7425056E0,1.7192776E0,3.4739536E1,1.2386967E0,1.046517E1,5.3644285E0,2.9894999E1,6.425869E1,1.518587E2,2.2261384E0,3.461139E1,1.7297922E0,1.2288752E1,6.0269554E1,4.0972678E2,6.6016026E0,8.514438E1,2.8755512E0,1.5116111E1,1.4933313E2,4.565238E1,5.4607854E0,3.3453953E0,1.3875351E1,1.4253569E0,1.1872051E0,9.561814E0,9.003226E0,7.3271327E0,1.29234E0,7.2159557E0,7.611473E0,6.126069E0,1.4710134E1,1.2338606E0,2.230056E0,2.6893405E2,1.2486457E1,2.9651443E2,2.2742043E1],"tree_param":{"num_deleted":"0","num_feature":"46","num_nodes":"117","size_leaf_vector":"1"}},{"base_weights":[-1.8778531E-3,-2.4310286E-1,6.044322E-1,-1.972252E-2,-6.276793E-1,3.892564E-1,8.889062E-1,4.8510954E-1,-7.6155454E-2,1.6787346E-1,-7.141144E-1,4.8422265E-1,3.313733E-2,6.405328E-1,1.0954411E0,7.9549235E-1,3.2881796E-1,-3.1969547E-1,8.838538E-2,3.3447447E-1,-2.5647795E-1,-5.703885E-1,-8.537578E-1,6.463909E-1,3.3424133E-1,1.0731615E0,-6.482131E-2,1.4920205E-1,7.3773074E-1,9.160093E-1,1.2401756E0,9.538471E-1,3.0845833E-1,4.481442E-1,-5.4357443E-2,8.923062E-1,-3.403599E-1,1.3657752E-1,-2.6176938E-1,4.6733707E-1,-3.662993E-1,-6.111498E-1,4.1341405E-2,-6.716758E-1,-2.550776E-1,-9.6854085E-1,-7.089832E-1,1.9178215E-3,7.248251E-1,-3.6820492E-1,3.998885E-1,1.6312313E-1,2.5322086E-1,7.059847E-2,-9.005998E-1,-4.967513E-1,6.290748E-1,2.7605463E-2,8.0625343E-1,1.0315338E0,4.842959E-1,1.2652966E0,9.846768E-3,1.06217764E-1,4.7347066E-3,8.009581E-2,-3.0407056E-2,1.1883058E-1,3.255978E-2,2.8944427E-2,-7.586486E-2,1.0851339E-1,-5.32334E-3,-2.452675E-2,-5.9232987E-2,3.346768E-2,3.7681551E-3,2.2794938E-2,-5.3164013E-2,5.6985673E-2,-2.6993109E-2,5.130313E-2,-8.7730445E-2,6.362292E-2,-8.604311E-2,5.0991636E-2,-8.514567E-2,5.2668493E-2,-6.919929E-2,8.351599E-2,-3.526486E-2,-7.120841E-2,-1.0260488E-1,-7.525869E-2,8.217706E-4,-5.221082E-2,8.6528234E-2,9.08887E-2,3.775107E-2,-9.455828E-2,5.6492634E-2,-1.327242E-2,4.8419308E-2,6.850896E-2,-4.7809497E-2,-8.791339E-2,1.6242383E-2,-1.2207087E-1,-4.887766E-3,2.7752472E-2,-1.1153411E-1,7.969727E-2,-6.863328E-2,8.790415E-2,-6.551767E-2,9.4233505E-2,4.3052047E-2,2.8297598E-2,1.08174674E-1,-3.0307233E-2,9.4184525E-2,1.2951733E-1,4.68855E-2],"categories":[],"categories_nodes":[],"categories_segments":[],"categories_sizes":[],"default_left":[0,0,0,0,0,0,0,0,0,0,0,0,0,0,0,0,0,0,0,0,0,0,0,0,0,0,0,0,0,0,0,0,0,0,0,0,0,0,0,0,0,0,0,0,0,0,0,0,0,0,0,0,0,0,0,0,0,0,0,0,0,0,0,0,0,0,0,0,0,0,0,0,0,0,0,0,0,0,0,0,0,0,0,0,0,0,0,0,0,0,0,0,0,0,0,0,0,0,0,0,0,0,0,0,0,0,0,0,0,0,0,0,0,0,0,0,0,0,0,0,0,0,0],"id":8,"left_children":[1,3,5,7,9,11,13,15,17,19,21,23,25,27,29,31,33,35,37,39,41,43,45,47,49,51,53,55,57,59,61,63,65,67,69,71,73,75,77,79,81,83,85,87,89,91,93,95,97,99,101,-1,103,105,107,109,111,113,115,117,119,121,-1,-1,-1,-1,-1,-1,-1,-1,-1,-1,-1,-1,-1,-1,-1,-1,-1,-1,-1,-1,-1,-1,-1,-1,-1,-1,-1,-1,-1,-1,-1,-1,-1,-1,-1,-1,-1,-1,-1,-1,-1,-1,-1,-1,-1,-1,-1,-1,-1,-1,-1,-1,-1,-1,-1,-1,-1,-1,-1,-1,-1],"loss_changes":[3.8134213E2,1.6022401E2,4.5079407E1,3.3680576E1,4.724408E1,1.4333206E1,1.5652557E1,5.5049934E0,4.2627274E1,4.891084E0,1.1923279E1,7.929283E0,9.279343E0,6.9173737E0,3.3478699E0,2.7218456E0,3.7172413E0,1.1044308E1,1.075469E1,4.7559357E0,2.1091032E0,9.65654E0,4.491577E0,8.078209E0,8.265755E0,3.173749E0,9.521013E0,8.234311E0,5.943207E0,3.5358963E0,2.5353699E0,2.8008308E0,3.5840273E0,5.209137E0,5.0795116E0,1.4188862E0,9.975166E0,1.0939213E1,1.0322736E1,3.3157682E0,4.228442E0,3.3670845E0,5.3121047E0,6.020241E0,8.424786E0,1.79245E0,4.4323044E0,8.751428E0,8.766113E0,8.921533E0,7.315304E0,0E0,1.7040133E0,6.49481E0,3.1368084E0,5.794522E0,3.882855E0,7.4498334E0,5.3092194E0,2.0599213E0,7.1182537E0,1.5500641E0,0E0,0E0,0E0,0E0,0E0,0E0,0E0,0E0,0E0,0E0,0E0,0E0,0E0,0E0,0E0,0E0,0E0,0E0,0E0,0E0,0E0,0E0,0E0,0E0,0E0,0E0,0E0,0E0,0E0,0E0,0E0,0E0,0E0,0E0,0E0,0E0,0E0,0E0,0E0,0E0,0E0,0E0,0E0,0E0,0E0,0E0,0E0,0E0,0E0,0E0,0E0,0E0,0E0,0E0,0E0,0E0,0E0,0E0,0E0,0E0,0E0],"parents":[2147483647,0,0,1,1,2,2,3,3,4,4,5,5,6,6,7,7,8,8,9,9,10,10,11,11,12,12,13,13,14,14,15,15,16,16,17,17,18,18,19,19,20,20,21,21,22,22,23,23,24,24,25,25,26,26,27,27,28,28,29,29,30,30,31,31,32,32,33,33,34,34,35,35,36,36,37,37,38,38,39,39,40,40,41,41,42,42,43,43,44,44,45,45,46,46,47,47,48,48,49,49,50,50,52,52,53,53,54,54,55,55,56,56,57,57,58,58,59,59,60,60,61,61],"right_children":[2,4,6,8,10,12,14,16,18,20,22,24,26,28,30,32,34,36,38,40,42,44,46,48,50,52,54,56,58,60,62,64,66,68,70,72,74,76,78,80,82,84,86,88,90,92,94,96,98,100,102,-1,104,106,108,110,112,114,116,118,120,122,-1,-1,-1,-1,-1,-1,-1,-1,-1,-1,-1,-1,-1,-1,-1,-1,-1,-1,-1,-1,-1,-1,-1,-1,-1,-1,-1,-1,-1,-1,-1,-1,-1,-1,-1,-1,-1,-1,-1,-1,-1,-1,-1,-1,-1,-1,-1,-1,-1,-1,-1,-1,-1,-1,-1,-1,-1,-1,-1,-1,-1],"split_conditions":[7.5E-1,4.5E1,2E0,5E0,5E0,1.969464E1,6.7076164E-1,7.052897E-2,2.4078624E-1,1E-1,9.4E1,7E0,7.948718E-1,3.78E2,5.294E2,3.5266666E0,1.6853932E-2,7.826087E-1,1.764706E-1,1.72E2,4.048E2,1.6E1,1.0169394E0,5.714286E-1,8.243243E-1,1.5804155E0,1.827957E-1,8.780488E-1,7.884E2,5.0847456E-2,1.9254081E0,3.892E2,1.980198E-2,3.734284E-1,2.555E2,3.512963E0,2.3214285E-1,1E1,6.25E-2,1.3841872E0,5.4545455E-2,1.4035714E1,6.649E2,7.826087E-1,1.5E1,7.307692E-1,3.925E1,5E0,1.71875E-1,1.3846155E-1,7.2801465E-1,1.6312313E-1,3E0,2.0765356E1,1.6853933E-1,1.4735024E0,2.3E1,7.529412E-1,1.1829268E0,8.4745765E-2,1.5789473E-1,1.9090909E0,9.846768E-3,1.06217764E-1,4.7347066E-3,8.009581E-2,-3.0407056E-2,1.1883058E-1,3.255978E-2,2.8944427E-2,-7.586486E-2,1.0851339E-1,-5.32334E-3,-2.452675E-2,-5.9232987E-2,3.346768E-2,3.7681551E-3,2.2794938E-2,-5.3164013E-2,5.6985673E-2,-2.6993109E-2,5.130313E-2,-8.7730445E-2,6.362292E-2,-8.604311E-2,5.0991636E-2,-8.514567E-2,5.2668493E-2,-6.919929E-2,8.351599E-2,-3.526486E-2,-7.120841E-2,-1.0260488E-1,-7.525869E-2,8.217706E-4,-5.221082E-2,8.6528234E-2,9.08887E-2,3.775107E-2,-9.455828E-2,5.6492634E-2,-1.327242E-2,4.8419308E-2,6.850896E-2,-4.7809497E-2,-8.791339E-2,1.6242383E-2,-1.2207087E-1,-4.887766E-3,2.7752472E-2,-1.1153411E-1,7.969727E-2,-6.863328E-2,8.790415E-2,-6.551767E-2,9.4233505E-2,4.3052047E-2,2.8297598E-2,1.08174674E-1,-3.0307233E-2,9.4184525E-2,1.2951733E-1,4.68855E-2],"split_indices":[2,5,4,0,0,13,1,1,1,17,5,5,30,10,11,32,37,30,25,5,9,8,15,38,30,15,25,34,9,36,26,10,33,15,10,32,20,5,23,15,17,12,9,30,0,33,12,5,22,21,15,0,45,13,22,26,0,33,34,19,36,28,0,0,0,0,0,0,0,0,0,0,0,0,0,0,0,0,0,0,0,0,0,0,0,0,0,0,0,0,0,0,0,0,0,0,0,0,0,0,0,0,0,0,0,0,0,0,0,0,0,0,0,0,0,0,0,0,0,0,0,0,0],"split_type":[0,0,0,0,0,0,0,0,0,0,0,0,0,0,0,0,0,0,0,0,0,0,0,0,0,0,0,0,0,0,0,0,0,0,0,0,0,0,0,0,0,0,0,0,0,0,0,0,0,0,0,0,0,0,0,0,0,0,0,0,0,0,0,0,0,0,0,0,0,0,0,0,0,0,0,0,0,0,0,0,0,0,0,0,0,0,0,0,0,0,0,0,0,0,0,0,0,0,0,0,0,0,0,0,0,0,0,0,0,0,0,0,0,0,0,0,0,0,0,0,0,0,0],"sum_hessian":[2.6053354E3,1.8642347E3,7.411007E2,1.1799277E3,6.84307E2,4.2329163E2,3.1780905E2,1.17873215E2,1.0620544E3,6.696998E1,6.1733704E2,3.3389276E2,8.939887E1,1.4615196E2,1.7165709E2,3.8106636E1,7.976659E1,4.2784702E2,6.3420746E2,4.824192E1,1.8728054E1,3.067272E2,3.106098E2,1.5883815E2,1.750546E2,6.838583E0,8.2560295E1,2.4556274E1,1.2159569E2,7.991404E1,9.174306E1,2.8033358E1,1.0073277E1,6.069557E1,1.9071012E1,6.4653063E0,4.213817E2,5.58017E2,7.619045E1,4.0833282E1,7.4086385E0,8.06792E0,1.0660134E1,2.312974E2,7.542982E1,1.700765E2,1.405333E2,1.7344805E1,1.4149335E2,1.4567604E1,1.60487E2,3.4803371E0,3.358246E0,7.18363E1,1.0723987E1,1.0451888E1,1.4104386E1,1.0824137E1,1.1077155E2,6.1947712E1,1.796633E1,8.966197E1,2.0810819E0,2.4887466E1,3.1458907E0,5.4132032E0,4.6600747E0,7.386353E0,5.330922E1,1.3211036E1,5.8599772E0,5.2475233E0,1.2177826E0,3.073591E2,1.140226E2,1.8501929E2,3.729977E2,2.7124514E1,4.906594E1,3.6047787E1,4.7854958E0,2.7215197E0,4.687119E0,1.0852388E0,6.9826813E0,7.2722383E0,3.387896E0,3.4405398E0,2.2785686E2,5.5751214E0,6.98547E1,3.3603607E1,1.364729E2,1.3243246E2,8.100834E0,1.1039534E1,6.3052707E0,9.142503E1,5.006831E1,8.991032E0,5.5765724E0,2.1852802E1,1.386342E2,2.151133E0,1.207113E0,5.577306E0,6.6259E1,7.4796357E0,3.244351E0,4.886685E0,5.5652037E0,1.28574E1,1.2469869E0,4.6892085E0,6.1349287E0,8.02125E1,3.0559053E1,4.311326E0,5.7636383E1,6.72732E0,1.123901E1,8.581656E1,3.8454106E0],"tree_param":{"num_deleted":"0","num_feature":"46","num_nodes":"123","size_leaf_vector":"1"}},{"base_weights":[-1.8692808E-3,3.3947694E-1,-3.643854E-1,1.8582222E-1,7.7461255E-1,-1.24111466E-1,-6.110169E-1,3.2486132E-1,-5.2752603E-2,9.569211E-1,4.0519848E-1,4.5746233E-2,-3.2317993E-1,1.5014929E-1,-6.976838E-1,2.5008115E-1,5.546424E-1,6.7016315E-1,-9.400016E-2,9.8734236E-1,1.0062766E-1,1.472762E-2,6.139379E-1,6.6046584E-1,-2.1411108E-3,4.7397965E-1,-3.7237725E-1,6.0973024E-1,-7.4921744E-3,7.022528E-1,-7.1083015E-1,1.8697444E-1,5.1820004E-1,-1.676031E-2,7.3808813E-1,9.133667E-1,-4.6252462E-1,-3.617107E-1,8.52456E-3,8.794573E-1,1.2430607E0,-4.3425375E-1,9.118413E-1,-3.4734598E-1,3.3193317E-1,1.2386641E-1,8.431318E-1,9.7359735E-1,-4.6842727E-1,-4.0220538E-1,1.054504E-1,6.8914676E-1,-3.11266E-1,-3.9375812E-1,8.780663E-1,1.114854E0,3.574038E-1,1.5743351E-1,-4.2005914E-1,8.786726E-1,1.2930857E-3,-8.2285666E-1,-5.6804216E-1,2.4331437E-2,-3.21248E-2,1.0509352E-1,3.7150893E-2,-5.468818E-2,3.6298435E-2,1.23152666E-1,6.3108385E-2,1.2618105E-1,2.401819E-2,-1.1350643E-1,2.1072108E-2,2.892138E-2,-5.033021E-2,7.123118E-3,-6.560933E-2,9.1857806E-2,-3.6349685E-3,1.2865482E-1,2.9536212E-2,3.763225E-2,-1.1613619E-1,1.1024833E-1,2.6819417E-2,9.5995404E-2,-5.3707886E-2,6.93147E-2,-2.2100529E-2,1.400458E-1,-1.5494632E-2,3.3326313E-2,1.0053026E-1,1.09157585E-1,-2.9485071E-2,-1.03377245E-1,-6.6401786E-3,-5.0140906E-2,4.02853E-2,7.0500085E-3,1.1495111E-1,1.03091896E-1,1.7623833E-3,-7.231879E-2,3.4867454E-2,6.223626E-2,-4.1362073E-2,1.3383381E-1,-3.0669404E-2,2.4392603E-2,1.3428079E-1,1.3495264E-2,7.928231E-2,-4.7008567E-3,6.703252E-2,3.0041197E-2,-7.81502E-2,2.4520101E-2,1.0462E-1,-8.30721E-2,5.3514518E-2,-6.3320294E-2,-8.990839E-3],"categories":[],"categories_nodes":[],"categories_segments":[],"categories_sizes":[],"default_left":[0,0,0,0,0,0,0,0,0,0,0,0,0,0,0,0,0,0,0,0,0,0,0,0,0,0,0,0,0,0,0,0,0,0,0,0,0,0,0,0,0,0,0,0,0,0,0,0,0,0,0,0,0,0,0,0,0,0,0,0,0,0,0,0,0,0,0,0,0,0,0,0,0,0,0,0,0,0,0,0,0,0,0,0,0,0,0,0,0,0,0,0,0,0,0,0,0,0,0,0,0,0,0,0,0,0,0,0,0,0,0,0,0,0,0,0,0,0,0,0,0,0,0,0,0],"id":9,"left_children":[1,3,5,7,9,11,13,15,17,19,21,23,25,27,29,31,33,35,37,39,41,43,45,47,49,51,53,55,57,59,61,63,65,67,69,71,73,75,77,79,81,83,85,87,89,91,93,95,97,99,101,103,105,107,109,111,113,115,117,119,-1,121,123,-1,-1,-1,-1,-1,-1,-1,-1,-1,-1,-1,-1,-1,-1,-1,-1,-1,-1,-1,-1,-1,-1,-1,-1,-1,-1,-1,-1,-1,-1,-1,-1,-1,-1,-1,-1,-1,-1,-1,-1,-1,-1,-1,-1,-1,-1,-1,-1,-1,-1,-1,-1,-1,-1,-1,-1,-1,-1,-1,-1,-1,-1],"loss_changes":[3.1766833E2,8.825815E1,7.369983E1,3.247365E1,2.282898E1,2.1380283E1,4.0615707E1,1.0485977E1,1.0831391E1,5.8942413E0,9.41684E0,1.006379E1,1.1590635E1,4.6121297E0,1.0649139E1,7.8272076E0,1.5840202E1,5.826128E0,9.404083E0,5.033493E0,4.3042245E0,4.8598886E0,8.357294E0,9.189875E0,1.3735285E1,3.1472635E0,7.6895905E0,1.6733685E0,3.355469E0,6.737714E-1,8.280334E0,1.0977728E1,6.5383587E0,7.782664E0,5.2591286E0,3.5637197E0,2.1097085E0,8.889431E0,1.0409194E1,5.7515106E0,2.2359695E0,4.035497E0,1.8308139E-1,5.421664E0,4.653278E0,9.178495E0,3.8949547E0,3.265007E0,1.3042068E0,5.6031475E0,9.095826E0,3.1801715E0,1.4542912E0,5.722065E0,3.0974133E0,6.538305E-1,1.0855421E0,3.729125E0,3.900969E0,2.1793532E-1,0E0,3.6934967E0,7.5342636E0,0E0,0E0,0E0,0E0,0E0,0E0,0E0,0E0,0E0,0E0,0E0,0E0,0E0,0E0,0E0,0E0,0E0,0E0,0E0,0E0,0E0,0E0,0E0,0E0,0E0,0E0,0E0,0E0,0E0,0E0,0E0,0E0,0E0,0E0,0E0,0E0,0E0,0E0,0E0,0E0,0E0,0E0,0E0,0E0,0E0,0E0,0E0,0E0,0E0,0E0,0E0,0E0,0E0,0E0,0E0,0E0,0E0,0E0,0E0,0E0,0E0,0E0],"parents":[2147483647,0,0,1,1,2,2,3,3,4,4,5,5,6,6,7,7,8,8,9,9,10,10,11,11,12,12,13,13,14,14,15,15,16,16,17,17,18,18,19,19,20,20,21,21,22,22,23,23,24,24,25,25,26,26,27,27,28,28,29,29,30,30,31,31,32,32,33,33,34,34,35,35,36,36,37,37,38,38,39,39,40,40,41,41,42,42,43,43,44,44,45,45,46,46,47,47,48,48,49,49,50,50,51,51,52,52,53,53,54,54,55,55,56,56,57,57,58,58,59,59,61,61,62,62],"right_children":[2,4,6,8,10,12,14,16,18,20,22,24,26,28,30,32,34,36,38,40,42,44,46,48,50,52,54,56,58,60,62,64,66,68,70,72,74,76,78,80,82,84,86,88,90,92,94,96,98,100,102,104,106,108,110,112,114,116,118,120,-1,122,124,-1,-1,-1,-1,-1,-1,-1,-1,-1,-1,-1,-1,-1,-1,-1,-1,-1,-1,-1,-1,-1,-1,-1,-1,-1,-1,-1,-1,-1,-1,-1,-1,-1,-1,-1,-1,-1,-1,-1,-1,-1,-1,-1,-1,-1,-1,-1,-1,-1,-1,-1,-1,-1,-1,-1,-1,-1,-1,-1,-1,-1,-1],"split_conditions":[1.8E1,2E0,4.9E1,1.8666666E1,1.0459459E1,1.878144E1,5E0,5.483871E-1,4E0,3E-1,1.1116211E0,5E0,7.894737E-1,2.857143E-1,7.826087E-1,4.6875E-1,1.3114753E-1,1.5E1,8.674699E-1,2.75E0,2E0,8.666667E-1,2.4685138E-1,2.346E2,1.8181819E-1,3.8E1,4.54355E3,7.8E1,6.213E2,2.236842E-1,1.6363636E-1,1.6853932E-2,1.1688311E0,9.02439E-1,3.4230769E0,1.2622951E0,3.4018183E0,7.826087E-1,3.241E2,3.0454545E0,6E0,6.0625E0,6.965517E0,7.1603894E-1,1.7821783E-1,7.826087E-1,9.259259E-2,5.3333336E-1,4.048E2,3.548387E-1,3.6E-1,2.3170732E-1,7.522124E-1,7.235142E-2,2.0535715E-1,5.1111114E-1,1.6853932E-2,1.3392857E0,7.1428575E-2,1.7857144E-2,1.2930857E-3,2.1818182E0,2.857143E-1,2.4331437E-2,-3.21248E-2,1.0509352E-1,3.7150893E-2,-5.468818E-2,3.6298435E-2,1.23152666E-1,6.3108385E-2,1.2618105E-1,2.401819E-2,-1.1350643E-1,2.1072108E-2,2.892138E-2,-5.033021E-2,7.123118E-3,-6.560933E-2,9.1857806E-2,-3.6349685E-3,1.2865482E-1,2.9536212E-2,3.763225E-2,-1.1613619E-1,1.1024833E-1,2.6819417E-2,9.5995404E-2,-5.3707886E-2,6.93147E-2,-2.2100529E-2,1.400458E-1,-1.5494632E-2,3.3326313E-2,1.0053026E-1,1.09157585E-1,-2.9485071E-2,-1.03377245E-1,-6.6401786E-3,-5.0140906E-2,4.02853E-2,7.0500085E-3,1.1495111E-1,1.03091896E-1,1.7623833E-3,-7.231879E-2,3.4867454E-2,6.223626E-2,-4.1362073E-2,1.3383381E-1,-3.0669404E-2,2.4392603E-2,1.3428079E-1,1.3495264E-2,7.928231E-2,-4.7008567E-3,6.703252E-2,3.0041197E-2,-7.81502E-2,2.4520101E-2,1.0462E-1,-8.30721E-2,5.3514518E-2,-6.3320294E-2,-8.990839E-3],"split_indices":[5,4,5,12,12,13,0,17,0,22,15,8,30,15,30,37,23,5,30,2,29,33,1,10,17,5,9,5,9,22,17,37,27,34,32,34,32,30,11,27,5,12,12,15,21,30,22,21,9,21,22,21,34,1,23,34,37,27,17,22,0,35,35,0,0,0,0,0,0,0,0,0,0,0,0,0,0,0,0,0,0,0,0,0,0,0,0,0,0,0,0,0,0,0,0,0,0,0,0,0,0,0,0,0,0,0,0,0,0,0,0,0,0,0,0,0,0,0,0,0,0,0,0,0,0],"split_type":[0,0,0,0,0,0,0,0,0,0,0,0,0,0,0,0,0,0,0,0,0,0,0,0,0,0,0,0,0,0,0,0,0,0,0,0,0,0,0,0,0,0,0,0,0,0,0,0,0,0,0,0,0,0,0,0,0,0,0,0,0,0,0,0,0,0,0,0,0,0,0,0,0,0,0,0,0,0,0,0,0,0,0,0,0,0,0,0,0,0,0,0,0,0,0,0,0,0,0,0,0,0,0,0,0,0,0,0,0,0,0,0,0,0,0,0,0,0,0,0,0,0,0,0,0],"sum_hessian":[2.5651519E3,1.3211844E3,1.2439675E3,9.774538E2,3.4373065E2,6.308665E2,6.13101E2,6.173225E2,3.6013123E2,2.2908508E2,1.1464557E2,3.408242E2,2.9004236E2,6.25973E1,5.5050366E2,4.673244E2,1.4999814E2,1.861594E1,3.415153E2,2.2107788E2,8.007205E0,4.0310585E1,7.4334984E1,2.3707247E1,3.1711694E2,1.6357786E1,2.7368457E2,1.5255183E1,4.7342117E1,4.633852E0,5.458698E2,3.7966147E2,8.766295E1,3.667386E1,1.1332427E2,1.54847765E1,3.131164E0,9.38716E1,2.476437E2,1.5860371E2,6.2474167E1,5.1055193E0,2.9016862E0,1.8779615E1,2.153097E1,2.4177702E1,5.015728E1,1.8666979E1,5.040268E0,6.662876E1,2.5048817E2,1.293564E1,3.4221463E0,2.697572E2,3.9273705E0,3.9431744E0,1.1312009E1,3.426351E1,1.3078604E1,3.4708562E0,1.1629959E0,3.0321512E2,2.4265472E2,3.4224274E2,3.7418713E1,1.7595922E1,7.0067024E1,1.5122625E1,2.1551235E1,1.8322584E1,9.5001686E1,9.627267E0,5.85751E0,1.2232443E0,1.9079196E0,1.6584887E1,7.7286705E1,2.2710884E2,2.0534868E1,1.5210326E2,6.500452E0,5.9391296E1,3.0828705E0,2.6423175E0,2.4632015E0,1.6886543E0,1.2130319E0,1.865617E0,1.6913998E1,1.2869948E1,8.661021E0,3.6128263E0,2.0564877E1,1.2840728E1,3.731655E1,1.720608E1,1.4608997E0,1.4416081E0,3.59866E0,5.965493E1,6.973829E0,2.4340755E2,7.0806317E0,8.217924E0,4.7177157E0,2.047992E0,1.3741544E0,4.590405E0,2.6516678E2,2.7351534E0,1.1922171E0,1.2473972E0,2.6957772E0,8.353984E0,2.9580257E0,2.5147783E1,9.115729E0,4.425674E0,8.65293E0,1.24119E0,2.2296662E0,3.0185532E2,1.3597989E0,2.1326617E2,2.938855E1],"tree_param":{"num_deleted":"0","num_feature":"46","num_nodes":"125","size_leaf_vector":"1"}},{"base_weights":[-1.4543459E-3,3.550243E-1,-2.9529124E-1,2.029516E-1,7.399212E-1,-8.890813E-2,-5.74611E-1,3.2511202E-1,4.268738E-2,4.749823E-1,9.534213E-1,2.9503366E-2,-2.865935E-1,1.3954821E-1,-6.5952194E-1,2.2769603E-1,5.176949E-1,8.8460255E-1,5.460042E-3,9.4870394E-1,3.0438432E-1,9.7238916E-1,-2.7474418E-1,2.0615603E-1,-8.3032295E-2,2.2101557E-1,-3.5941654E-1,4.2011267E-1,-8.372668E-2,6.565903E-1,-6.724381E-1,6.6168463E-1,1.3657139E-1,4.4741288E-1,1.1105382E0,1.098775E0,-2.826714E-2,-4.2028993E-1,5.5804204E-2,-8.3963595E-2,1.052472E0,4.2084983E-1,-2.4070974E-1,1.0482877E0,6.528928E-1,-1.0149839E-1,5.3687006E-2,3.0535007E-1,-4.674891E-1,-3.92395E-1,2.014829E-2,-7.882487E-3,9.1574055E-1,-4.6932116E-1,-6.431672E-2,6.288262E-1,-4.7992297E-2,3.2462183E-1,-3.828906E-1,8.251536E-1,5.6996994E-4,-7.2315633E-1,-3.569837E-1,8.039726E-2,-1.8981969E-2,-1.1659054E-3,3.320162E-2,2.056999E-2,6.411881E-2,3.0934706E-2,1.4068381E-1,1.3224377E-1,-1.2091321E-2,-7.549465E-2,4.1600823E-2,-1.33831715E-2,1.786608E-2,7.662455E-2,-9.038065E-2,5.2223142E-2,1.2643923E-1,4.970339E-2,-3.6429442E-2,3.5906445E-2,-6.380892E-2,1.0672108E-1,-6.247576E-3,7.317631E-2,-5.904916E-2,5.827565E-2,7.755966E-3,9.202973E-2,-6.1930247E-2,-5.5223104E-2,3.0833382E-2,1.0608099E-1,-1.2177895E-3,-2.8929234E-2,3.1678103E-2,1.2729548E-1,1.2160871E-2,-5.1186133E-2,2.3401449E-2,-2.1081567E-2,4.110324E-2,1.0498687E-1,1.215948E-2,-2.6761783E-2,8.068037E-2,5.633178E-2,-5.779592E-2,-9.306281E-2,-1.1784061E-2,1.09876215E-1,3.201284E-2,-1.0376757E-1,-6.696002E-2,-4.4547122E-2,6.4993314E-2],"categories":[],"categories_nodes":[],"categories_segments":[],"categories_sizes":[],"default_left":[0,0,0,0,0,0,0,0,0,0,0,0,0,0,0,0,0,0,0,0,0,0,0,0,0,0,0,0,0,0,0,0,0,0,0,0,0,0,0,0,0,0,0,0,0,0,0,0,0,0,0,0,0,0,0,0,0,0,0,0,0,0,0,0,0,0,0,0,0,0,0,0,0,0,0,0,0,0,0,0,0,0,0,0,0,0,0,0,0,0,0,0,0,0,0,0,0,0,0,0,0,0,0,0,0,0,0,0,0,0,0,0,0,0,0,0,0,0,0],"id":10,"left_children":[1,3,5,7,9,11,13,15,17,19,21,23,25,27,29,31,33,35,37,39,41,43,45,47,49,51,53,55,57,59,61,63,65,67,69,71,-1,73,75,77,79,81,83,85,87,-1,-1,89,91,93,95,97,99,101,103,105,107,109,111,113,-1,115,117,-1,-1,-1,-1,-1,-1,-1,-1,-1,-1,-1,-1,-1,-1,-1,-1,-1,-1,-1,-1,-1,-1,-1,-1,-1,-1,-1,-1,-1,-1,-1,-1,-1,-1,-1,-1,-1,-1,-1,-1,-1,-1,-1,-1,-1,-1,-1,-1,-1,-1,-1,-1,-1,-1,-1,-1],"loss_changes":[2.6490482E2,6.673482E1,7.986502E1,1.604905E1,1.7831131E1,1.8698133E1,3.580168E1,8.613815E0,1.1154091E1,1.1529507E1,4.4138947E0,9.961688E0,1.1139074E1,4.0068073E0,9.391174E0,1.2203463E1,5.98473E0,4.078083E0,7.3531256E0,4.1868515E0,7.020488E0,3.5717773E0,2.639868E0,1.3169671E1,9.784623E0,6.074873E0,8.468208E0,2.7913876E0,4.5391355E0,6.121805E-1,8.091171E0,6.6570835E0,7.483582E0,6.460438E0,3.318571E0,3.689456E0,0E0,1.0467265E1,7.1690965E0,3.772373E0,3.2533417E0,5.574415E0,4.953802E0,3.0129852E0,3.9961061E0,0E0,0E0,1.0730922E1,5.9249263E0,8.7556E0,7.771535E0,2.8043714E0,2.530086E0,5.8274956E0,5.1190615E0,4.0620236E0,2.026511E0,3.7343307E0,2.9850578E0,2.6439834E-1,0E0,6.8615875E0,6.905774E0,0E0,0E0,0E0,0E0,0E0,0E0,0E0,0E0,0E0,0E0,0E0,0E0,0E0,0E0,0E0,0E0,0E0,0E0,0E0,0E0,0E0,0E0,0E0,0E0,0E0,0E0,0E0,0E0,0E0,0E0,0E0,0E0,0E0,0E0,0E0,0E0,0E0,0E0,0E0,0E0,0E0,0E0,0E0,0E0,0E0,0E0,0E0,0E0,0E0,0E0,0E0,0E0,0E0,0E0,0E0,0E0],"parents":[2147483647,0,0,1,1,2,2,3,3,4,4,5,5,6,6,7,7,8,8,9,9,10,10,11,11,12,12,13,13,14,14,15,15,16,16,17,17,18,18,19,19,20,20,21,21,22,22,23,23,24,24,25,25,26,26,27,27,28,28,29,29,30,30,31,31,32,32,33,33,34,34,35,35,37,37,38,38,39,39,40,40,41,41,42,42,43,43,44,44,47,47,48,48,49,49,50,50,51,51,52,52,53,53,54,54,55,55,56,56,57,57,58,58,59,59,61,61,62,62],"right_children":[2,4,6,8,10,12,14,16,18,20,22,24,26,28,30,32,34,36,38,40,42,44,46,48,50,52,54,56,58,60,62,64,66,68,70,72,-1,74,76,78,80,82,84,86,88,-1,-1,90,92,94,96,98,100,102,104,106,108,110,112,114,-1,116,118,-1,-1,-1,-1,-1,-1,-1,-1,-1,-1,-1,-1,-1,-1,-1,-1,-1,-1,-1,-1,-1,-1,-1,-1,-1,-1,-1,-1,-1,-1,-1,-1,-1,-1,-1,-1,-1,-1,-1,-1,-1,-1,-1,-1,-1,-1,-1,-1,-1,-1,-1,-1,-1,-1,-1,-1],"split_conditions":[1.4E1,1.25E0,4.9E1,1.7545454E1,3.6901E3,2.1954498E1,5E0,9.411765E-1,6.666667E-2,2E0,2.6920252E1,1.2903225E-1,5E0,7.235142E-2,7.826087E-1,6.6118975E0,3.4962964E0,3.0454545E0,2.6666668E-1,2E0,2.6666668E-1,6E0,2.25E0,3.3333334E-1,7.522124E-1,1.8E2,1.1E1,2.535211E-1,7.8E1,1.08E2,3E-1,3.0952382E-1,2.088E2,1.6666667E-1,7.1603894E-1,1.5086207E0,-2.826714E-2,2.3728813E-1,8E0,1.6241E3,3.979E2,5.8064514E-1,1.1688311E0,2.6923078E-1,2.6551723E0,-1.0149839E-1,5.3687006E-2,4.1E1,6.666667E-2,2.7E1,7.9310346E-1,4.946E2,1.0526316E-2,4.090909E-1,1.37E2,1.2048192E-2,1.03E2,1.3333334E-1,1.04E2,1.8965517E-1,5.6996994E-4,5.8636365E0,1.7804878E0,8.039726E-2,-1.8981969E-2,-1.1659054E-3,3.320162E-2,2.056999E-2,6.411881E-2,3.0934706E-2,1.4068381E-1,1.3224377E-1,-1.2091321E-2,-7.549465E-2,4.1600823E-2,-1.33831715E-2,1.786608E-2,7.662455E-2,-9.038065E-2,5.2223142E-2,1.2643923E-1,4.970339E-2,-3.6429442E-2,3.5906445E-2,-6.380892E-2,1.0672108E-1,-6.247576E-3,7.317631E-2,-5.904916E-2,5.827565E-2,7.755966E-3,9.202973E-2,-6.1930247E-2,-5.5223104E-2,3.0833382E-2,1.0608099E-1,-1.2177895E-3,-2.8929234E-2,3.1678103E-2,1.2729548E-1,1.2160871E-2,-5.1186133E-2,2.3401449E-2,-2.1081567E-2,4.110324E-2,1.0498687E-1,1.215948E-2,-2.6761783E-2,8.068037E-2,5.633178E-2,-5.779592E-2,-9.306281E-2,-1.1784061E-2,1.09876215E-1,3.201284E-2,-1.0376757E-1,-6.696002E-2,-4.4547122E-2,6.4993314E-2],"split_indices":[5,2,5,12,9,13,0,33,17,5,13,20,0,1,30,13,32,27,38,16,23,5,2,24,34,10,0,22,5,14,17,19,11,19,15,34,0,23,8,9,11,17,27,22,1,0,0,14,17,8,34,9,19,19,14,20,14,17,5,17,0,12,28,0,0,0,0,0,0,0,0,0,0,0,0,0,0,0,0,0,0,0,0,0,0,0,0,0,0,0,0,0,0,0,0,0,0,0,0,0,0,0,0,0,0,0,0,0,0,0,0,0,0,0,0,0,0,0,0],"split_type":[0,0,0,0,0,0,0,0,0,0,0,0,0,0,0,0,0,0,0,0,0,0,0,0,0,0,0,0,0,0,0,0,0,0,0,0,0,0,0,0,0,0,0,0,0,0,0,0,0,0,0,0,0,0,0,0,0,0,0,0,0,0,0,0,0,0,0,0,0,0,0,0,0,0,0,0,0,0,0,0,0,0,0,0,0,0,0,0,0,0,0,0,0,0,0,0,0,0,0,0,0,0,0,0,0,0,0,0,0,0,0,0,0,0,0,0,0,0,0],"sum_hessian":[2.5270056E3,1.1417017E3,1.3853041E3,8.1946027E2,3.2224136E2,7.9742377E2,5.878803E2,4.644259E2,3.550344E2,1.4523698E2,1.7700438E2,4.9923685E2,2.9818695E2,6.240107E1,5.2547925E2,3.0986588E2,1.5456001E2,1.4070084E1,3.409643E2,3.7247086E1,1.079899E2,1.7451738E2,2.4870036E0,1.9395087E2,3.0528598E2,3.7156265E1,2.6103067E2,2.726217E1,3.5138897E1,4.622537E0,5.208567E2,5.2685505E1,2.571804E2,1.3974753E2,1.4812484E1,1.19383135E1,2.1317694E0,3.527793E1,3.0568637E2,3.4184628E0,3.3828625E1,8.916641E1,1.882348E1,1.3917445E2,3.5342922E1,1.1696448E0,1.3173587E0,1.695338E2,2.4417076E1,7.5653564E1,2.296324E2,2.8691607E1,8.46466E0,1.8976555E2,7.126513E1,1.8617748E1,8.644423E0,1.4822118E1,2.031678E1,3.4590147E0,1.1635224E0,4.475999E2,7.3256775E1,4.518999E1,7.495513E0,1.4679077E2,1.1038961E2,6.3099487E1,7.664805E1,4.550912E0,1.0261572E1,1.0017157E1,1.9211572E0,2.5265043E1,1.0012888E1,1.2014564E2,1.8554073E2,1.710246E0,1.7082169E0,1.0648801E1,2.3179823E1,8.161418E1,7.55223E0,7.5398407E0,1.1283641E1,1.3688174E2,2.2927172E0,3.3621708E1,1.7212142E0,7.57392E1,9.379459E1,1.9085181E0,2.2508558E1,6.17747E1,1.3878868E1,5.9596725E0,2.2367273E2,1.5427981E1,1.3263625E1,5.422551E0,3.042108E0,1.7919919E2,1.0566355E1,5.4901432E1,1.6363697E1,9.588625E0,9.029123E0,7.423898E0,1.2205243E0,1.2019365E1,2.8027525E0,5.8064184E0,1.4510362E1,1.4809947E0,1.97802E0,6.24535E1,3.8514642E2,6.7851585E1,5.4051876E0],"tree_param":{"num_deleted":"0","num_feature":"46","num_nodes":"119","size_leaf_vector":"1"}},{"base_weights":[-1.2386746E-3,-1.9133466E-1,4.6724352E-1,-2.299896E-2,-5.2955115E-1,3.9492953E-1,1.0352294E0,3.9385334E-1,-6.974573E-2,1.9857799E-1,-6.0207075E-1,5.162525E-1,1.8181506E-1,1.1395285E0,1.9021034E-2,8.773029E-1,3.1313825E-1,-2.6277038E-1,5.64339E-2,4.9657908E-1,-1.6207014E-1,-4.5139197E-1,-7.444931E-1,1.1433007E0,4.8027757E-1,-1.5744282E-1,2.9989293E-1,7.932792E-2,1.182656E0,-9.4860196E-1,6.772923E-1,1.1189371E0,-7.9986274E-2,3.9156663E-1,-1.03454426E-1,-1.7756905E-1,-5.0047195E-1,-1.3967633E-1,1.2356305E-1,6.118951E-1,-3.8958508E-1,1.9246663E-1,-4.7809964E-1,-5.54176E-1,-1.3968383E-1,-8.7488556E-1,-5.827597E-1,6.28719E-2,1.3278555E0,8.0088115E-1,3.9998052E-1,2.6665315E-1,-4.7364053E-1,4.5069847E-1,-4.0938582E-2,6.375543E-2,-7.624529E-2,-9.0639535E-3,1.2140671E0,1.7993327E-2,-1.5461835E-1,-2.1614864E-2,1.031976E-1,1.305425E-1,-2.3696061E-2,-6.208933E-2,4.9412277E-2,5.4724243E-2,1.8298078E-2,3.1451322E-2,-5.953079E-2,-9.344515E-2,-1.27796335E-2,-2.5143612E-2,-7.165862E-2,5.990867E-2,-2.4062274E-2,1.4358714E-2,-1.2597571E-1,1.9685453E-2,7.8351475E-2,3.5173852E-2,-8.790701E-2,-5.0591744E-2,5.0083864E-2,-7.857224E-2,6.4973305E-3,6.745923E-2,-5.809914E-2,8.974109E-2,-2.4515577E-2,-5.759862E-2,-9.457054E-2,-6.354446E-2,2.068164E-2,5.5805802E-2,-6.291621E-2,1.4394476E-1,4.874781E-2,-8.1959814E-2,8.5382394E-2,-4.3630276E-2,4.2849444E-2,6.4289466E-2,-3.134064E-2,4.5037042E-2,-5.6840487E-2,-7.69771E-2,4.9057137E-2,1.1660339E-1,-1.2615338E-2,1.24071896E-1,1.0463243E-2],"categories":[],"categories_nodes":[],"categories_segments":[],"categories_sizes":[],"default_left":[0,0,0,0,0,0,0,0,0,0,0,0,0,0,0,0,0,0,0,0,0,0,0,0,0,0,0,0,0,0,0,0,0,0,0,0,0,0,0,0,0,0,0,0,0,0,0,0,0,0,0,0,0,0,0,0,0,0,0,0,0,0,0,0,0,0,0,0,0,0,0,0,0,0,0,0,0,0,0,0,0,0,0,0,0,0,0,0,0,0,0,0,0,0,0,0,0,0,0,0,0,0,0,0,0,0,0,0,0,0,0,0,0],"id":11,"left_children":[1,3,5,7,9,11,13,15,17,19,21,23,25,27,29,31,33,35,37,39,41,43,45,47,49,51,53,55,57,59,61,63,65,67,69,71,73,75,77,79,81,83,85,87,89,91,93,95,97,99,101,103,105,107,109,-1,-1,-1,111,-1,-1,-1,-1,-1,-1,-1,-1,-1,-1,-1,-1,-1,-1,-1,-1,-1,-1,-1,-1,-1,-1,-1,-1,-1,-1,-1,-1,-1,-1,-1,-1,-1,-1,-1,-1,-1,-1,-1,-1,-1,-1,-1,-1,-1,-1,-1,-1,-1,-1,-1,-1,-1,-1],"loss_changes":[2.2203365E2,1.00961555E2,2.9149414E1,2.3122843E1,3.1238098E1,1.645346E1,8.527283E0,4.3945904E0,2.5991228E1,5.8981094E0,1.1170715E1,8.638275E0,9.409378E0,3.2501297E0,6.0724335E0,3.9211264E0,3.4415627E0,8.453102E0,8.5185795E0,3.292379E0,2.920574E0,8.351498E0,5.2707825E0,4.178465E0,9.639915E0,8.305821E0,8.947208E0,2.3331068E0,2.917839E0,2.8867471E0,2.0156472E0,3.6705494E0,1.6333494E0,2.7512598E0,3.740292E0,1.163556E1,5.779846E0,1.2460091E1,1.3521587E1,1.7570944E0,1.7796139E0,2.9692376E0,2.328833E0,6.899872E0,7.5023727E0,2.625496E0,5.3456383E0,1.7794468E0,1.0056458E0,7.2625694E0,7.61269E0,6.027017E0,3.3472924E0,6.2421722E0,5.7218714E0,0E0,0E0,0E0,1.8980637E0,0E0,0E0,0E0,0E0,0E0,0E0,0E0,0E0,0E0,0E0,0E0,0E0,0E0,0E0,0E0,0E0,0E0,0E0,0E0,0E0,0E0,0E0,0E0,0E0,0E0,0E0,0E0,0E0,0E0,0E0,0E0,0E0,0E0,0E0,0E0,0E0,0E0,0E0,0E0,0E0,0E0,0E0,0E0,0E0,0E0,0E0,0E0,0E0,0E0,0E0,0E0,0E0,0E0,0E0],"parents":[2147483647,0,0,1,1,2,2,3,3,4,4,5,5,6,6,7,7,8,8,9,9,10,10,11,11,12,12,13,13,14,14,15,15,16,16,17,17,18,18,19,19,20,20,21,21,22,22,23,23,24,24,25,25,26,26,27,27,28,28,29,29,30,30,31,31,32,32,33,33,34,34,35,35,36,36,37,37,38,38,39,39,40,40,41,41,42,42,43,43,44,44,45,45,46,46,47,47,48,48,49,49,50,50,51,51,52,52,53,53,54,54,58,58],"right_children":[2,4,6,8,10,12,14,16,18,20,22,24,26,28,30,32,34,36,38,40,42,44,46,48,50,52,54,56,58,60,62,64,66,68,70,72,74,76,78,80,82,84,86,88,90,92,94,96,98,100,102,104,106,108,110,-1,-1,-1,112,-1,-1,-1,-1,-1,-1,-1,-1,-1,-1,-1,-1,-1,-1,-1,-1,-1,-1,-1,-1,-1,-1,-1,-1,-1,-1,-1,-1,-1,-1,-1,-1,-1,-1,-1,-1,-1,-1,-1,-1,-1,-1,-1,-1,-1,-1,-1,-1,-1,-1,-1,-1,-1,-1],"split_conditions":[7.5E-1,4.7E1,2.5E0,5E0,5E0,7E0,6E0,4E0,2.4078624E-1,1.2048192E-2,9.4E1,8E-1,1.1E1,1.5607104E0,1.1886792E0,1.0344828E-1,1.2661499E-1,2.3214285E-1,8.8659793E-1,1.2661499E-1,2.98E1,1.6E1,1.0169394E0,5E0,5.1234756E0,1.2698413E-1,1.1627907E-1,2.0408164E-1,1.4E1,1.7574817E0,2E0,7.884E2,3E0,8.352941E-1,1.2048192E-2,5.0913733E-1,9.812405E-1,8E-1,4.5454547E-1,6.9E1,1.4035714E1,7.522124E-1,3E0,7.826087E-1,1.5E1,7.307692E-1,3.925E1,8.5995086E-2,1.2622951E0,8.095238E-1,8.62069E-2,1.3333334E-1,2.856E2,1.1490597E0,1.0042424E0,6.375543E-2,-7.624529E-2,-9.0639535E-3,1.49E2,1.7993327E-2,-1.5461835E-1,-2.1614864E-2,1.031976E-1,1.305425E-1,-2.3696061E-2,-6.208933E-2,4.9412277E-2,5.4724243E-2,1.8298078E-2,3.1451322E-2,-5.953079E-2,-9.344515E-2,-1.27796335E-2,-2.5143612E-2,-7.165862E-2,5.990867E-2,-2.4062274E-2,1.4358714E-2,-1.2597571E-1,1.9685453E-2,7.8351475E-2,3.5173852E-2,-8.790701E-2,-5.0591744E-2,5.0083864E-2,-7.857224E-2,6.4973305E-3,6.745923E-2,-5.809914E-2,8.974109E-2,-2.4515577E-2,-5.759862E-2,-9.457054E-2,-6.354446E-2,2.068164E-2,5.5805802E-2,-6.291621E-2,1.4394476E-1,4.874781E-2,-8.1959814E-2,8.5382394E-2,-4.3630276E-2,4.2849444E-2,6.4289466E-2,-3.134064E-2,4.5037042E-2,-5.6840487E-2,-7.69771E-2,4.9057137E-2,1.1660339E-1,-1.2615338E-2,1.24071896E-1,1.0463243E-2],"split_indices":[2,5,2,0,8,5,5,5,1,20,5,30,8,26,1,17,1,20,30,1,12,8,15,0,13,20,24,22,0,26,29,9,45,33,20,26,15,30,23,5,12,34,45,30,0,33,12,1,34,30,17,17,10,26,26,0,0,0,0,0,0,0,0,0,0,0,0,0,0,0,0,0,0,0,0,0,0,0,0,0,0,0,0,0,0,0,0,0,0,0,0,0,0,0,0,0,0,0,0,0,0,0,0,0,0,0,0,0,0,0,0,0,0],"split_type":[0,0,0,0,0,0,0,0,0,0,0,0,0,0,0,0,0,0,0,0,0,0,0,0,0,0,0,0,0,0,0,0,0,0,0,0,0,0,0,0,0,0,0,0,0,0,0,0,0,0,0,0,0,0,0,0,0,0,0,0,0,0,0,0,0,0,0,0,0,0,0,0,0,0,0,0,0,0,0,0,0,0,0,0,0,0,0,0,0,0,0,0,0,0,0,0,0,0,0,0,0,0,0,0,0,0,0,0,0,0,0,0,0],"sum_hessian":[2.4911711E3,1.7725253E3,7.186459E2,1.1841989E3,5.883265E2,6.389875E2,7.965836E1,1.1865933E2,1.0655394E3,5.3130802E1,5.351957E2,4.0627728E2,2.3271019E2,7.2133545E1,7.5248156E0,1.5564627E1,1.0309471E2,4.2077374E2,6.4476575E2,2.8885777E1,2.4245028E1,2.6208585E2,2.731098E2,2.0374058E1,3.8590323E2,5.9996536E1,1.7271365E2,2.9305916E0,6.920296E1,2.8679843E0,4.6568313E0,1.2292863E1,3.2717638E0,8.681151E1,1.62832E1,3.1103418E2,1.0973955E2,1.6414728E2,4.8061847E2,2.583357E1,3.0522058E0,1.1610644E1,1.2634382E1,1.9650993E2,6.557592E1,1.4876407E2,1.2434574E2,3.1680708E0,1.7205988E1,7.5495804E1,3.1040744E2,2.5692926E1,3.4303608E1,1.1951172E2,5.3201935E1,1.9079491E0,1.0226426E0,1.620673E0,6.758228E1,1.2348543E0,1.63313E0,1.4343415E0,3.2224896E0,1.0839272E1,1.4535911E0,1.6426356E0,1.6291282E0,4.878087E1,3.803064E1,8.99769E0,7.285509E0,1.8094889E1,2.929393E2,5.199145E1,5.7748093E1,1.9139881E1,1.450074E2,4.74644E2,5.9744544E0,8.185355E0,1.7648214E1,1.325759E0,1.7264467E0,3.3601508E0,8.250493E0,7.780387E0,4.853996E0,3.6809316E0,1.92829E2,5.360284E0,6.0215637E1,3.0245247E1,1.18518814E2,1.167507E2,7.595042E0,1.9595261E0,1.2085447E0,1.4559768E1,2.6462197E0,1.9303584E0,7.3565445E1,9.763145E0,3.006443E2,1.5518745E1,1.0174182E1,2.8417964E0,3.1461811E1,3.2018144E0,1.16309906E2,2.6720374E0,5.0529896E1,6.588129E1,1.700995E0],"tree_param":{"num_deleted":"0","num_feature":"46","num_nodes":"113","size_leaf_vector":"1"}},{"base_weights":[-1.376298E-3,1.783312E-1,-4.236009E-1,1.8542683E-2,4.6901235E-1,2.2226639E-1,-4.877942E-1,2.0718658E-1,-6.868556E-2,7.966763E-1,3.3374372E-1,3.9925188E-1,-1.7863198E-1,-3.2356843E-1,-6.803694E-1,4.357972E-1,1.18173756E-1,-2.5738057E-1,2.9567963E-2,6.3990533E-1,1.0193479E0,5.680797E-1,1.8353036E-1,6.2885237E-1,9.105782E-2,-4.8994875E-1,5.1056933E-1,-2.3262879E-1,-6.96069E-1,-9.052734E-1,-5.873118E-1,1.2600839E-1,7.233554E-1,3.5048863E-1,-4.0168483E-3,1.9779555E-1,-3.2951468E-1,-1.6679983E-1,1.1785545E-1,6.9641495E-1,5.2912425E-2,1.0524288E0,-2.3533097E-2,6.329275E-1,-4.1172573E-1,-1.7857168E-2,3.6037263E-1,5.2813254E-2,8.6669606E-1,3.0801886E-1,-4.286415E-1,5.59828E-2,-6.8033785E-1,7.1122175E-1,-3.0849073E-2,-2.6510307E-1,8.43974E-1,-7.426369E-1,9.035166E-2,-9.765501E-1,-5.905413E-1,-7.164897E-1,-4.065227E-1,2.479837E-3,1.3384373E-1,5.9378585E-3,8.842407E-2,5.3322136E-2,-1.6920762E-2,-1.0905416E-1,4.225353E-3,5.4412365E-2,-4.141928E-3,6.753221E-2,-3.5130434E-2,-2.1956662E-2,1.21842995E-1,1.2453761E-1,9.861551E-3,1.1995752E-1,5.762594E-2,-1.2940662E-1,7.403643E-2,1.0802221E-1,-2.782992E-2,4.8827756E-2,9.1539055E-2,3.2073043E-2,-8.7598756E-2,-1.2728888E-2,5.8505982E-2,4.600556E-2,-3.8296573E-2,-1.0321893E-1,3.642232E-2,1.0599029E-1,4.4661812E-2,2.2864777E-3,7.189713E-2,-9.49538E-2,-4.9389144E-3,-9.205049E-2,2.5813267E-2,1.113336E-1,-6.037181E-3,-8.1930384E-2,-2.1861902E-2,1.2851039E-1,-4.93522E-2,-7.754593E-2,3.350133E-2,-9.883813E-2,-9.518005E-3,5.9096254E-2,-7.0358746E-2,-3.7227746E-2,-7.93715E-2,-7.625376E-2,-1.4283039E-2],"categories":[],"categories_nodes":[],"categories_segments":[],"categories_sizes":[],"default_left":[0,0,0,0,0,0,0,0,0,0,0,0,0,0,0,0,0,0,0,0,0,0,0,0,0,0,0,0,0,0,0,0,0,0,0,0,0,0,0,0,0,0,0,0,0,0,0,0,0,0,0,0,0,0,0,0,0,0,0,0,0,0,0,0,0,0,0,0,0,0,0,0,0,0,0,0,0,0,0,0,0,0,0,0,0,0,0,0,0,0,0,0,0,0,0,0,0,0,0,0,0,0,0,0,0,0,0,0,0,0,0,0,0,0,0,0,0,0,0],"id":12,"left_children":[1,3,5,7,9,11,13,15,17,19,21,23,25,27,29,31,33,35,37,39,41,43,45,47,49,51,53,55,57,59,61,63,65,67,69,71,73,75,77,79,81,83,-1,85,87,89,91,93,95,97,99,-1,101,103,-1,105,107,109,-1,111,113,115,117,-1,-1,-1,-1,-1,-1,-1,-1,-1,-1,-1,-1,-1,-1,-1,-1,-1,-1,-1,-1,-1,-1,-1,-1,-1,-1,-1,-1,-1,-1,-1,-1,-1,-1,-1,-1,-1,-1,-1,-1,-1,-1,-1,-1,-1,-1,-1,-1,-1,-1,-1,-1,-1,-1,-1,-1],"loss_changes":[1.8654704E2,8.009239E1,3.0540344E1,1.8343E1,2.6845535E1,4.8283477E0,2.0904541E1,7.120474E0,1.4142906E1,5.561859E0,1.5196331E1,3.2558122E0,4.8040333E0,1.2115116E1,5.8838043E0,8.674463E0,7.241281E0,8.640135E0,8.727258E0,3.5174294E0,3.2303467E0,1.1018539E1,9.492399E0,3.6071167E0,2.517723E0,3.4049518E0,1.3852372E0,1.04608E1,5.9310493E0,1.3944168E0,4.838867E0,5.927992E0,5.3762474E0,8.439579E0,8.498367E0,3.0341067E0,5.181406E0,1.1684318E1,7.4062696E0,5.2129745E0,1.0673286E1,2.8969269E0,0E0,6.0576096E0,4.0610466E0,8.353968E0,1.0688341E1,3.3683593E0,1.0529261E0,1.8009362E0,1.2667525E0,0E0,3.2260833E0,1.9289544E0,0E0,7.1627502E0,5.833699E0,2.7062683E0,0E0,6.3703156E-1,2.9207191E0,3.0753937E0,8.702319E0,0E0,0E0,0E0,0E0,0E0,0E0,0E0,0E0,0E0,0E0,0E0,0E0,0E0,0E0,0E0,0E0,0E0,0E0,0E0,0E0,0E0,0E0,0E0,0E0,0E0,0E0,0E0,0E0,0E0,0E0,0E0,0E0,0E0,0E0,0E0,0E0,0E0,0E0,0E0,0E0,0E0,0E0,0E0,0E0,0E0,0E0,0E0,0E0,0E0,0E0,0E0,0E0,0E0,0E0,0E0,0E0],"parents":[2147483647,0,0,1,1,2,2,3,3,4,4,5,5,6,6,7,7,8,8,9,9,10,10,11,11,12,12,13,13,14,14,15,15,16,16,17,17,18,18,19,19,20,20,21,21,22,22,23,23,24,24,25,25,26,26,27,27,28,28,29,29,30,30,31,31,32,32,33,33,34,34,35,35,36,36,37,37,38,38,39,39,40,40,41,41,43,43,44,44,45,45,46,46,47,47,48,48,49,49,50,50,52,52,53,53,55,55,56,56,57,57,59,59,60,60,61,61,62,62],"right_children":[2,4,6,8,10,12,14,16,18,20,22,24,26,28,30,32,34,36,38,40,42,44,46,48,50,52,54,56,58,60,62,64,66,68,70,72,74,76,78,80,82,84,-1,86,88,90,92,94,96,98,100,-1,102,104,-1,106,108,110,-1,112,114,116,118,-1,-1,-1,-1,-1,-1,-1,-1,-1,-1,-1,-1,-1,-1,-1,-1,-1,-1,-1,-1,-1,-1,-1,-1,-1,-1,-1,-1,-1,-1,-1,-1,-1,-1,-1,-1,-1,-1,-1,-1,-1,-1,-1,-1,-1,-1,-1,-1,-1,-1,-1,-1,-1,-1,-1,-1],"split_conditions":[3.5E1,1E0,5E0,4.1E1,5.675676E0,1E-1,8.2E1,3.4230769E0,9.259259E-2,3E0,3E0,1.2048192E-2,7E1,1.2631579E-1,7.4587135E0,1.1E1,1.2903225E-1,5E0,8.8659793E-1,1.4219E3,1.9254081E0,9.491525E-1,1.5068494E-1,2.652E2,2E0,3.3026316E0,6.253E2,4.4444445E-1,2.3076923E-1,2.2352941E-1,3.5714287E-2,4.090909E-1,8E-2,1.6842106E-1,3.4254236E0,3.5E1,7.826087E-1,4.375E-1,7.1428575E-2,1.0204082E-1,3.3E1,3.3333334E-1,-2.3533097E-2,3E0,1.4851485E-1,2.8947368E-1,2.52E1,5.4E1,2.535211E-1,3.1E1,7.4074073E-3,5.59828E-2,1.0083333E0,2.5252524E-1,-3.0849073E-2,4.6734695E0,3.49E0,8E1,9.035166E-2,5E-1,1.980198E-2,2.857143E-1,8.909091E-1,2.479837E-3,1.3384373E-1,5.9378585E-3,8.842407E-2,5.3322136E-2,-1.6920762E-2,-1.0905416E-1,4.225353E-3,5.4412365E-2,-4.141928E-3,6.753221E-2,-3.5130434E-2,-2.1956662E-2,1.21842995E-1,1.2453761E-1,9.861551E-3,1.1995752E-1,5.762594E-2,-1.2940662E-1,7.403643E-2,1.0802221E-1,-2.782992E-2,4.8827756E-2,9.1539055E-2,3.2073043E-2,-8.7598756E-2,-1.2728888E-2,5.8505982E-2,4.600556E-2,-3.8296573E-2,-1.0321893E-1,3.642232E-2,1.0599029E-1,4.4661812E-2,2.2864777E-3,7.189713E-2,-9.49538E-2,-4.9389144E-3,-9.205049E-2,2.5813267E-2,1.113336E-1,-6.037181E-3,-8.1930384E-2,-2.1861902E-2,1.2851039E-1,-4.93522E-2,-7.754593E-2,3.350133E-2,-9.883813E-2,-9.518005E-3,5.9096254E-2,-7.0358746E-2,-3.7227746E-2,-7.93715E-2,-7.625376E-2,-1.4283039E-2],"split_indices":[5,3,8,14,12,17,5,32,19,4,5,20,43,31,13,8,20,0,30,10,26,39,19,9,29,32,9,19,31,23,25,21,19,24,32,43,30,23,17,20,0,20,0,16,23,21,12,5,22,43,24,0,34,23,0,12,32,5,0,22,33,34,30,0,0,0,0,0,0,0,0,0,0,0,0,0,0,0,0,0,0,0,0,0,0,0,0,0,0,0,0,0,0,0,0,0,0,0,0,0,0,0,0,0,0,0,0,0,0,0,0,0,0,0,0,0,0,0,0],"split_type":[0,0,0,0,0,0,0,0,0,0,0,0,0,0,0,0,0,0,0,0,0,0,0,0,0,0,0,0,0,0,0,0,0,0,0,0,0,0,0,0,0,0,0,0,0,0,0,0,0,0,0,0,0,0,0,0,0,0,0,0,0,0,0,0,0,0,0,0,0,0,0,0,0,0,0,0,0,0,0,0,0,0,0,0,0,0,0,0,0,0,0,0,0,0,0,0,0,0,0,0,0,0,0,0,0,0,0,0,0,0,0,0,0,0,0,0,0,0,0],"sum_hessian":[2.4565518E3,1.7235508E3,7.3300104E2,1.1128673E3,6.106835E2,6.6044586E1,6.669565E2,3.514436E2,7.6142365E2,1.7701263E2,4.3367084E2,4.58203E1,2.0224283E1,3.6142114E2,3.055353E2,9.7398994E1,2.540446E2,2.6016312E2,5.0126053E2,1.06151146E2,7.0861496E1,1.6831462E2,2.653562E2,2.5662006E1,2.0158297E1,1.4130534E1,6.0937486E0,2.9180615E2,6.961498E1,8.686633E1,2.1866899E2,4.7579456E1,