{"learner":{"attributes":{},"feature_names":["total_purchase_days_pre","purchases_per_week_all_pre","purchases_per_week_last_4w","purchases_per_week_last_2w","purchases_per_week_last_1w","days_since_last_purchase","purchased_in_last_7_days","purchased_in_last_14_days","total_orders_pre","total_spend_pre","total_spend_last_4w","total_spend_last_2w","mean_inter_purchase_interval_days","std_inter_purchase_interval_days","max_gap_between_purchases","cv_inter_purchase_interval","longest_consecutive_streak_days","share_weeks_with_purchase","modal_purchase_dow","share_purchases_dow0","share_purchases_dow1","share_purchases_dow2","share_purchases_dow3","share_purchases_dow4","share_purchases_dow5","share_purchases_dow6","entropy_dow","avg_basket_size","n_order_categories_avg","unique_stores_pre","preferred_store_ratio","second_store_ratio","avg_discount_per_order","coupon_usage_rate","avg_coffee_num","avg_food_num","avg_use_coffee_wallet","avg_delivery_pay","coffee_share_orders","take_address_rate","gender","level","has_inviter","manufacturer","callphone","push"],"feature_types":["int","float","float","float","float","int","int","int","int","float","float","float","float","float","float","float","int","float","int","float","float","float","float","float","float","float","float","float","float","int","float","float","float","float","float","float","float","float","float","float","int","int","int","int","int","int"],"gradient_booster":{"model":{"cats":{"enc":[],"feature_segments":[],"sorted_idx":[]},"gbtree_model_param":{"num_parallel_tree":"1","num_trees":"500"},"iteration_indptr":[0,1,2,3,4,5,6,7,8,9,10,11,12,13,14,15,16,17,18,19,20,21,22,23,24,25,26,27,28,29,30,31,32,33,34,35,36,37,38,39,40,41,42,43,44,45,46,47,48,49,50,51,52,53,54,55,56,57,58,59,60,61,62,63,64,65,66,67,68,69,70,71,72,73,74,75,76,77,78,79,80,81,82,83,84,85,86,87,88,89,90,91,92,93,94,95,96,97,98,99,100,101,102,103,104,105,106,107,108,109,110,111,112,113,114,115,116,117,118,119,120,121,122,123,124,125,126,127,128,129,130,131,132,133,134,135,136,137,138,139,140,141,142,143,144,145,146,147,148,149,150,151,152,153,154,155,156,157,158,159,160,161,162,163,164,165,166,167,168,169,170,171,172,173,174,175,176,177,178,179,180,181,182,183,184,185,186,187,188,189,190,191,192,193,194,195,196,197,198,199,200,201,202,203,204,205,206,207,208,209,210,211,212,213,214,215,216,217,218,219,220,221,222,223,224,225,226,227,228,229,230,231,232,233,234,235,236,237,238,239,240,241,242,243,244,245,246,247,248,249,250,251,252,253,254,255,256,257,258,259,260,261,262,263,264,265,266,267,268,269,270,271,272,273,274,275,276,277,278,279,280,281,282,283,284,285,286,287,288,289,290,291,292,293,294,295,296,297,298,299,300,301,302,303,304,305,306,307,308,309,310,311,312,313,314,315,316,317,318,319,320,321,322,323,324,325,326,327,328,329,330,331,332,333,334,335,336,337,338,339,340,341,342,343,344,345,346,347,348,349,350,351,352,353,354,355,356,357,358,359,360,361,362,363,364,365,366,367,368,369,370,371,372,373,374,375,376,377,378,379,380,381,382,383,384,385,386,387,388,389,390,391,392,393,394,395,396,397,398,399,400,401,402,403,404,405,406,407,408,409,410,411,412,413,414,415,416,417,418,419,420,421,422,423,424,425,426,427,428,429,430,431,432,433,434,435,436,437,438,439,440,441,442,443,444,445,446,447,448,449,450,451,452,453,454,455,456,457,458,459,460,461,462,463,464,465,466,467,468,469,470,471,472,473,474,475,476,477,478,479,480,481,482,483,484,485,486,487,488,489,490,491,492,493,494,495,496,497,498,499,500],"tree_info":[0,0,0,0,0,0,0,0,0,0,0,0,0,0,0,0,0,0,0,0,0,0,0,0,0,0,0,0,0,0,0,0,0,0,0,0,0,0,0,0,0,0,0,0,0,0,0,0,0,0,0,0,0,0,0,0,0,0,0,0,0,0,0,0,0,0,0,0,0,0,0,0,0,0,0,0,0,0,0,0,0,0,0,0,0,0,0,0,0,0,0,0,0,0,0,0,0,0,0,0,0,0,0,0,0,0,0,0,0,0,0,0,0,0,0,0,0,0,0,0,0,0,0,0,0,0,0,0,0,0,0,0,0,0,0,0,0,0,0,0,0,0,0,0,0,0,0,0,0,0,0,0,0,0,0,0,0,0,0,0,0,0,0,0,0,0,0,0,0,0,0,0,0,0,0,0,0,0,0,0,0,0,0,0,0,0,0,0,0,0,0,0,0,0,0,0,0,0,0,0,0,0,0,0,0,0,0,0,0,0,0,0,0,0,0,0,0,0,0,0,0,0,0,0,0,0,0,0,0,0,0,0,0,0,0,0,0,0,0,0,0,0,0,0,0,0,0,0,0,0,0,0,0,0,0,0,0,0,0,0,0,0,0,0,0,0,0,0,0,0,0,0,0,0,0,0,0,0,0,0,0,0,0,0,0,0,0,0,0,0,0,0,0,0,0,0,0,0,0,0,0,0,0,0,0,0,0,0,0,0,0,0,0,0,0,0,0,0,0,0,0,0,0,0,0,0,0,0,0,0,0,0,0,0,0,0,0,0,0,0,0,0,0,0,0,0,0,0,0,0,0,0,0,0,0,0,0,0,0,0,0,0,0,0,0,0,0,0,0,0,0,0,0,0,0,0,0,0,0,0,0,0,0,0,0,0,0,0,0,0,0,0,0,0,0,0,0,0,0,0,0,0,0,0,0,0,0,0,0,0,0,0,0,0,0,0,0,0,0,0,0,0,0,0,0,0,0,0,0,0,0,0,0,0,0,0,0,0,0,0,0,0,0,0,0,0,0,0,0,0,0,0,0,0,0,0,0,0,0,0,0,0,0,0,0,0,0,0,0,0,0,0,0,0,0,0,0,0,0,0,0,0,0,0,0,0,0,0,0,0,0,0,0,0,0,0,0,0,0,0],"trees":[{"base_weights":[-6.99509E-8,-4.3925092E-1,8.545702E-1,3.6042568E-1,-7.18265E-1,4.9758863E-1,1.4287537E0,7.872192E-1,1.0715224E-1,-3.073367E-1,-1.3557893E0,1.3878765E0,3.8668495E-1,1.6469961E0,5.504919E-1,5.5401844E-1,1.6366737E-1,2.6799378E-1,-8.387272E-1,-7.698726E-1,2.1212012E-1,-1.4340185E0,-1.4869554E-1,1.5342752E0,2.3422776E-2,1.2918261E0,2.7982458E-1,3.477488E-2,1.7022281E0,-8.954229E-2,8.7676245E-1,8.6616945E-1,1.14777364E-1,5.508213E-1,-4.292047E-1,-1.17516086E-1,-1.2777272E-1,-1.5187024E0,-5.7887596E-1,8.937044E-1,-7.087558E-2,-1.5291401E0,-9.086287E-1,5.162321E-1,-9.856881E-2,1.72226E-1,4.129785E-2,2.3422776E-2,1.4472153E0,1.7626588E-1,1.2777712E0,1.879437E-1,1.2052991E0,1.2918261E0,-4.466326E-2,1.0632973E-1,-3.8707744E-2,8.726317E-2,-2.3113875E-2,6.875042E-2,-4.8385527E-2,-1.0219705E-1,1.6137268E-2,-6.5471865E-2,4.129785E-2,-5.3175956E-2,-1.6249527E-1,-4.827119E-4,-8.756637E-2,-7.871054E-2,1.0972976E-1,4.5451666E-3,-1.4132729E-1,-1.5878716E-1,-8.387272E-2,3.694785E-2,-1.3294028E-1,-2.1024546E-2,9.228938E-2,1.6701637E-1,2.3422776E-2,5.698197E-2,-5.9848027E-3,1.6366737E-1,1.2950504E-3,4.5265533E-2,1.5621345E-1,3.0115554E-2,1.6701637E-1],"categories":[],"categories_nodes":[],"categories_segments":[],"categories_sizes":[],"default_left":[0,0,0,0,0,0,0,0,0,0,0,0,0,0,0,0,0,0,0,0,0,0,0,0,0,0,0,0,0,0,0,0,0,0,0,0,0,0,0,0,0,0,0,0,0,0,0,0,0,0,0,0,0,0,0,0,0,0,0,0,0,0,0,0,0,0,0,0,0,0,0,0,0,0,0,0,0,0,0,0,0,0,0,0,0,0,0,0,0],"id":0,"left_children":[1,3,5,7,9,11,13,15,17,19,21,23,25,27,29,31,-1,33,35,37,39,41,43,45,-1,47,49,-1,51,-1,53,55,57,59,61,63,-1,65,67,69,71,73,75,77,-1,-1,-1,-1,79,81,83,-1,85,87,-1,-1,-1,-1,-1,-1,-1,-1,-1,-1,-1,-1,-1,-1,-1,-1,-1,-1,-1,-1,-1,-1,-1,-1,-1,-1,-1,-1,-1,-1,-1,-1,-1,-1,-1],"loss_changes":[1.572621E2,6.200046E1,2.84431E1,7.7246485E0,5.34133E1,8.274521E0,9.442551E0,4.391657E0,7.2983236E0,3.049356E1,7.3638916E0,1.2449398E0,7.448057E0,2.475441E0,6.563506E0,2.9852042E0,0E0,8.221578E0,2.0659056E0,8.702366E0,1.1683357E1,2.3708344E0,3.8477564E0,1.0275555E0,0E0,1.0166826E0,7.369835E0,0E0,1.3227539E0,0E0,6.3439426E0,3.622881E0,2.954026E0,4.4687967E0,4.4528666E0,1.3389798E0,0E0,4.989891E-1,9.365084E0,6.9370937E0,6.8563085E0,1.1920929E0,8.019489E0,1.375653E0,0E0,0E0,0E0,0E0,1.5016489E0,6.328949E0,3.0426435E0,0E0,2.9181957E0,2.588873E0,0E0,0E0,0E0,0E0,0E0,0E0,0E0,0E0,0E0,0E0,0E0,0E0,0E0,0E0,0E0,0E0,0E0,0E0,0E0,0E0,0E0,0E0,0E0,0E0,0E0,0E0,0E0,0E0,0E0,0E0,0E0,0E0,0E0,0E0,0E0],"parents":[2147483647,0,0,1,1,2,2,3,3,4,4,5,5,6,6,7,7,8,8,9,9,10,10,11,11,12,12,13,13,14,14,15,15,17,17,18,18,19,19,20,20,21,21,22,22,23,23,25,25,26,26,28,28,30,30,31,31,32,32,33,33,34,34,35,35,37,37,38,38,39,39,40,40,41,41,42,42,43,43,48,48,49,49,50,50,52,52,53,53],"right_children":[2,4,6,8,10,12,14,16,18,20,22,24,26,28,30,32,-1,34,36,38,40,42,44,46,-1,48,50,-1,52,-1,54,56,58,60,62,64,-1,66,68,70,72,74,76,78,-1,-1,-1,-1,80,82,84,-1,86,88,-1,-1,-1,-1,-1,-1,-1,-1,-1,-1,-1,-1,-1,-1,-1,-1,-1,-1,-1,-1,-1,-1,-1,-1,-1,-1,-1,-1,-1,-1,-1,-1,-1,-1,-1],"split_conditions":[5E-1,5E0,5.260116E-1,1.2138728E-1,5E1,4E0,1.1E1,3E0,3.846154E-1,2.857143E-1,4.7058824E-1,3.478261E-1,7.619048E-1,5.5555556E-2,9.756097E-2,5.6E1,1.6366737E-1,2.6858685E1,3E0,8.25E0,3.4277778E0,2.9166666E-1,1.1363637E-1,7E0,2.3422776E-2,6.0714287E-1,2.3E0,3.477488E-2,6E0,-8.954229E-2,2E-1,1.116E2,5.0980395E-1,3.478261E-1,3.4039216E0,3.6E1,-1.2777272E-1,2.1428572E-1,4.6E1,3.25E0,3.3333334E-1,3.846154E-1,1.3043478E-1,4.294E2,-9.856881E-2,1.72226E-1,4.129785E-2,2.3422776E-2,3E0,1.1727273E1,4E0,1.879437E-1,6.0714287E-1,1.3636364E-1,-4.466326E-2,1.0632973E-1,-3.8707744E-2,8.726317E-2,-2.3113875E-2,6.875042E-2,-4.8385527E-2,-1.0219705E-1,1.6137268E-2,-6.5471865E-2,4.129785E-2,-5.3175956E-2,-1.6249527E-1,-4.827119E-4,-8.756637E-2,-7.871054E-2,1.0972976E-1,4.5451666E-3,-1.4132729E-1,-1.5878716E-1,-8.387272E-2,3.694785E-2,-1.3294028E-1,-2.1024546E-2,9.228938E-2,1.6701637E-1,2.3422776E-2,5.698197E-2,-5.9848027E-3,1.6366737E-1,1.2950504E-3,4.5265533E-2,1.5621345E-1,3.0115554E-2,1.6701637E-1],"split_indices":[2,0,1,1,5,0,5,0,23,17,36,23,30,21,21,43,0,13,40,12,32,17,22,41,0,38,27,0,5,0,22,10,38,20,32,5,0,1,14,32,22,23,19,9,0,0,0,0,40,12,18,0,38,20,0,0,0,0,0,0,0,0,0,0,0,0,0,0,0,0,0,0,0,0,0,0,0,0,0,0,0,0,0,0,0,0,0,0,0],"split_type":[0,0,0,0,0,0,0,0,0,0,0,0,0,0,0,0,0,0,0,0,0,0,0,0,0,0,0,0,0,0,0,0,0,0,0,0,0,0,0,0,0,0,0,0,0,0,0,0,0,0,0,0,0,0,0,0,0,0,0,0,0,0,0,0,0,0,0,0,0,0,0,0,0,0,0,0,0,0,0,0,0,0,0,0,0,0,0,0,0],"sum_hessian":[4.1695142E2,2.7571786E2,1.4123354E2,7.12417E1,2.0447617E2,8.8239716E1,5.2993824E1,2.5747E1,4.5494698E1,1.25235405E2,7.924077E1,8.499009E0,7.974071E1,4.1745136E1,1.1248689E1,2.1497494E1,4.2495046E0,3.9495396E1,5.999301E0,6.599231E1,5.9243095E1,7.424135E1,4.9994173E0,7.249155E0,1.2498543E0,7.249155E0,7.2491554E1,1.999767E0,3.974537E1,1.749796E0,9.498893E0,1.1998602E1,9.498893E0,2.8246708E1,1.1248689E1,2.7496796E0,3.2496214E0,1.1998602E1,5.3993706E1,1.6748049E1,4.249505E1,6.1242863E1,1.2998486E1,2.9996505E0,1.999767E0,5.74933E0,1.4998252E0,1.2498543E0,5.999301E0,6.674222E1,5.74933E0,2.7246824E1,1.2498544E1,7.249155E0,2.2497377E0,1.0498776E1,1.4998252E0,2.4997087E0,6.999184E0,2.5247057E1,2.9996505E0,5.249388E0,5.999301E0,1.2498543E0,1.4998252E0,1.749796E0,1.0248806E1,1.8747814E1,3.524589E1,1.4998252E0,1.5248223E1,3.999534E1,2.4997087E0,5.524356E1,5.999301E0,3.2496214E0,9.748864E0,1.2498543E0,1.749796E0,4.7494464E0,1.2498543E0,2.4497145E1,4.2245075E1,4.2495046E0,1.4998252E0,4.7494464E0,7.749097E0,2.4997087E0,4.7494464E0],"tree_param":{"num_deleted":"0","num_feature":"46","num_nodes":"89","size_leaf_vector":"1"}},{"base_weights":[1.0395317E-3,-3.9921924E-1,7.7917033E-1,3.2589638E-1,-6.528022E-1,4.55773E-1,1.301155E0,7.207993E-1,9.1824256E-2,-2.3578326E-1,-1.174566E0,1.2784532E0,3.5359663E-1,1.5001552E0,5.019494E-1,5.050277E-1,1.5103707E-1,2.3974925E-1,-7.7890474E-1,-6.755116E-1,2.4884588E-1,6.876639E-2,-1.2082374E0,1.4123607E0,2.2120057E-2,1.1922002E0,2.548924E-1,3.245486E-2,1.5501609E0,-8.400943E-2,8.0574E-1,7.859214E-1,1.0946367E-1,4.9667954E-1,-3.9397728E-1,-1.1229383E-1,-1.18515134E-1,-3.9523157E-1,-1.0671146E0,8.5819715E-1,-1.3810682E-2,-1.267942E0,-2.0886235E-1,1.5832435E-1,3.8819443E-2,5.2895516E-1,1.5173231E-1,1.1671406E-1,8.896055E-1,1.7096628E-1,1.102596E0,1.1901722E0,-4.1600775E-2,9.677323E-2,-3.640345E-2,-2.5014162E-2,7.563236E-2,8.7573655E-2,1.0386876E-2,-1.105618E-1,5.006406E-3,-6.5420076E-2,4.2043697E-2,-9.723395E-2,-1.6028533E-2,5.0645974E-3,-1.1951351E-1,-2.9297668E-2,1.1306572E-1,-4.6023782E-2,2.9047554E-2,-6.905882E-2,-1.3383685E-1,4.8272416E-2,-9.971215E-2,1.2092998E-1,-4.3022465E-2,7.788452E-2,-3.485959E-3,1.0451621E-2,1.1969203E-1,5.0467562E-2,1.513718E-1,2.796236E-2,1.5389436E-1],"categories":[],"categories_nodes":[],"categories_segments":[],"categories_sizes":[],"default_left":[0,0,0,0,0,0,0,0,0,0,0,0,0,0,0,0,0,0,0,0,0,0,0,0,0,0,0,0,0,0,0,0,0,0,0,0,0,0,0,0,0,0,0,0,0,0,0,0,0,0,0,0,0,0,0,0,0,0,0,0,0,0,0,0,0,0,0,0,0,0,0,0,0,0,0,0,0,0,0,0,0,0,0,0,0],"id":1,"left_children":[1,3,5,7,9,11,13,15,17,19,21,23,25,27,29,31,-1,33,35,37,39,-1,41,43,-1,45,47,-1,49,-1,51,53,55,57,59,61,-1,63,65,67,69,71,73,-1,-1,75,-1,77,79,-1,81,83,-1,-1,-1,-1,-1,-1,-1,-1,-1,-1,-1,-1,-1,-1,-1,-1,-1,-1,-1,-1,-1,-1,-1,-1,-1,-1,-1,-1,-1,-1,-1,-1,-1],"loss_changes":[1.3011319E2,5.093771E1,2.3360672E1,6.6024876E0,4.4267075E1,7.0421867E0,7.7945023E0,3.7864056E0,6.168543E0,2.4681969E1,6.517334E0,1.027916E0,6.37494E0,1.9969025E0,5.6577992E0,2.411046E0,0E0,6.783878E0,1.7570033E0,6.227295E0,8.887088E0,0E0,5.071823E0,8.235321E-1,0E0,9.710045E-1,6.339122E0,0E0,1.0080338E0,0E0,5.413817E0,3.0660362E0,2.630198E0,4.261659E0,3.9199739E0,1.3569145E0,0E0,4.846898E0,3.5925217E0,5.5750685E0,5.5312357E0,2.4994202E0,3.882687E0,0E0,0E0,3.287687E0,0E0,6.1973863E0,3.0072422E0,0E0,2.5458393E0,2.1816912E0,0E0,0E0,0E0,0E0,0E0,0E0,0E0,0E0,0E0,0E0,0E0,0E0,0E0,0E0,0E0,0E0,0E0,0E0,0E0,0E0,0E0,0E0,0E0,0E0,0E0,0E0,0E0,0E0,0E0,0E0,0E0,0E0,0E0],"parents":[2147483647,0,0,1,1,2,2,3,3,4,4,5,5,6,6,7,7,8,8,9,9,10,10,11,11,12,12,13,13,14,14,15,15,17,17,18,18,19,19,20,20,22,22,23,23,25,25,26,26,28,28,30,30,31,31,32,32,33,33,34,34,35,35,37,37,38,38,39,39,40,40,41,41,42,42,45,45,47,47,48,48,50,50,51,51],"right_children":[2,4,6,8,10,12,14,16,18,20,22,24,26,28,30,32,-1,34,36,38,40,-1,42,44,-1,46,48,-1,50,-1,52,54,56,58,60,62,-1,64,66,68,70,72,74,-1,-1,76,-1,78,80,-1,82,84,-1,-1,-1,-1,-1,-1,-1,-1,-1,-1,-1,-1,-1,-1,-1,-1,-1,-1,-1,-1,-1,-1,-1,-1,-1,-1,-1,-1,-1,-1,-1,-1,-1],"split_conditions":[5E-1,5E0,5.260116E-1,1.2138728E-1,4.3E1,4E0,1.1E1,3E0,3.846154E-1,2.857143E-1,7.8571427E-1,3.478261E-1,7.619048E-1,5.5555556E-2,9.756097E-2,5.6E1,1.5103707E-1,2.6858685E1,3E0,1.6923077E-1,3.4277778E0,6.876639E-2,4.7058824E-1,7E0,2.2120057E-2,4.5E1,1.0153847E0,3.245486E-2,6E0,-8.400943E-2,2E-1,1.116E2,3E0,3.4625E0,2.875E1,7.111111E0,-1.18515134E-1,9.090909E-2,9.5569986E-1,3.3333335E-2,1.2E1,5E1,1.1363637E-1,1.5832435E-1,3.8819443E-2,5.219539E0,1.5173231E-1,3E0,3.122E2,1.7096628E-1,1.590909E-1,1.3636364E-1,-4.1600775E-2,9.677323E-2,-3.640345E-2,-2.5014162E-2,7.563236E-2,8.7573655E-2,1.0386876E-2,-1.105618E-1,5.006406E-3,-6.5420076E-2,4.2043697E-2,-9.723395E-2,-1.6028533E-2,5.0645974E-3,-1.1951351E-1,-2.9297668E-2,1.1306572E-1,-4.6023782E-2,2.9047554E-2,-6.905882E-2,-1.3383685E-1,4.8272416E-2,-9.971215E-2,1.2092998E-1,-4.3022465E-2,7.788452E-2,-3.485959E-3,1.0451621E-2,1.1969203E-1,5.0467562E-2,1.513718E-1,2.796236E-2,1.5389436E-1],"split_indices":[2,0,1,1,5,0,5,0,23,17,30,23,30,21,21,43,0,13,40,23,32,0,36,41,0,14,34,0,5,0,22,10,40,32,12,12,0,19,26,21,8,5,22,0,0,13,0,5,10,0,22,20,0,0,0,0,0,0,0,0,0,0,0,0,0,0,0,0,0,0,0,0,0,0,0,0,0,0,0,0,0,0,0,0,0],"split_type":[0,0,0,0,0,0,0,0,0,0,0,0,0,0,0,0,0,0,0,0,0,0,0,0,0,0,0,0,0,0,0,0,0,0,0,0,0,0,0,0,0,0,0,0,0,0,0,0,0,0,0,0,0,0,0,0,0,0,0,0,0,0,0,0,0,0,0,0,0,0,0,0,0,0,0,0,0,0,0,0,0,0,0,0,0],"sum_hessian":[4.1576227E2,2.7486353E2,1.4089873E2,7.114386E1,2.0371968E2,8.815509E1,5.274363E1,2.570224E1,4.5441624E1,1.14031815E2,8.968786E1,8.467355E0,7.968774E1,4.152656E1,1.1217068E1,2.147362E1,4.2286224E0,3.946219E1,5.9794316E0,5.9578964E1,5.4452854E1,1.2479118E0,8.843995E1,7.2173557E0,1.2499989E0,7.22497E0,7.246277E1,1.999913E0,3.952665E1,1.7446083E0,9.47246E0,1.1979808E1,9.493811E0,2.8232292E1,1.12298975E1,2.747489E0,3.2319427E0,3.589633E1,2.3682632E1,1.5718733E1,3.873412E1,8.3200645E1,5.2393036E0,5.7175016E0,1.4998543E0,3.2407777E0,3.984192E0,6.0480026E1,1.1982741E1,2.7062326E1,1.2464323E1,7.2249265E0,2.247533E0,1.048117E1,1.4986378E0,6.495887E0,2.9979239E0,1.3742022E1,1.4490271E1,3.742346E0,7.4875517E0,1.248981E0,1.4985079E0,9.477588E0,2.6418743E1,2.4958136E0,2.1186817E1,2.9938948E0,1.2724837E1,1.5492342E1,2.324178E1,1.0220348E1,7.29803E1,2.9972475E0,2.242056E0,1.7434132E0,1.4973646E0,1.0495092E1,4.9984936E1,3.747976E0,8.234766E0,5.986027E0,6.478296E0,2.4999545E0,4.724972E0],"tree_param":{"num_deleted":"0","num_feature":"46","num_nodes":"85","size_leaf_vector":"1"}},{"base_weights":[3.0653076E-3,-3.627976E-1,7.147534E-1,2.960335E-1,-5.941056E-1,4.188668E-1,1.1978732E0,6.0138047E-1,3.5585616E-2,-8.859278E-1,3.0707767E-2,1.1875641E0,3.2430077E-1,1.3828588E0,4.6037477E-1,6.841356E-1,-2.9380245E-2,2.733372E-1,-4.3935102E-1,-5.8876234E-1,-1.2148468E0,9.3778604E-1,-2.0332305E-1,1.3956897E-1,4.3022153E-1,1.011721E0,2.1926722E-1,8.662951E-1,1.5344535E-1,-7.900624E-2,7.450958E-1,7.538719E-1,-1.3627104E-2,4.3280682E-1,-6.2766236E-1,-6.2158716E-1,5.135672E-2,-1.2926381E0,-4.2903996E-1,-1.2806877E0,-1.6617538E-1,1.2373586E0,-1.00876644E-1,3.6727476E-1,-4.8166054E-1,1.1176853E-2,5.559444E-2,6.0598914E-2,1.3419813E0,3.4424642E-1,-4.260669E-1,-2.498586E-2,1.1531107E0,1.1047539E0,-3.8772598E-2,8.851417E-2,2.4620263E-2,5.7240248E-2,-8.434705E-2,-1.0501955E-1,2.621724E-2,-9.5028356E-2,2.6625663E-3,-4.5836505E-2,-1.378431E-1,5.413233E-2,-5.7106484E-2,-1.3032912E-1,-2.1616044E-2,-6.734544E-2,2.4155442E-2,4.622865E-3,1.4245991E-1,7.019865E-2,-8.620964E-2,8.92585E-2,-3.2446645E-2,-6.5050595E-2,7.703415E-2,7.112229E-2,-6.862646E-2,1.5188138E-1,3.6554445E-2,1.7140396E-2,1.0253804E-1,-8.181844E-2,4.1068222E-2,8.295449E-3,1.3006894E-1,2.5971163E-2,1.4328556E-1],"categories":[],"categories_nodes":[],"categories_segments":[],"categories_sizes":[],"default_left":[0,0,0,0,0,0,0,0,0,0,0,0,0,0,0,0,0,0,0,0,0,0,0,0,0,0,0,0,0,0,0,0,0,0,0,0,0,0,0,0,0,0,0,0,0,0,0,0,0,0,0,0,0,0,0,0,0,0,0,0,0,0,0,0,0,0,0,0,0,0,0,0,0,0,0,0,0,0,0,0,0,0,0,0,0,0,0,0,0,0,0],"id":2,"left_children":[1,3,5,7,9,11,13,15,17,19,21,23,25,27,29,31,-1,33,35,37,39,41,43,-1,45,47,49,51,-1,-1,53,55,-1,57,59,61,-1,63,65,67,69,71,73,75,77,-1,-1,79,81,83,85,-1,87,89,-1,-1,-1,-1,-1,-1,-1,-1,-1,-1,-1,-1,-1,-1,-1,-1,-1,-1,-1,-1,-1,-1,-1,-1,-1,-1,-1,-1,-1,-1,-1,-1,-1,-1,-1,-1,-1],"loss_changes":[1.0803621E2,4.193839E1,1.9636307E1,5.694973E0,3.7071243E1,6.077648E0,6.5899734E0,2.64752E0,4.6203694E0,1.282402E1,1.4126435E1,8.754358E-1,5.5934725E0,1.9478683E0,4.9041514E0,1.8494558E0,0E0,4.1763253E0,2.6946712E0,7.844927E0,4.261757E0,4.369505E0,8.595089E0,0E0,7.655394E-2,3.1850386E0,5.88463E0,4.062936E0,0E0,0E0,4.6606317E0,1.6674976E0,0E0,4.7018824E0,1.965279E0,2.568325E0,0E0,3.2164192E-1,8.90761E0,1.1819458E0,1.1922054E0,2.312355E0,3.036602E0,6.8107843E0,8.12381E0,0E0,0E0,2.2993226E0,7.6935005E-1,6.9061003E0,4.2698283E0,0E0,1.4017782E0,1.8859701E0,0E0,0E0,0E0,0E0,0E0,0E0,0E0,0E0,0E0,0E0,0E0,0E0,0E0,0E0,0E0,0E0,0E0,0E0,0E0,0E0,0E0,0E0,0E0,0E0,0E0,0E0,0E0,0E0,0E0,0E0,0E0,0E0,0E0,0E0,0E0,0E0,0E0],"parents":[2147483647,0,0,1,1,2,2,3,3,4,4,5,5,6,6,7,7,8,8,9,9,10,10,11,11,12,12,13,13,14,14,15,15,17,17,18,18,19,19,20,20,21,21,22,22,24,24,25,25,26,26,27,27,30,30,31,31,33,33,34,34,35,35,37,37,38,38,39,39,40,40,41,41,42,42,43,43,44,44,47,47,48,48,49,49,50,50,52,52,53,53],"right_children":[2,4,6,8,10,12,14,16,18,20,22,24,26,28,30,32,-1,34,36,38,40,42,44,-1,46,48,50,52,-1,-1,54,56,-1,58,60,62,-1,64,66,68,70,72,74,76,78,-1,-1,80,82,84,86,-1,88,90,-1,-1,-1,-1,-1,-1,-1,-1,-1,-1,-1,-1,-1,-1,-1,-1,-1,-1,-1,-1,-1,-1,-1,-1,-1,-1,-1,-1,-1,-1,-1,-1,-1,-1,-1,-1,-1],"split_conditions":[5E-1,5E0,5.260116E-1,1.4E-1,2.9166666E-1,4E0,1.1E1,5.3846157E-1,4.9E1,5E1,3.42E0,2.5714287E-1,7.8571427E-1,3.788E2,9.756097E-2,1.83E2,-2.9380245E-2,8.2E1,3.529412E-1,8.25E0,3.6363637E-1,4.2857143E-1,1.1363637E-1,1.3956897E-1,4E0,2.31E2,3E-1,3.75E-1,1.5344535E-1,-7.900624E-2,2E-1,9E1,-1.3627104E-2,3.846154E-1,3E0,1.9428572E1,5.135672E-2,2.1428572E-1,1.2083333E1,3.0625E0,1.5E-1,2.4E1,1.4669071E0,3.6E1,9.4E1,1.1176853E-2,5.559444E-2,8.802E2,2.5490198E-1,2E0,3.955E2,-2.498586E-2,7.692308E-2,1.3636364E-1,-3.8772598E-2,8.851417E-2,2.4620263E-2,5.7240248E-2,-8.434705E-2,-1.0501955E-1,2.621724E-2,-9.5028356E-2,2.6625663E-3,-4.5836505E-2,-1.378431E-1,5.413233E-2,-5.7106484E-2,-1.3032912E-1,-2.1616044E-2,-6.734544E-2,2.4155442E-2,4.622865E-3,1.4245991E-1,7.019865E-2,-8.620964E-2,8.92585E-2,-3.2446645E-2,-6.5050595E-2,7.703415E-2,7.112229E-2,-6.862646E-2,1.5188138E-1,3.6554445E-2,1.7140396E-2,1.0253804E-1,-8.181844E-2,4.1068222E-2,8.295449E-3,1.3006894E-1,2.5971163E-2,1.4328556E-1],"split_indices":[2,0,1,1,17,0,5,19,5,5,32,20,30,10,21,10,0,14,22,12,36,17,22,0,5,10,20,34,0,0,22,5,0,23,18,12,0,1,12,27,19,14,26,14,43,0,0,9,19,4,10,0,22,20,0,0,0,0,0,0,0,0,0,0,0,0,0,0,0,0,0,0,0,0,0,0,0,0,0,0,0,0,0,0,0,0,0,0,0,0,0],"split_type":[0,0,0,0,0,0,0,0,0,0,0,0,0,0,0,0,0,0,0,0,0,0,0,0,0,0,0,0,0,0,0,0,0,0,0,0,0,0,0,0,0,0,0,0,0,0,0,0,0,0,0,0,0,0,0,0,0,0,0,0,0,0,0,0,0,0,0,0,0,0,0,0,0,0,0,0,0,0,0,0,0,0,0,0,0,0,0,0,0,0,0],"sum_hessian":[4.1292117E2,2.7304507E2,1.3987613E2,7.0879684E1,2.0216537E2,8.7905464E1,5.197066E1,3.2024914E1,3.8854767E1,1.3751868E2,6.46467E1,8.363466E0,7.9542E1,4.0849407E1,1.1121257E1,2.9530708E1,2.494207E0,2.6175755E1,1.2679012E1,7.37124E1,6.380628E1,1.2641705E1,5.2004993E1,5.8993797E0,2.4640863E0,9.398518E0,7.014348E1,1.0791518E1,3.0057888E1,1.7334462E0,9.387811E0,2.7291937E1,2.2387724E0,2.2681032E1,3.4947221E0,1.0935423E1,1.7435895E0,1.2321247E1,6.1391155E1,5.9828686E1,3.9775941E0,9.663301E0,2.978403E0,1.6945934E1,3.505906E1,1.2321322E0,1.2319541E0,2.7273793E0,6.6711383E0,5.9153942E1,1.0989538E1,2.2325027E0,8.559015E0,7.1443405E0,2.2434702E0,2.1094036E1,6.1979003E0,2.0941965E1,1.7390674E0,2.2473612E0,1.2473611E0,6.9468184E0,3.9886043E0,1.7403471E0,1.05809E1,7.479198E0,5.3911957E1,5.8365105E1,1.4635783E0,1.4820174E0,2.4955766E0,1.4820623E0,8.181239E0,1.4874227E0,1.4909804E0,9.466616E0,7.479319E0,3.1316175E1,3.742883E0,1.4831052E0,1.2442743E0,5.177947E0,1.493191E0,4.8179665E1,1.09742775E1,7.498008E0,3.4915307E0,1.2265903E0,7.3324246E0,2.4991677E0,4.6451726E0],"tree_param":{"num_deleted":"0","num_feature":"46","num_nodes":"91","size_leaf_vector":"1"}},{"base_weights":[4.0880973E-3,-3.3070412E-1,6.5647864E-1,2.6636106E-1,-5.41796E-1,3.8405845E-1,1.1091484E0,6.0915697E-1,6.451508E-2,-1.8632385E-1,-9.96465E-1,1.1070083E0,2.9616493E-1,1.4289405E0,7.048119E-1,4.0844706E-1,1.3657905E-1,1.9345343E-1,-6.9783115E-1,-5.620679E-1,2.2529465E-1,6.7649744E-2,-1.0282818E0,1.2381927E0,1.4623851E-2,4.6377044E-2,5.6276363E-1,1.32313175E-2,1.4841377E0,1.2789181E0,3.426344E-1,6.581102E-1,6.378508E-2,4.2606595E-1,-3.619298E-1,-9.411063E-1,1.1762706E-2,-3.0909076E-1,-9.8643106E-1,6.771097E-1,-2.082573E-2,-8.9147E-1,-1.4472156E0,1.4025582E-1,3.121472E-2,-1.7200328E-1,6.587735E-1,1.0243505E0,1.8058725E-1,4.4388246E-2,1.5153578E-1,1.5444426E-1,-7.390925E-3,1.2827896E-1,6.994555E-2,8.277681E-2,-3.7491597E-2,7.7369146E-2,-2.5399396E-2,5.3161778E-2,-1.0608172E-1,-7.274418E-2,2.8204426E-2,-1.557172E-2,-1.1359745E-1,-6.891806E-2,1.8171625E-2,-1.227976E-1,4.1812833E-2,-2.4457393E-2,9.892733E-2,-4.7235746E-2,4.026909E-2,-1.022686E-1,-2.2869913E-2,-1.5740922E-1,-8.404103E-2,5.21878E-2,-4.6250854E-2,-7.212425E-2,8.984523E-2,1.3053338E-1,3.1173287E-2,-7.022853E-2,3.389488E-2,4.693496E-2,-6.469851E-2],"categories":[],"categories_nodes":[],"categories_segments":[],"categories_sizes":[],"default_left":[0,0,0,0,0,0,0,0,0,0,0,0,0,0,0,0,0,0,0,0,0,0,0,0,0,0,0,0,0,0,0,0,0,0,0,0,0,0,0,0,0,0,0,0,0,0,0,0,0,0,0,0,0,0,0,0,0,0,0,0,0,0,0,0,0,0,0,0,0,0,0,0,0,0,0,0,0,0,0,0,0,0,0,0,0,0,0],"id":3,"left_children":[1,3,5,7,9,11,13,15,17,19,21,23,25,27,29,31,-1,33,35,37,39,-1,41,43,-1,45,47,-1,49,51,53,55,57,59,61,63,-1,65,67,69,71,73,75,-1,-1,77,79,81,83,-1,-1,-1,-1,-1,85,-1,-1,-1,-1,-1,-1,-1,-1,-1,-1,-1,-1,-1,-1,-1,-1,-1,-1,-1,-1,-1,-1,-1,-1,-1,-1,-1,-1,-1,-1,-1,-1],"loss_changes":[8.977823E1,3.4382004E1,1.676419E1,4.9166474E0,3.2304405E1,5.299198E0,5.6963844E0,3.4553595E0,4.6762247E0,1.7765896E1,5.378395E0,9.827585E-1,5.3227715E0,1.8057861E0,4.732664E0,1.8780131E0,0E0,5.36041E0,1.4796369E0,6.1265984E0,6.1457644E0,0E0,3.6808014E0,7.7845955E-1,0E0,5.8048286E0,6.6532097E0,0E0,1.9561386E-1,3.4381914E0,4.169785E0,2.5593405E0,2.5608191E0,5.093693E0,3.1325462E0,6.5355253E-1,0E0,7.3988895E0,7.9497433E0,5.8451023E0,7.2018633E0,5.678356E0,1.974144E-1,0E0,0E0,6.724888E0,4.4166794E0,3.0658684E0,3.3726387E0,0E0,0E0,0E0,0E0,0E0,4.2944016E0,0E0,0E0,0E0,0E0,0E0,0E0,0E0,0E0,0E0,0E0,0E0,0E0,0E0,0E0,0E0,0E0,0E0,0E0,0E0,0E0,0E0,0E0,0E0,0E0,0E0,0E0,0E0,0E0,0E0,0E0,0E0,0E0],"parents":[2147483647,0,0,1,1,2,2,3,3,4,4,5,5,6,6,7,7,8,8,9,9,10,10,11,11,12,12,13,13,14,14,15,15,17,17,18,18,19,19,20,20,22,22,23,23,25,25,26,26,28,28,29,29,30,30,31,31,32,32,33,33,34,34,35,35,37,37,38,38,39,39,40,40,41,41,42,42,45,45,46,46,47,47,48,48,54,54],"right_children":[2,4,6,8,10,12,14,16,18,20,22,24,26,28,30,32,-1,34,36,38,40,-1,42,44,-1,46,48,-1,50,52,54,56,58,60,62,64,-1,66,68,70,72,74,76,-1,-1,78,80,82,84,-1,-1,-1,-1,-1,86,-1,-1,-1,-1,-1,-1,-1,-1,-1,-1,-1,-1,-1,-1,-1,-1,-1,-1,-1,-1,-1,-1,-1,-1,-1,-1,-1,-1,-1,-1,-1,-1],"split_conditions":[5E-1,5E0,5.260116E-1,1.2138728E-1,4.3E1,4E0,6E0,3E0,3.846154E-1,2.857143E-1,7.8571427E-1,3.478261E-1,1.3579779E0,5.5555556E-2,1.2903225E-1,5.6E1,1.3657905E-1,1.0132315E0,3.3333335E-2,3.47E0,3.442857E0,6.7649744E-2,1.1974367E0,7E0,1.4623851E-2,1.2285714E0,7E0,1.32313175E-2,1.3795824E0,4E0,8.695652E-1,1.116E2,5.0980395E-1,8.2E1,4.1666668E-2,3.3E1,1.1762706E-2,3.43E0,9.3E1,3.3333335E-2,1.5625E-1,1.4367E3,2.6086956E-1,1.4025582E-1,3.121472E-2,1.14E1,4.5238094E0,3.4846153E0,9.090909E-2,4.4388246E-2,1.5153578E-1,1.5444426E-1,-7.390925E-3,1.2827896E-1,1.127987E0,8.277681E-2,-3.7491597E-2,7.7369146E-2,-2.5399396E-2,5.3161778E-2,-1.0608172E-1,-7.274418E-2,2.8204426E-2,-1.557172E-2,-1.1359745E-1,-6.891806E-2,1.8171625E-2,-1.227976E-1,4.1812833E-2,-2.4457393E-2,9.892733E-2,-4.7235746E-2,4.026909E-2,-1.022686E-1,-2.2869913E-2,-1.5740922E-1,-8.404103E-2,5.21878E-2,-4.6250854E-2,-7.212425E-2,8.984523E-2,1.3053338E-1,3.1173287E-2,-7.022853E-2,3.389488E-2,4.693496E-2,-6.469851E-2],"split_indices":[2,0,1,1,5,0,5,0,23,17,30,23,26,21,23,43,0,15,21,32,32,0,15,41,0,28,5,0,26,18,30,10,38,14,19,43,0,32,14,21,23,9,22,0,0,12,12,32,19,0,0,0,0,0,15,0,0,0,0,0,0,0,0,0,0,0,0,0,0,0,0,0,0,0,0,0,0,0,0,0,0,0,0,0,0,0,0],"split_type":[0,0,0,0,0,0,0,0,0,0,0,0,0,0,0,0,0,0,0,0,0,0,0,0,0,0,0,0,0,0,0,0,0,0,0,0,0,0,0,0,0,0,0,0,0,0,0,0,0,0,0,0,0,0,0,0,0,0,0,0,0,0,0,0,0,0,0,0,0,0,0,0,0,0,0,0,0,0,0,0,0,0,0,0,0,0,0],"sum_hessian":[4.090497E2,2.7065085E2,1.3839886E2,7.0626045E1,2.0002481E2,8.755563E1,5.084323E1,2.5426382E1,4.519966E1,1.13049515E2,8.697529E1,8.233967E0,7.932167E1,2.6974728E1,2.3868504E1,2.1312658E1,4.1137233E0,3.9299103E1,5.9005594E0,5.8909103E1,5.414041E1,1.2450824E0,8.573021E1,6.9907E0,1.2432672E0,4.155807E1,3.77636E1,1.2401291E0,2.5734598E1,8.253794E0,1.561471E1,1.1832269E1,9.48039E0,2.7862309E1,1.1436795E1,4.4260545E0,1.474505E0,3.799022E1,2.0918884E1,1.8474588E1,3.5665825E1,6.698332E1,1.8746881E1,5.4999385E0,1.4907614E0,3.1164095E1,1.0393973E1,1.6343662E1,2.1419937E1,1.1932505E0,2.4541348E1,6.7811847E0,1.4726089E0,2.6778853E0,1.2936825E1,1.0333804E1,1.498465E0,2.4878788E0,6.992511E0,2.661538E1,1.2469281E0,7.2131076E0,4.223687E0,1.2375145E0,3.1885397E0,2.1182178E1,1.6808039E1,1.7956577E1,2.9623063E0,4.7288537E0,1.3745734E1,1.720617E1,1.8459656E1,5.5460217E1,1.1523107E1,1.4186558E1,4.560324E0,8.961886E0,2.220221E1,1.2407594E0,9.153214E0,1.11252575E1,5.2184052E0,2.73538E0,1.8684557E1,8.530047E0,4.406778E0],"tree_param":{"num_deleted":"0","num_feature":"46","num_nodes":"87","size_leaf_vector":"1"}},{"base_weights":[4.879909E-3,-3.0253184E-1,6.0504794E-1,2.4163012E-1,-4.9610698E-1,3.5161746E-1,1.0345641E0,5.1173717E-1,1.3051257E-2,-1.694073E-1,-9.2012936E-1,1.0754567E0,2.6668438E-1,1.2047435E0,3.7899238E-1,5.853538E-1,-2.7051693E-2,2.2106932E-1,-4.0082514E-1,-4.7074375E-1,2.587881E-1,6.392115E-2,-9.504993E-1,1.3635729E-1,4.675177E-1,3.0926564E-1,-1.1814865E-1,5.238954E-1,1.3025482E0,-7.4919865E-2,6.432933E-1,6.4740694E-1,-1.3191017E-2,-4.3177187E-1,4.06284E-1,-5.680719E-1,4.7222298E-2,-9.674782E-1,-2.739236E-1,9.16691E-1,3.280705E-2,-1.0180109E0,-2.5655913E-1,-4.4968247E-2,1.0904198E-1,4.1651443E-1,-2.0994212E-1,-6.8567514E-2,9.3014514E-1,3.810546E-2,1.3448272E0,9.858691E-1,-3.9300494E-2,7.735303E-2,1.715896E-2,-1.02908075E-1,2.8166741E-2,5.476296E-2,-7.735102E-2,-9.6276015E-2,-8.590896E-3,-3.166625E-2,-1.279277E-1,9.252559E-2,-3.9799754E-2,1.2744172E-1,-1.4636546E-2,1.0672712E-1,-1.0079899E-2,-1.2026975E-1,-7.227398E-2,-6.348252E-2,1.1521856E-1,1.3162965E-1,3.2969512E-2,4.4744756E-2,-6.375407E-2,1.2245312E-2,1.18337154E-1,4.255396E-2,1.3887423E-1,2.1115003E-2,1.3018069E-1],"categories":[],"categories_nodes":[],"categories_segments":[],"categories_sizes":[],"default_left":[0,0,0,0,0,0,0,0,0,0,0,0,0,0,0,0,0,0,0,0,0,0,0,0,0,0,0,0,0,0,0,0,0,0,0,0,0,0,0,0,0,0,0,0,0,0,0,0,0,0,0,0,0,0,0,0,0,0,0,0,0,0,0,0,0,0,0,0,0,0,0,0,0,0,0,0,0,0,0,0,0,0,0],"id":4,"left_children":[1,3,5,7,9,11,13,15,17,19,21,23,25,27,29,31,-1,33,35,37,39,-1,41,-1,43,45,-1,47,49,-1,51,53,-1,55,57,59,-1,61,63,65,67,69,71,-1,-1,73,75,-1,77,-1,79,81,-1,-1,-1,-1,-1,-1,-1,-1,-1,-1,-1,-1,-1,-1,-1,-1,-1,-1,-1,-1,-1,-1,-1,-1,-1,-1,-1,-1,-1,-1,-1],"loss_changes":[7.4974655E1,2.842754E1,1.4618809E1,4.3884177E0,2.734885E1,5.1281385E0,5.184292E0,2.0358505E0,3.4964893E0,1.475012E1,4.6887894E0,9.248924E-1,5.308433E0,1.9600525E0,4.0241203E0,1.4257593E0,0E0,3.4386477E0,2.253432E0,6.2753315E0,7.0279775E0,0E0,3.7179413E0,0E0,2.9983766E0,4.4677215E0,0E0,3.9090567E0,8.131561E-1,0E0,3.9952521E0,1.540762E0,0E0,3.0381403E0,4.015313E0,2.1750402E0,0E0,3.3671265E0,7.7045813E0,4.788087E0,5.1347346E0,3.3334808E0,5.456711E0,0E0,0E0,4.6851845E0,4.257708E0,0E0,9.611473E-1,0E0,7.0643234E-1,1.6643062E0,0E0,0E0,0E0,0E0,0E0,0E0,0E0,0E0,0E0,0E0,0E0,0E0,0E0,0E0,0E0,0E0,0E0,0E0,0E0,0E0,0E0,0E0,0E0,0E0,0E0,0E0,0E0,0E0,0E0,0E0,0E0],"parents":[2147483647,0,0,1,1,2,2,3,3,4,4,5,5,6,6,7,7,8,8,9,9,10,10,11,11,12,12,13,13,14,14,15,15,17,17,18,18,19,19,20,20,22,22,24,24,25,25,27,27,28,28,30,30,31,31,33,33,34,34,35,35,37,37,38,38,39,39,40,40,41,41,42,42,45,45,46,46,48,48,50,50,51,51],"right_children":[2,4,6,8,10,12,14,16,18,20,22,24,26,28,30,32,-1,34,36,38,40,-1,42,-1,44,46,-1,48,50,-1,52,54,-1,56,58,60,-1,62,64,66,68,70,72,-1,-1,74,76,-1,78,-1,80,82,-1,-1,-1,-1,-1,-1,-1,-1,-1,-1,-1,-1,-1,-1,-1,-1,-1,-1,-1,-1,-1,-1,-1,-1,-1,-1,-1,-1,-1,-1,-1],"split_conditions":[5E-1,5E0,5.260116E-1,1.4E-1,4.3E1,7.619048E-1,1.1E1,5.3846157E-1,4.9E1,2.9166666E-1,7.8571427E-1,1.724138E-1,5.2708633E1,2.777778E-1,9.756097E-2,1.83E2,-2.7051693E-2,1.3E1,3.529412E-1,4.1666668E-2,3.42E0,6.392115E-2,3.846154E-1,1.3635729E-1,2E0,3E-1,-1.1814865E-1,3.255E2,5.882353E-2,-7.4919865E-2,2E-1,9E1,-1.3191017E-2,6.202E2,3.846154E-1,1.8375E1,4.7222298E-2,1.3914421E1,1.15384616E-1,4.2857143E-1,3.5E-1,1.0285714E1,1.222E3,-4.4968247E-2,1.0904198E-1,4E0,2.1428572E-1,-6.8567514E-2,1E0,3.810546E-2,5.263158E-2,1.3636364E-1,-3.9300494E-2,7.735303E-2,1.715896E-2,-1.02908075E-1,2.8166741E-2,5.476296E-2,-7.735102E-2,-9.6276015E-2,-8.590896E-3,-3.166625E-2,-1.279277E-1,9.252559E-2,-3.9799754E-2,1.2744172E-1,-1.4636546E-2,1.0672712E-1,-1.0079899E-2,-1.2026975E-1,-7.227398E-2,-6.348252E-2,1.1521856E-1,1.3162965E-1,3.2969512E-2,4.4744756E-2,-6.375407E-2,1.2245312E-2,1.18337154E-1,4.255396E-2,1.3887423E-1,2.1115003E-2,1.3018069E-1],"split_indices":[2,0,1,1,5,30,5,19,5,17,30,21,13,38,21,10,0,5,22,19,32,0,23,0,16,20,0,10,20,0,22,5,0,9,23,12,0,13,19,17,33,12,9,0,0,8,1,0,18,0,22,20,0,0,0,0,0,0,0,0,0,0,0,0,0,0,0,0,0,0,0,0,0,0,0,0,0,0,0,0,0,0,0],"split_type":[0,0,0,0,0,0,0,0,0,0,0,0,0,0,0,0,0,0,0,0,0,0,0,0,0,0,0,0,0,0,0,0,0,0,0,0,0,0,0,0,0,0,0,0,0,0,0,0,0,0,0,0,0,0,0,0,0,0,0,0,0,0,0,0,0,0,0,0,0,0,0,0,0,0,0,0,0,0,0,0,0,0,0],"sum_hessian":[4.0437738E2,2.6773624E2,1.3664111E2,7.018629E1,1.9754996E2,8.707958E1,4.9561543E1,3.1602947E1,3.8583344E1,1.1237052E2,8.5179436E1,7.919919E0,7.915966E1,3.868233E1,1.087921E1,2.911472E1,2.4882276E0,2.5987597E1,1.2595747E1,6.589705E1,4.6473476E1,1.2442868E0,8.393515E1,4.5300713E0,3.3898478E0,7.766255E1,1.4971045E0,5.6572266E0,3.3025105E1,1.7166978E0,9.162512E0,2.6886097E1,2.2286224E0,5.449191E0,2.0538404E1,1.086391E1,1.7318374E0,1.7589397E1,4.8307648E1,1.1100345E1,3.5373135E1,7.606773E1,7.86742E0,1.4835137E0,1.9063339E0,6.453072E1,1.3131833E1,1.2494097E0,4.407817E0,1.8879973E0,3.1137108E1,6.922695E0,2.2398174E0,2.0758121E1,6.1279745E0,2.7251809E0,2.7240105E0,1.881955E1,1.7188556E0,5.425752E0,5.4381576E0,6.3502197E0,1.1239178E1,3.924069E0,4.438358E1,8.156724E0,2.9436202E0,3.2467217E0,3.212641E1,4.4906395E1,3.1161339E1,6.635162E0,1.2322582E0,4.4324255E0,6.0098297E1,5.1570177E0,7.9748154E0,1.4061921E0,3.0016248E0,1.9070189E0,2.923009E1,2.4886181E0,4.434077E0],"tree_param":{"num_deleted":"0","num_feature":"46","num_nodes":"83","size_leaf_vector":"1"}},{"base_weights":[5.6767985E-3,-2.7611282E-1,5.576807E-1,2.1724966E-1,-4.5315588E-1,3.2113448E-1,9.6893215E-1,5.192313E-1,4.1509982E-2,-1.821916E-1,-9.008068E-1,1.0132667E0,2.4143782E-1,1.2779688E0,5.954666E-1,3.3049017E-1,1.2566097E-1,1.5463181E-1,-6.30195E-1,-5.4142743E-1,1.1192845E-1,-9.626511E-1,-2.7954495E-2,1.287062E-1,4.4053704E-1,2.814241E-1,-1.1144147E-1,8.862446E-3,1.3400677E0,1.1468031E0,2.577224E-1,1.1274222E-1,2.0831992E-1,3.6637902E-1,-3.613492E-1,-8.7413764E-1,1.5597847E-2,-2.4465238E-1,-9.981919E-1,1.2726092E-2,1.1610268E0,-1.0686144E0,-5.798265E-1,5.082932E-1,-7.502925E-2,-4.2249672E-2,1.0367276E-1,1.6550477E-1,7.3368245E-1,4.0308453E-2,1.3696897E0,1.3979617E-1,-7.7407635E-3,1.1608392E-1,4.032363E-3,-3.054542E-2,3.704223E-2,1.164933E-2,9.165656E-2,-8.985562E-2,1.6847849E-2,-1.3004008E-2,-1.06431544E-1,-1.0623217E-1,-7.029954E-4,-1.1145096E-1,1.4754878E-3,-7.568506E-3,1.02112986E-1,1.3274214E-1,3.980538E-2,-1.1053076E-1,-2.3692392E-2,7.817403E-3,-1.1736911E-1,-1.318708E-2,8.4648155E-2,4.7595866E-2,-6.337759E-3,9.562759E-2,-6.780312E-2,4.983665E-2,1.4078234E-1,-8.978232E-2,2.7855054E-2],"categories":[],"categories_nodes":[],"categories_segments":[],"categories_sizes":[],"default_left":[0,0,0,0,0,0,0,0,0,0,0,0,0,0,0,0,0,0,0,0,0,0,0,0,0,0,0,0,0,0,0,0,0,0,0,0,0,0,0,0,0,0,0,0,0,0,0,0,0,0,0,0,0,0,0,0,0,0,0,0,0,0,0,0,0,0,0,0,0,0,0,0,0,0,0,0,0,0,0,0,0,0,0,0,0],"id":5,"left_children":[1,3,5,7,9,11,13,15,17,19,21,23,25,27,29,31,-1,33,35,37,39,41,43,-1,45,47,-1,-1,49,51,53,-1,55,57,59,61,-1,63,65,67,69,71,73,75,-1,-1,-1,77,79,-1,81,-1,-1,-1,83,-1,-1,-1,-1,-1,-1,-1,-1,-1,-1,-1,-1,-1,-1,-1,-1,-1,-1,-1,-1,-1,-1,-1,-1,-1,-1,-1,-1,-1,-1],"loss_changes":[6.2410835E1,2.3301407E1,1.2879669E1,3.7372947E0,2.3587757E1,4.5862465E0,4.8963966E0,3.1988492E0,3.5820422E0,1.3081291E1,3.945076E0,8.020029E-1,4.6426363E0,1.7978363E0,4.186119E0,1.9103107E0,0E0,4.5084043E0,1.4418023E0,7.299122E0,7.123233E0,2.1665344E0,2.6661375E0,0E0,2.6731834E0,3.9865937E0,0E0,0E0,1.3044739E-1,2.8302517E0,3.7103143E0,0E0,1.8063993E0,3.8657928E0,3.6117344E0,6.1817694E-1,0E0,6.8037357E0,2.5604324E0,5.75394E0,2.2244167E-1,1.3435669E0,6.7643814E0,9.7358656E-1,0E0,0E0,0E0,4.5539446E0,5.5805187E0,0E0,7.659149E-2,0E0,0E0,0E0,3.6325495E0,0E0,0E0,0E0,0E0,0E0,0E0,0E0,0E0,0E0,0E0,0E0,0E0,0E0,0E0,0E0,0E0,0E0,0E0,0E0,0E0,0E0,0E0,0E0,0E0,0E0,0E0,0E0,0E0,0E0,0E0],"parents":[2147483647,0,0,1,1,2,2,3,3,4,4,5,5,6,6,7,7,8,8,9,9,10,10,11,11,12,12,13,13,14,14,15,15,17,17,18,18,19,19,20,20,21,21,22,22,24,24,25,25,28,28,29,29,30,30,32,32,33,33,34,34,35,35,37,37,38,38,39,39,40,40,41,41,42,42,43,43,47,47,48,48,50,50,54,54],"right_children":[2,4,6,8,10,12,14,16,18,20,22,24,26,28,30,32,-1,34,36,38,40,42,44,-1,46,48,-1,-1,50,52,54,-1,56,58,60,62,-1,64,66,68,70,72,74,76,-1,-1,-1,78,80,-1,82,-1,-1,-1,84,-1,-1,-1,-1,-1,-1,-1,-1,-1,-1,-1,-1,-1,-1,-1,-1,-1,-1,-1,-1,-1,-1,-1,-1,-1,-1,-1,-1,-1,-1],"split_conditions":[5E-1,5E0,5.260116E-1,1.2138728E-1,5E1,7.619048E-1,6E0,3E0,3.846154E-1,2.5E-1,4.7058824E-1,1.724138E-1,5.2708633E1,4E-1,1.2903225E-1,3E0,1.2566097E-1,2.6858685E1,3.3333335E-2,3.47E0,3.75E-1,1.222E3,1.1363637E-1,1.287062E-1,2E0,3.15E2,-1.1144147E-1,8.862446E-3,1.3795824E0,4E0,8.695652E-1,1.1274222E-1,2.1E1,3E0,3.4039216E0,3.3E1,1.5597847E-2,7.8333335E0,3.8183765E1,1.4228141E0,1.2903225E-1,4.2857143E-1,9.143786E-1,4.294E2,-7.502925E-2,-4.2249672E-2,1.0367276E-1,3.5E1,3.478261E-1,4.0308453E-2,1.988E2,1.3979617E-1,-7.7407635E-3,1.1608392E-1,3.809524E-1,-3.054542E-2,3.704223E-2,1.164933E-2,9.165656E-2,-8.985562E-2,1.6847849E-2,-1.3004008E-2,-1.06431544E-1,-1.0623217E-1,-7.029954E-4,-1.1145096E-1,1.4754878E-3,-7.568506E-3,1.02112986E-1,1.3274214E-1,3.980538E-2,-1.1053076E-1,-2.3692392E-2,7.817403E-3,-1.1736911E-1,-1.318708E-2,8.4648155E-2,4.7595866E-2,-6.337759E-3,9.562759E-2,-6.780312E-2,4.983665E-2,1.4078234E-1,-8.978232E-2,2.7855054E-2],"split_indices":[2,0,1,1,5,30,5,0,23,17,36,21,13,33,23,5,0,13,21,32,21,9,22,0,16,11,0,0,26,18,30,0,5,18,32,43,0,12,13,15,20,24,15,9,0,0,0,43,21,0,10,0,0,0,17,0,0,0,0,0,0,0,0,0,0,0,0,0,0,0,0,0,0,0,0,0,0,0,0,0,0,0,0,0,0],"split_type":[0,0,0,0,0,0,0,0,0,0,0,0,0,0,0,0,0,0,0,0,0,0,0,0,0,0,0,0,0,0,0,0,0,0,0,0,0,0,0,0,0,0,0,0,0,0,0,0,0,0,0,0,0,0,0,0,0,0,0,0,0,0,0,0,0,0,0,0,0,0,0,0,0,0,0,0,0,0,0,0,0,0,0,0,0],"sum_hessian":[3.9923953E2,2.6464307E2,1.3459647E2,6.9827896E1,1.9481517E2,8.657853E1,4.801793E1,2.4968615E1,4.485928E1,1.2223375E2,7.258141E1,7.730275E0,7.884825E1,2.4950161E1,2.3067768E1,2.1033121E1,3.9354925E0,3.9052277E1,5.807001E0,5.464723E1,6.7586525E1,6.768299E1,4.8984294E0,4.386197E0,3.3440783E0,7.7359245E1,1.4890116E0,1.3585124E0,2.359165E1,7.8529944E0,1.5214774E1,1.7020633E0,1.9331059E1,2.7894802E1,1.11574745E1,4.346448E0,1.4605532E0,3.4055714E1,2.0591513E1,6.267238E1,4.914146E0,5.1607098E1,1.6075888E1,2.981415E0,1.9170142E0,1.4853108E0,1.8587675E0,6.266372E1,1.4695525E1,1.1706315E0,2.2421019E1,6.398378E0,1.4546167E0,2.5524464E0,1.2662328E1,4.4242687E0,1.490679E1,2.0015722E1,7.8790803E0,5.1945925E0,5.962882E0,1.2274923E0,3.1189556E0,6.8869133E0,2.7168802E1,1.8380589E1,2.210925E0,5.847092E1,4.2014546E0,3.4269683E0,1.4871778E0,4.9111366E1,2.4957314E0,8.038079E0,8.037808E0,1.2414725E0,1.7399424E0,2.6134983E1,3.6528736E1,1.2972661E1,1.7228645E0,1.5300294E0,2.0890987E1,2.4250238E0,1.0237304E1],"tree_param":{"num_deleted":"0","num_feature":"46","num_nodes":"85","size_leaf_vector":"1"}},{"base_weights":[6.5344884E-3,-2.5217107E-1,5.146124E-1,-3.8912605E-2,-6.0363626E-1,7.704312E-1,1.646526E-1,4.0255377E-1,-1.5379219E-1,1.09574944E-1,-8.2859874E-1,1.1389093E0,4.3337342E-1,-1.7825204E-1,4.1347727E-1,5.566324E-1,-2.6864496E-1,-3.6915562E-1,1.906674E-1,-1.1323988E-1,2.2235833E-1,-8.834609E-1,-2.6084201E-2,3.4570822E-1,1.2899458E0,8.7859076E-1,1.047271E-1,-3.513803E-1,1.1382687E-1,-4.1241938E-1,7.025448E-1,1.2212439E0,3.3834073E-1,4.6631464E-1,-7.475183E-1,-1.4766103E-1,-6.735695E-1,8.22072E-1,-1.0164785E-2,5.533671E-1,-2.69579E-1,-9.396834E-1,-3.5754663E-1,3.8269928E-1,-8.866255E-2,-4.4163693E-2,7.622326E-1,1.341134E0,1.3744013E-2,9.829707E-1,-3.0339766E-2,1.1446104E-1,-4.050966E-2,1.9066574E-1,-9.06214E-1,2.9638264E-1,-1.3537839E-1,8.668264E-1,-2.6024973E-1,1.4635701E-1,5.4936423E-3,-1.4197175E-2,8.66081E-2,-2.1978147E-2,9.448724E-2,-1.2528048E-1,8.568837E-3,8.667898E-3,-6.1369695E-2,-4.0125635E-2,-1.3083918E-1,1.1354827E-1,-1.3254884E-2,9.871205E-2,-1.2557945E-2,-2.4455346E-2,8.457543E-2,-9.019554E-2,1.2134804E-2,-5.542281E-2,-1.0515741E-1,6.680694E-2,-8.2359545E-2,-1.3136831E-2,7.959529E-2,1.1505933E-1,-1.5066759E-4,1.3962762E-1,1.5589046E-2,-5.717635E-3,1.09099865E-1,-1.0053819E-1,1.3501659E-2,-1.2228402E-2,1.1620263E-1,-1.4170727E-1,-4.100616E-2,7.2802745E-2,-7.949585E-2,7.385507E-3,1.08877264E-1,4.9211975E-2,-9.0955265E-2],"categories":[],"categories_nodes":[],"categories_segments":[],"categories_sizes":[],"default_left":[0,0,0,0,0,0,0,0,0,0,0,0,0,0,0,0,0,0,0,0,0,0,0,0,0,0,0,0,0,0,0,0,0,0,0,0,0,0,0,0,0,0,0,0,0,0,0,0,0,0,0,0,0,0,0,0,0,0,0,0,0,0,0,0,0,0,0,0,0,0,0,0,0,0,0,0,0,0,0,0,0,0,0,0,0,0,0,0,0,0,0,0,0,0,0,0,0,0,0,0,0,0,0],"id":6,"left_children":[1,3,5,7,9,11,13,15,17,19,21,23,25,27,29,31,33,35,37,-1,39,41,43,45,47,49,51,53,-1,55,57,59,61,63,65,67,69,71,73,75,77,79,81,83,-1,-1,85,87,-1,89,-1,-1,91,93,95,97,-1,99,101,-1,-1,-1,-1,-1,-1,-1,-1,-1,-1,-1,-1,-1,-1,-1,-1,-1,-1,-1,-1,-1,-1,-1,-1,-1,-1,-1,-1,-1,-1,-1,-1,-1,-1,-1,-1,-1,-1,-1,-1,-1,-1,-1,-1],"loss_changes":[5.2051132E1,1.9644884E1,1.1834057E1,8.398716E0,1.597905E1,9.058586E0,4.9961386E0,3.688478E0,9.80065E0,3.7015886E0,3.2965279E0,3.8823242E0,6.021497E0,6.088646E0,8.343232E0,3.6717463E0,2.8345337E0,5.365141E0,6.4904532E0,0E0,3.961792E0,1.749836E0,2.3989472E0,2.6798496E0,1.5845261E0,2.470728E0,3.848269E0,7.036333E0,0E0,6.6571994E0,4.2363634E0,1.7788086E0,5.846121E0,1.3248007E0,2.0696332E0,5.316383E0,5.327178E0,3.8448334E0,4.7015696E0,3.5486093E0,2.603844E0,2.1392784E0,4.578286E0,1.0962126E0,0E0,0E0,1.4965758E0,1.6511536E0,0E0,1.9069424E0,0E0,0E0,4.0401945E0,3.9024482E0,2.3215008E0,3.4847965E0,0E0,3.7725677E0,2.6289153E0,0E0,0E0,0E0,0E0,0E0,0E0,0E0,0E0,0E0,0E0,0E0,0E0,0E0,0E0,0E0,0E0,0E0,0E0,0E0,0E0,0E0,0E0,0E0,0E0,0E0,0E0,0E0,0E0,0E0,0E0,0E0,0E0,0E0,0E0,0E0,0E0,0E0,0E0,0E0,0E0,0E0,0E0,0E0,0E0],"parents":[2147483647,0,0,1,1,2,2,3,3,4,4,5,5,6,6,7,7,8,8,9,9,10,10,11,11,12,12,13,13,14,14,15,15,16,16,17,17,18,18,20,20,21,21,22,22,23,23,24,24,25,25,26,26,27,27,29,29,30,30,31,31,32,32,33,33,34,34,35,35,36,36,37,37,38,38,39,39,40,40,41,41,42,42,43,43,46,46,47,47,49,49,52,52,53,53,54,54,55,55,57,57,58,58],"right_children":[2,4,6,8,10,12,14,16,18,20,22,24,26,28,30,32,34,36,38,-1,40,42,44,46,48,50,52,54,-1,56,58,60,62,64,66,68,70,72,74,76,78,80,82,84,-1,-1,86,88,-1,90,-1,-1,92,94,96,98,-1,100,102,-1,-1,-1,-1,-1,-1,-1,-1,-1,-1,-1,-1,-1,-1,-1,-1,-1,-1,-1,-1,-1,-1,-1,-1,-1,-1,-1,-1,-1,-1,-1,-1,-1,-1,-1,-1,-1,-1,-1,-1,-1,-1,-1,-1],"split_conditions":[5E-1,5E1,1.1727273E1,1.7857143E-1,5E0,6E0,1.1363637E-1,8.3E1,2.9166666E-1,5.2E1,4.7058824E-1,2E0,1.2903225E-1,2.3E0,8E-2,1E0,2.5E-1,1.6923077E-1,3.42E0,-1.1323988E-1,1.4E-1,3.5714287E-1,1.4315525E0,1.888E2,4E-1,3.529412E-1,8.076923E-1,8.8645E2,1.1382687E-1,8.4615386E-1,3.75E-1,1.0869565E-2,2.72E1,7.619048E-1,6.2E1,3.476923E0,7.1428575E-2,4.2857143E-1,3.5E-1,3.3727272E0,3.6405E2,2.8571429E-2,1.3043478E-1,7.7585E2,-8.866255E-2,-4.4163693E-2,9.4E1,3.5714287E-1,1.3744013E-2,2.7027028E-2,-3.0339766E-2,1.1446104E-1,6.25E-2,4E0,1.888E2,1.7931035E0,-1.3537839E-1,1.32E1,1E0,1.4635701E-1,5.4936423E-3,-1.4197175E-2,8.66081E-2,-2.1978147E-2,9.448724E-2,-1.2528048E-1,8.568837E-3,8.667898E-3,-6.1369695E-2,-4.0125635E-2,-1.3083918E-1,1.1354827E-1,-1.3254884E-2,9.871205E-2,-1.2557945E-2,-2.4455346E-2,8.457543E-2,-9.019554E-2,1.2134804E-2,-5.542281E-2,-1.0515741E-1,6.680694E-2,-8.2359545E-2,-1.3136831E-2,7.959529E-2,1.1505933E-1,-1.5066759E-4,1.3962762E-1,1.5589046E-2,-5.717635E-3,1.09099865E-1,-1.0053819E-1,1.3501659E-2,-1.2228402E-2,1.1620263E-1,-1.4170727E-1,-4.100616E-2,7.2802745E-2,-7.949585E-2,7.385507E-3,1.08877264E-1,4.9211975E-2,-9.0955265E-2],"split_indices":[2,5,12,1,8,5,23,14,17,5,36,16,23,27,21,18,2,23,32,0,1,17,26,11,35,37,30,9,0,38,23,35,12,34,43,32,24,17,33,32,9,23,19,9,0,0,43,21,0,34,0,0,21,18,11,27,0,12,4,0,0,0,0,0,0,0,0,0,0,0,0,0,0,0,0,0,0,0,0,0,0,0,0,0,0,0,0,0,0,0,0,0,0,0,0,0,0,0,0,0,0,0,0],"split_type":[0,0,0,0,0,0,0,0,0,0,0,0,0,0,0,0,0,0,0,0,0,0,0,0,0,0,0,0,0,0,0,0,0,0,0,0,0,0,0,0,0,0,0,0,0,0,0,0,0,0,0,0,0,0,0,0,0,0,0,0,0,0,0,0,0,0,0,0,0,0,0,0,0,0,0,0,0,0,0,0,0,0,0,0,0,0,0,0,0,0,0,0,0,0,0,0,0,0,0,0,0,0,0],"sum_hessian":[3.9401175E2,2.614096E2,1.3260214E2,1.6338391E2,9.80257E1,7.591047E1,5.6691673E1,3.321998E1,1.3016393E2,2.3628344E1,7.439736E1,3.512843E1,4.0782043E1,2.3958351E1,3.273332E1,2.7156656E1,6.063323E0,8.004587E1,5.0118065E1,1.2144387E0,2.2413904E1,6.954238E1,4.8549814E0,6.145085E0,2.8983345E1,1.660877E1,2.4173273E1,2.182179E1,2.1365616E0,8.375864E0,2.4357456E1,5.578324E0,2.1578333E1,2.4024084E0,3.6609147E0,4.71929E1,3.2852962E1,1.1347829E1,3.8770233E1,1.3323846E1,9.090058E0,6.2115234E1,7.427147E0,3.6678982E0,1.1870832E0,2.1052656E0,4.0398192E0,2.7594095E1,1.3892498E0,1.5415795E1,1.1929748E0,2.1191728E0,2.20541E1,1.1370101E1,1.045169E1,5.1690073E0,3.206857E0,2.0892284E1,3.465172E0,4.4076595E0,1.1706641E0,1.1679471E1,9.898861E0,1.2093443E0,1.1930642E0,1.9654194E0,1.6954952E0,3.1944193E1,1.524871E1,2.4132967E1,8.719995E0,8.400432E0,2.9473972E0,3.238023E0,3.553221E1,3.6169195E0,9.706926E0,2.973235E0,6.116824E0,1.531376E1,4.6801476E1,2.18507E0,5.242077E0,1.9385487E0,1.7293494E0,2.3422573E0,1.6975619E0,2.6197247E1,1.3968478E0,1.49471E0,1.3921085E1,2.666803E0,1.9387297E1,9.260647E0,2.1094542E0,4.235019E0,6.2166705E0,3.9425604E0,1.2264469E0,4.860262E0,1.603202E1,1.7173266E0,1.7478453E0],"tree_param":{"num_deleted":"0","num_feature":"46","num_nodes":"103","size_leaf_vector":"1"}},{"base_weights":[6.3800337E-3,-2.3104611E-1,4.743869E-1,-3.4372382E-2,-5.606454E-1,2.6264465E-1,8.616097E-1,1.5687607E-1,-2.6620805E-1,9.405643E-2,-7.7175844E-1,9.2295325E-1,1.8676175E-1,1.1617395E0,5.221589E-1,4.38583E-1,-8.223784E-2,-8.090197E-1,-1.1638446E-1,-1.0717014E-1,2.0083956E-1,-8.236612E-1,-2.7573414E-2,1.0661265E0,8.688906E-3,8.729804E-2,7.442909E-1,-1.1743023E-4,1.2227699E0,-3.931049E-1,6.784912E-1,-1.24135174E-1,7.3327714E-1,2.9304323E-1,-2.7468944E-1,1.8473165E-1,-1.0272292E0,6.4266014E-1,-2.3545954E-1,5.071446E-1,-2.510156E-1,-6.5335125E-1,-1.0160935E0,3.6027735E-1,-8.489181E-2,1.251426E-1,1.8332576E-2,4.5883062E-1,-1.1126704E-1,9.3812233E-1,-1.5235468E-2,3.402687E-2,1.25343E0,-9.4252765E-2,5.318513E-2,3.338758E-1,1.2084099E0,3.60126E-2,-9.6488796E-2,8.874663E-2,-2.24749E-2,4.7539707E-2,-5.8271963E-2,-7.657147E-2,3.7059472E-3,-6.652086E-2,1.0380838E-1,3.6640655E-2,-1.1992552E-1,-3.8412627E-2,1.351976E-1,-5.2062585E-3,-6.905272E-2,9.46339E-2,2.1344756E-3,-4.6616104E-2,7.17984E-2,-4.7070414E-2,-9.812458E-2,-1.1149289E-1,-3.5870697E-3,-1.2287453E-2,7.499674E-2,-1.4494066E-2,8.198669E-2,1.583388E-2,-6.1823815E-2,3.166589E-2,1.3671124E-1,4.2891424E-2,1.2918527E-1,6.2866546E-2,-4.0364813E-2,1.2991321E-1,3.506892E-2],"categories":[],"categories_nodes":[],"categories_segments":[],"categories_sizes":[],"default_left":[0,0,0,0,0,0,0,0,0,0,0,0,0,0,0,0,0,0,0,0,0,0,0,0,0,0,0,0,0,0,0,0,0,0,0,0,0,0,0,0,0,0,0,0,0,0,0,0,0,0,0,0,0,0,0,0,0,0,0,0,0,0,0,0,0,0,0,0,0,0,0,0,0,0,0,0,0,0,0,0,0,0,0,0,0,0,0,0,0,0,0,0,0,0,0],"id":7,"left_children":[1,3,5,7,9,11,13,15,17,19,21,23,25,27,29,31,33,35,37,-1,39,41,43,45,-1,47,49,-1,51,53,55,57,59,61,63,65,67,69,71,73,75,77,79,81,-1,-1,-1,83,85,87,-1,-1,89,-1,-1,91,93,-1,-1,-1,-1,-1,-1,-1,-1,-1,-1,-1,-1,-1,-1,-1,-1,-1,-1,-1,-1,-1,-1,-1,-1,-1,-1,-1,-1,-1,-1,-1,-1,-1,-1,-1,-1,-1,-1],"loss_changes":[4.337467E1,1.676934E1,1.0545345E1,7.2807612E0,1.3441093E1,4.1553335E0,4.080284E0,6.1048274E0,5.938064E0,3.2619925E0,2.8064575E0,9.4266605E-1,4.300458E0,1.6763992E0,3.61555E0,6.9764576E0,3.6608467E0,3.632491E0,5.510778E0,0E0,3.3471074E0,1.5790138E0,2.1567113E0,9.640293E-1,0E0,5.0629816E0,2.1911392E0,0E0,1.8024063E-1,2.558228E0,3.3140774E0,6.505979E0,4.24617E0,3.0379457E0,5.1235228E0,3.3785448E0,3.5968847E0,6.570871E0,4.302869E0,3.00865E0,2.4335585E0,1.8801556E0,2.8984222E0,9.673815E-1,0E0,0E0,0E0,5.3193836E0,6.2594275E0,2.1877708E0,0E0,0E0,1.2064743E-1,0E0,0E0,3.2360134E0,1.3890934E-1,0E0,0E0,0E0,0E0,0E0,0E0,0E0,0E0,0E0,0E0,0E0,0E0,0E0,0E0,0E0,0E0,0E0,0E0,0E0,0E0,0E0,0E0,0E0,0E0,0E0,0E0,0E0,0E0,0E0,0E0,0E0,0E0,0E0,0E0,0E0,0E0,0E0,0E0],"parents":[2147483647,0,0,1,1,2,2,3,3,4,4,5,5,6,6,7,7,8,8,9,9,10,10,11,11,12,12,13,13,14,14,15,15,16,16,17,17,18,18,20,20,21,21,22,22,23,23,25,25,26,26,28,28,29,29,30,30,31,31,32,32,33,33,34,34,35,35,36,36,37,37,38,38,39,39,40,40,41,41,42,42,43,43,47,47,48,48,49,49,52,52,55,55,56,56],"right_children":[2,4,6,8,10,12,14,16,18,20,22,24,26,28,30,32,34,36,38,-1,40,42,44,46,-1,48,50,-1,52,54,56,58,60,62,64,66,68,70,72,74,76,78,80,82,-1,-1,-1,84,86,88,-1,-1,90,-1,-1,92,94,-1,-1,-1,-1,-1,-1,-1,-1,-1,-1,-1,-1,-1,-1,-1,-1,-1,-1,-1,-1,-1,-1,-1,-1,-1,-1,-1,-1,-1,-1,-1,-1,-1,-1,-1,-1,-1,-1],"split_conditions":[5E-1,5E1,5.260116E-1,9.490828E-1,5E0,4E0,6E0,3.4444444E0,5.5555556E-2,5.2E1,4.7058824E-1,1.6785715E0,1.1304348E0,5.5555556E-2,9.756097E-2,3.3608696E0,9.756097E-2,7.894737E-1,1.15384616E-1,-1.0717014E-1,1.4E-1,8.3E1,1.4315525E0,7E0,8.688906E-3,5E0,2.6086956E-1,-1.1743023E-4,1.3795824E0,9.578947E0,1.1363636E0,2.3333333E-1,1.988E2,1.117647E0,2.0408164E-1,7.24E2,4E0,3.7E1,3E0,9.6E1,1.01E2,1.1142857E0,1.2608696E0,7.7585E2,-8.489181E-2,1.251426E-1,1.8332576E-2,1.0986123E0,3E0,2.8571429E-2,-1.5235468E-2,3.402687E-2,1.988E2,-9.4252765E-2,5.318513E-2,6.0714287E-1,3E-1,3.60126E-2,-9.6488796E-2,8.874663E-2,-2.24749E-2,4.7539707E-2,-5.8271963E-2,-7.657147E-2,3.7059472E-3,-6.652086E-2,1.0380838E-1,3.6640655E-2,-1.1992552E-1,-3.8412627E-2,1.351976E-1,-5.2062585E-3,-6.905272E-2,9.46339E-2,2.1344756E-3,-4.6616104E-2,7.17984E-2,-4.7070414E-2,-9.812458E-2,-1.1149289E-1,-3.5870697E-3,-1.2287453E-2,7.499674E-2,-1.4494066E-2,8.198669E-2,1.583388E-2,-6.1823815E-2,3.166589E-2,1.3671124E-1,4.2891424E-2,1.2918527E-1,6.2866546E-2,-4.0364813E-2,1.2991321E-1,3.506892E-2],"split_indices":[2,5,1,15,8,0,5,32,19,5,36,27,34,21,21,32,21,30,19,0,1,5,26,41,0,5,23,0,26,12,28,1,10,34,21,9,5,14,41,5,5,28,28,9,0,0,0,26,40,23,0,0,10,0,0,17,21,0,0,0,0,0,0,0,0,0,0,0,0,0,0,0,0,0,0,0,0,0,0,0,0,0,0,0,0,0,0,0,0,0,0,0,0,0,0],"split_type":[0,0,0,0,0,0,0,0,0,0,0,0,0,0,0,0,0,0,0,0,0,0,0,0,0,0,0,0,0,0,0,0,0,0,0,0,0,0,0,0,0,0,0,0,0,0,0,0,0,0,0,0,0,0,0,0,0,0,0,0,0,0,0,0,0,0,0,0,0,0,0,0,0,0,0,0,0,0,0,0,0,0,0,0,0,0,0,0,0,0,0,0,0,0,0],"sum_hessian":[3.8836472E2,2.579895E2,1.303752E2,1.6226773E2,9.572177E1,8.537079E1,4.5004414E1,8.909435E1,7.317337E1,2.3475193E1,7.2246574E1,7.6489773E0,7.772181E1,2.259996E1,2.2404455E1,4.0521095E1,4.8573257E1,1.4876375E1,5.8297E1,1.2116205E0,2.2263573E1,6.743646E1,4.810115E0,6.2956886E0,1.3532888E0,6.6936806E1,1.0785008E1,1.1758215E0,2.1424139E1,3.0475724E0,1.9356884E1,1.4126096E1,2.6395E1,1.6288317E1,3.2284943E1,2.7060647E0,1.217031E1,7.308952E0,5.098805E1,1.319592E1,9.067653E0,3.8106213E1,2.9330246E1,3.6485662E0,1.1615487E0,4.8583574E0,1.4373312E0,2.2857569E1,4.4079235E1,8.8299465E0,1.9550624E0,1.1255362E0,2.0298601E1,1.8999861E0,1.1475862E0,1.27169075E1,6.639975E0,9.326076E0,4.8000197E0,2.2799238E1,3.5957623E0,1.3859594E1,2.4287226E0,1.197202E1,2.0312922E1,1.4662013E0,1.2398634E0,1.213052E0,1.0957258E1,3.173514E0,4.135438E0,3.7136185E1,1.3851861E1,6.432512E0,6.7634087E0,7.844808E0,1.2228446E0,2.6037874E1,1.206834E1,2.6518932E1,2.8113139E0,1.9346292E0,1.7139372E0,8.777404E0,1.4080164E1,2.922509E1,1.4854146E1,4.315858E0,4.514088E0,1.4453673E0,1.8853235E1,9.190892E0,3.5260162E0,5.5394287E0,1.1005462E0],"tree_param":{"num_deleted":"0","num_feature":"46","num_nodes":"95","size_leaf_vector":"1"}},{"base_weights":[6.680998E-3,-2.1226646E-1,4.4046083E-1,1.7866713E-1,-3.56093E-1,2.1956113E-1,7.839575E-1,2.457237E-1,-3.914912E-1,-5.6591505E-1,6.5477505E-2,9.18133E-1,1.1892864E-1,5.591253E-1,1.1828666E0,3.2591468E-1,-3.0639866E-1,-6.4865535E-1,3.667606E-2,-1.137488E0,-4.6496674E-1,5.741642E-1,-1.702805E-1,1.714602E-1,1.15590334E-1,2.7421044E-2,1.049351E0,-6.819844E-2,7.339917E-1,3.6158323E-2,1.2226715E0,4.4611636E-1,-2.4770565E-2,3.4944358E-1,-8.020069E-1,-3.0189425E-1,-1.0385638E-1,-3.652354E-1,-1.2184874E0,-2.7844784E-1,-7.425182E-1,9.6006256E-1,5.5675395E-2,-4.3172294E-1,3.071748E-1,5.7887137E-2,-3.5536394E-2,-7.452007E-2,9.1104645E-1,1.2724482E-1,1.6050627E-2,5.911613E-1,-1.0244195E0,4.0093005E-1,1.1399142E0,1.2770455E-1,2.8529165E-2,7.1221836E-2,2.096373E-2,1.6136467E-2,-7.7200636E-2,-2.0481346E-2,9.9523135E-2,-1.1177204E-1,1.2194424E-2,-4.9097825E-2,1.3123128E-2,-7.61285E-2,2.1055892E-2,-1.328728E-1,-3.843221E-2,-8.085378E-2,-6.8021226E-3,-8.317464E-2,4.829937E-3,1.121087E-1,-2.4179466E-2,-5.3170115E-2,9.572899E-2,2.0025099E-2,-7.337087E-2,4.8924632E-2,-7.1318366E-2,2.6611242E-2,-3.418021E-2,-2.9749438E-2,1.3995267E-1,1.22565225E-1,-3.774032E-2,-1.1814655E-1,-3.199736E-2,5.592956E-2,-8.608528E-2,1.5093972E-2,1.2746772E-1],"categories":[],"categories_nodes":[],"categories_segments":[],"categories_sizes":[],"default_left":[0,0,0,0,0,0,0,0,0,0,0,0,0,0,0,0,0,0,0,0,0,0,0,0,0,0,0,0,0,0,0,0,0,0,0,0,0,0,0,0,0,0,0,0,0,0,0,0,0,0,0,0,0,0,0,0,0,0,0,0,0,0,0,0,0,0,0,0,0,0,0,0,0,0,0,0,0,0,0,0,0,0,0,0,0,0,0,0,0,0,0,0,0,0,0],"id":8,"left_children":[1,3,5,7,9,11,13,15,17,19,21,23,25,27,29,31,33,35,-1,37,39,41,43,45,-1,47,49,51,53,-1,55,57,59,61,63,65,-1,67,69,71,73,75,77,79,81,-1,-1,83,85,-1,-1,87,89,91,93,-1,-1,-1,-1,-1,-1,-1,-1,-1,-1,-1,-1,-1,-1,-1,-1,-1,-1,-1,-1,-1,-1,-1,-1,-1,-1,-1,-1,-1,-1,-1,-1,-1,-1,-1,-1,-1,-1,-1,-1],"loss_changes":[3.657636E1,1.4455111E1,9.629545E0,2.7536252E0,1.6617792E1,5.515208E0,3.8382034E0,2.8806233E0,1.7393721E0,6.698536E0,7.6757817E0,1.5639153E0,6.0231533E0,3.777793E0,1.197834E-1,2.3431916E0,3.0368063E0,5.1271796E-1,0E0,6.8782425E-1,5.3919907E0,3.9962296E0,5.618598E0,9.722557E-1,0E0,5.9899096E0,1.052598E0,5.85292E0,3.1472378E0,0E0,4.498024E-1,2.4467983E0,2.2206407E0,1.7596822E0,1.6338692E0,4.4478947E-1,0E0,8.780163E-1,9.5731735E-1,7.3384395E0,3.0650291E0,2.5047884E0,5.6448483E0,5.6460185E0,3.346367E0,0E0,0E0,5.541609E0,4.475419E0,0E0,0E0,3.879437E0,3.8215876E-2,3.7158942E0,1.3366718E0,0E0,0E0,0E0,0E0,0E0,0E0,0E0,0E0,0E0,0E0,0E0,0E0,0E0,0E0,0E0,0E0,0E0,0E0,0E0,0E0,0E0,0E0,0E0,0E0,0E0,0E0,0E0,0E0,0E0,0E0,0E0,0E0,0E0,0E0,0E0,0E0,0E0,0E0,0E0,0E0],"parents":[2147483647,0,0,1,1,2,2,3,3,4,4,5,5,6,6,7,7,8,8,9,9,10,10,11,11,12,12,13,13,14,14,15,15,16,16,17,17,19,19,20,20,21,21,22,22,23,23,25,25,26,26,27,27,28,28,30,30,31,31,32,32,33,33,34,34,35,35,37,37,38,38,39,39,40,40,41,41,42,42,43,43,44,44,47,47,48,48,51,51,52,52,53,53,54,54],"right_children":[2,4,6,8,10,12,14,16,18,20,22,24,26,28,30,32,34,36,-1,38,40,42,44,46,-1,48,50,52,54,-1,56,58,60,62,64,66,-1,68,70,72,74,76,78,80,82,-1,-1,84,86,-1,-1,88,90,92,94,-1,-1,-1,-1,-1,-1,-1,-1,-1,-1,-1,-1,-1,-1,-1,-1,-1,-1,-1,-1,-1,-1,-1,-1,-1,-1,-1,-1,-1,-1,-1,-1,-1,-1,-1,-1,-1,-1,-1,-1],"split_conditions":[5E-1,5E0,3.5714287E-1,2E0,2.9166666E-1,7.8571427E-1,1.25E0,8.5E1,2.8571429E-2,5E0,1.4701319E0,6.0714287E-1,2.3E0,9.756097E-2,4E-1,9.4E1,2.5E-1,3.5117648E0,3.667606E-2,2E0,5.1E1,1.0810811E-1,1.875E-1,8.802E2,1.15590334E-1,2.631579E-1,2.0833333E-1,1.6468E3,1.2105263E0,3.6158323E-2,7.1881E3,3.4625E0,1.7857143E-1,3E0,1.32E2,9.1E1,-1.0385638E-1,5.4E1,2.3809524E-2,4.1666668E-2,3.846154E-1,5E-1,2.2580644E-1,1.14285715E-1,1.5384616E-1,5.7887137E-2,-3.5536394E-2,3.5E1,6.0446113E-1,1.2724482E-1,1.6050627E-2,3.46E0,4.4444445E-1,3.125E-1,6.435846E-1,1.2770455E-1,2.8529165E-2,7.1221836E-2,2.096373E-2,1.6136467E-2,-7.7200636E-2,-2.0481346E-2,9.9523135E-2,-1.1177204E-1,1.2194424E-2,-4.9097825E-2,1.3123128E-2,-7.61285E-2,2.1055892E-2,-1.328728E-1,-3.843221E-2,-8.085378E-2,-6.8021226E-3,-8.317464E-2,4.829937E-3,1.121087E-1,-2.4179466E-2,-5.3170115E-2,9.572899E-2,2.0025099E-2,-7.337087E-2,4.8924632E-2,-7.1318366E-2,2.6611242E-2,-3.418021E-2,-2.9749438E-2,1.3995267E-1,1.22565225E-1,-3.774032E-2,-1.1814655E-1,-3.199736E-2,5.592956E-2,-8.608528E-2,1.5093972E-2,1.2746772E-1],"split_indices":[2,0,17,16,17,30,2,14,23,12,26,38,27,21,33,43,2,32,0,12,5,22,22,9,0,24,23,9,27,0,9,32,1,18,14,5,0,5,36,19,23,19,23,21,24,0,0,43,15,0,0,32,38,19,15,0,0,0,0,0,0,0,0,0,0,0,0,0,0,0,0,0,0,0,0,0,0,0,0,0,0,0,0,0,0,0,0,0,0,0,0,0,0,0,0],"split_type":[0,0,0,0,0,0,0,0,0,0,0,0,0,0,0,0,0,0,0,0,0,0,0,0,0,0,0,0,0,0,0,0,0,0,0,0,0,0,0,0,0,0,0,0,0,0,0,0,0,0,0,0,0,0,0,0,0,0,0,0,0,0,0,0,0,0,0,0,0,0,0,0,0,0,0,0,0,0,0,0,0,0,0,0,0,0,0,0,0,0,0,0,0,0,0],"sum_hessian":[3.8313126E2,2.5495506E2,1.281762E2,6.850634E1,1.8644872E2,7.9006805E1,4.916939E1,6.18063E1,6.700041E0,1.2426014E2,6.2188572E1,8.925315E0,7.008149E1,3.298187E1,1.6187523E1,5.4325676E1,7.480627E0,5.1111217E0,1.588919E0,1.7110704E1,1.0714944E2,1.9239908E1,4.2948666E1,2.5714083E0,6.3539066E0,6.474341E1,5.3380814E0,7.3225617E0,2.5659307E1,1.21443E0,1.4973093E1,4.025548E1,1.407019E1,3.346757E0,4.1338696E0,3.644337E0,1.466785E0,2.1473038E0,1.4963402E1,6.528209E1,4.1867348E1,1.054206E1,8.697848E0,2.7814133E1,1.5134532E1,1.3943304E0,1.1770779E0,5.886769E1,5.8757167E0,3.922077E0,1.4160044E0,4.5599995E0,2.7625623E0,1.5186447E1,1.0472859E1,1.38096895E1,1.1634037E0,1.799479E1,2.2260695E1,1.1891971E1,2.1782198E0,2.1684766E0,1.1782805E0,2.9247622E0,1.2091076E0,2.4438756E0,1.2004614E0,1.0813617E0,1.0659423E0,1.2693046E1,2.2703552E0,1.774299E1,4.7539097E1,3.7575897E1,4.2914515E0,9.35578E0,1.1862797E0,5.515157E0,3.1826909E0,9.102325E0,1.8711807E1,1.3284566E1,1.8499663E0,2.5884306E1,3.2983383E1,1.8038417E0,4.071875E0,2.5947738E0,1.9652258E0,1.7052469E0,1.0573153E0,1.3987614E1,1.1988343E0,1.5101888E0,8.962671E0],"tree_param":{"num_deleted":"0","num_feature":"46","num_nodes":"95","size_leaf_vector":"1"}},{"base_weights":[6.6420007E-3,1.8417828E-1,-4.519647E-1,9.522043E-2,8.430696E-1,8.7649204E-2,-6.312173E-1,-2.8023278E-2,4.3505564E-1,-1.6572364E-1,1.108662E0,3.246902E-1,-2.590358E-1,6.773598E-2,-6.6042686E-1,6.335722E-1,-1.4319456E-1,4.913472E-1,-1.05185784E-1,6.0734665E-1,-6.5566385E-1,1.1970574E0,-3.7407198E-3,6.586088E-1,-8.2612924E-2,-4.922737E-1,4.4141027E-1,-5.081109E-1,-1.020525E0,7.8497386E-1,5.6257382E-2,6.637487E-1,-2.2198671E-1,3.6074024E-1,1.0482126E0,-4.402857E-3,9.379397E-2,-1.1347506E0,4.3446045E-2,1.26114E0,-4.4036726E-3,8.0556965E-1,-1.9626606E-4,-4.0219748E-1,4.5277402E-1,-7.419585E-1,6.1897736E-2,5.8273453E-2,1.04113035E-2,-6.587028E-1,1.234855E-1,-2.6650208E-1,-1.1808093E-1,8.755847E-2,-7.654649E-3,4.3247137E-2,-4.920734E-2,9.22988E-2,-6.1702676E-2,-6.183023E-3,-4.4883147E-2,6.404297E-2,-1.2020332E-2,1.373821E-1,-2.0265607E-2,-1.332286E-1,-3.752153E-2,4.9351256E-2,1.313278E-1,4.2857874E-2,1.2003775E-1,4.903296E-2,-7.923523E-2,5.528181E-4,6.6847876E-2,-9.690914E-2,2.7504662E-2,-1.770768E-3,-7.59591E-2,-8.67537E-2,4.5365658E-2,-8.046769E-2,4.6569124E-2],"categories":[],"categories_nodes":[],"categories_segments":[],"categories_sizes":[],"default_left":[0,0,0,0,0,0,0,0,0,0,0,0,0,0,0,0,0,0,0,0,0,0,0,0,0,0,0,0,0,0,0,0,0,0,0,0,0,0,0,0,0,0,0,0,0,0,0,0,0,0,0,0,0,0,0,0,0,0,0,0,0,0,0,0,0,0,0,0,0,0,0,0,0,0,0,0,0,0,0,0,0,0,0],"id":9,"left_children":[1,3,5,7,9,11,13,15,17,19,21,23,25,-1,27,29,31,33,-1,35,37,39,-1,41,43,45,47,49,51,53,55,57,59,61,63,-1,-1,65,-1,67,-1,69,-1,71,73,75,-1,-1,-1,77,79,81,-1,-1,-1,-1,-1,-1,-1,-1,-1,-1,-1,-1,-1,-1,-1,-1,-1,-1,-1,-1,-1,-1,-1,-1,-1,-1,-1,-1,-1,-1,-1],"loss_changes":[3.093027E1,1.5970562E1,1.0310768E1,1.0164322E1,8.877073E0,2.3288736E0,3.4940434E0,1.3716516E1,5.921505E0,3.2889335E0,2.659975E0,2.32123E0,2.1203463E0,0E0,3.7856903E0,2.289464E0,9.883162E0,4.196452E0,0E0,7.9062116E-1,3.1838987E0,1.9640198E0,0E0,9.015002E-1,1.6188447E0,3.0151176E0,1.0317159E-1,5.5160694E0,2.3846912E0,1.7121487E0,1.5793164E0,5.1754365E0,5.0677314E0,7.1353884E0,4.9316034E0,0E0,0E0,7.86705E-2,0E0,2.6646805E-1,0E0,6.145525E-1,0E0,2.4039714E0,3.444938E-1,2.1090498E0,0E0,0E0,0E0,2.9804897E0,4.268674E0,2.4265296E0,0E0,0E0,0E0,0E0,0E0,0E0,0E0,0E0,0E0,0E0,0E0,0E0,0E0,0E0,0E0,0E0,0E0,0E0,0E0,0E0,0E0,0E0,0E0,0E0,0E0,0E0,0E0,0E0,0E0,0E0,0E0],"parents":[2147483647,0,0,1,1,2,2,3,3,4,4,5,5,6,6,7,7,8,8,9,9,10,10,11,11,12,12,14,14,15,15,16,16,17,17,19,19,20,20,21,21,23,23,24,24,25,25,26,26,27,27,28,28,29,29,30,30,31,31,32,32,33,33,34,34,37,37,39,39,41,41,43,43,44,44,45,45,49,49,50,50,51,51],"right_children":[2,4,6,8,10,12,14,16,18,20,22,24,26,-1,28,30,32,34,-1,36,38,40,-1,42,44,46,48,50,52,54,56,58,60,62,64,-1,-1,66,-1,68,-1,70,-1,72,74,76,-1,-1,-1,78,80,82,-1,-1,-1,-1,-1,-1,-1,-1,-1,-1,-1,-1,-1,-1,-1,-1,-1,-1,-1,-1,-1,-1,-1,-1,-1,-1,-1,-1,-1,-1,-1],"split_conditions":[4.3E1,2E0,5E0,3.5714287E-1,3.15E2,9.4E1,7.8571427E-1,4E0,2.0689656E-1,2E0,6E0,2.45E1,1.15E2,6.773598E-2,1.5465987E0,6E1,7.8571427E-1,1.3914421E1,-1.05185784E-1,3.3933334E0,3E0,3.5714287E-1,-3.7407198E-3,2.7692308E0,3.65E1,1.9428572E1,3E0,1.222E3,9.090909E-2,2.6875E0,1.25E-1,7E0,3.4714286E0,3.4E1,2.0703E3,-4.402857E-3,9.379397E-2,3.47E0,4.3446045E-2,2.3333333E-1,-4.4036726E-3,3.6405E2,-1.9626606E-4,1.2138728E-1,3E0,2E0,6.1897736E-2,5.8273453E-2,1.04113035E-2,5.2E1,1.7E1,6.9E1,-1.1808093E-1,8.755847E-2,-7.654649E-3,4.3247137E-2,-4.920734E-2,9.22988E-2,-6.1702676E-2,-6.183023E-3,-4.4883147E-2,6.404297E-2,-1.2020332E-2,1.373821E-1,-2.0265607E-2,-1.332286E-1,-3.752153E-2,4.9351256E-2,1.313278E-1,4.2857874E-2,1.2003775E-1,4.903296E-2,-7.923523E-2,5.528181E-4,6.6847876E-2,-9.690914E-2,2.7504662E-2,-1.770768E-3,-7.59591E-2,-8.67537E-2,4.5365658E-2,-8.046769E-2,4.6569124E-2],"split_indices":[5,4,8,17,10,43,30,0,25,44,5,12,5,0,26,14,30,13,0,32,18,21,0,27,12,12,44,9,19,27,17,41,32,14,9,0,0,32,0,1,0,9,0,1,0,29,0,0,0,5,14,5,0,0,0,0,0,0,0,0,0,0,0,0,0,0,0,0,0,0,0,0,0,0,0,0,0,0,0,0,0,0,0],"split_type":[0,0,0,0,0,0,0,0,0,0,0,0,0,0,0,0,0,0,0,0,0,0,0,0,0,0,0,0,0,0,0,0,0,0,0,0,0,0,0,0,0,0,0,0,0,0,0,0,0,0,0,0,0,0,0,0,0,0,0,0,0,0,0,0,0,0,0,0,0,0,0,0,0,0,0,0,0,0,0,0,0,0,0],"sum_hessian":[3.7786618E2,2.728418E2,1.0502438E2,2.413952E2,3.1446589E1,2.6315731E1,7.870866E1,1.7782368E2,6.3571514E1,6.632093E0,2.4814497E1,1.5667049E1,1.0648682E1,1.2340478E0,7.747461E1,2.5698553E1,1.5212514E2,6.1897743E1,1.673771E0,2.479728E0,4.1523647E0,2.2996319E1,1.8181773E0,8.270039E0,7.397011E0,8.211557E0,2.4371243E0,5.6139503E1,2.1335106E1,2.0074331E1,5.624222E0,1.287214E1,1.39253E2,5.1473076E1,1.0424666E1,1.1266608E0,1.3530673E0,2.8561919E0,1.296173E0,2.185187E1,1.14445E0,6.585437E0,1.6846014E0,4.787823E0,2.6091876E0,6.9763713E0,1.2351859E0,1.2047055E0,1.2324188E0,4.529651E1,1.0842993E1,4.2069764E0,1.7128128E1,1.814916E1,1.925171E0,3.4609392E0,2.1632824E0,1.0937629E1,1.9345114E0,8.237051E1,5.6882496E1,3.2336433E1,1.9136642E1,8.193545E0,2.231121E0,1.6682441E0,1.1879476E0,2.0554168E0,1.9796452E1,4.435571E0,2.1498656E0,1.3782198E0,3.4096034E0,1.1826628E0,1.4265246E0,5.7412596E0,1.2351117E0,6.319696E0,3.8976814E1,2.3029754E0,8.540017E0,2.3676891E0,1.8392875E0],"tree_param":{"num_deleted":"0","num_feature":"46","num_nodes":"83","size_leaf_vector":"1"}},{"base_weights":[6.97378E-3,-1.8215229E-1,3.8437808E-1,-2.5296824E-2,-4.433225E-1,6.123667E-1,9.218951E-2,5.766748E-1,-8.204181E-2,6.5017305E-2,-6.152047E-1,3.8773325E-1,1.0989472E0,-5.7969626E-2,5.223752E-1,8.6139274E-1,-3.0033948E-2,2.3246699E-3,-4.7578153E-1,-9.1866955E-2,1.7597574E-1,-6.459539E-1,2.9264245E-2,7.3037875E-1,1.5493211E-1,1.1678319E0,-1.0522831E-2,1.1313628E-1,-6.022478E-1,-2.704818E-1,9.430549E-1,-5.5195735E-4,1.0744811E0,3.894844E-1,-7.884184E-2,-4.7259167E-1,1.1488315E-1,-1.1951793E0,-1.7367083E-1,4.4358855E-1,-2.1589853E-1,-4.668513E-1,-8.7817377E-1,1.0937322E0,2.8793314E-1,1.11618735E-1,1.3767779E-2,3.8693223E-2,1.2018317E0,-1.1482264E-1,7.84056E-1,6.192558E-2,-8.863216E-1,2.862856E-1,-1.1457733E-1,1.1546603E0,1.2518661E-3,-4.835822E-3,1.2902291E-1,7.744223E-2,-2.8572354E-2,-2.2985993E-3,-9.388698E-2,-2.3291409E-2,3.1116385E-2,-3.5815176E-2,-1.3801242E-1,-1.15260184E-1,5.852142E-3,-2.689747E-2,7.159675E-2,-8.154633E-2,1.4875317E-2,-6.056987E-2,-8.7046875E-3,-1.00735225E-1,1.32650575E-2,1.1610788E-1,3.476977E-2,-2.378402E-2,9.422249E-2,4.6953376E-2,-3.3214908E-2,1.2433268E-1,3.744499E-2,-3.2418564E-2,5.6450453E-2,1.06661096E-1,-2.3677057E-2,-2.753031E-2,-1.4791393E-1,-5.382205E-2,8.62053E-2,1.3163069E-1,2.3003755E-2],"categories":[],"categories_nodes":[],"categories_segments":[],"categories_sizes":[],"default_left":[0,0,0,0,0,0,0,0,0,0,0,0,0,0,0,0,0,0,0,0,0,0,0,0,0,0,0,0,0,0,0,0,0,0,0,0,0,0,0,0,0,0,0,0,0,0,0,0,0,0,0,0,0,0,0,0,0,0,0,0,0,0,0,0,0,0,0,0,0,0,0,0,0,0,0,0,0,0,0,0,0,0,0,0,0,0,0,0,0,0,0,0,0,0,0],"id":10,"left_children":[1,3,5,7,9,11,13,15,17,19,21,23,25,27,29,31,33,35,37,-1,39,41,-1,43,45,47,-1,49,51,53,55,-1,57,59,-1,61,63,65,67,69,71,73,75,77,79,-1,81,-1,83,85,87,-1,89,91,-1,93,-1,-1,-1,-1,-1,-1,-1,-1,-1,-1,-1,-1,-1,-1,-1,-1,-1,-1,-1,-1,-1,-1,-1,-1,-1,-1,-1,-1,-1,-1,-1,-1,-1,-1,-1,-1,-1,-1,-1],"loss_changes":[2.6739424E1,1.0213335E1,8.274172E0,5.410077E0,8.217524E0,7.2324276E0,3.6468778E0,2.3835812E0,4.7960534E0,2.8416543E0,2.1441803E0,3.8339458E0,1.913372E0,4.016949E0,5.120144E0,1.7281857E0,2.0014765E0,6.4620404E0,5.3293533E0,0E0,2.497728E0,2.4205227E0,0E0,2.8600283E0,4.1549487E0,7.925606E-2,0E0,5.1526723E0,4.1228423E0,3.1708827E0,1.9059134E0,0E0,1.8765469E0,1.2864586E0,0E0,4.834188E0,6.74257E0,6.457653E-1,4.4115167E0,2.8976066E0,2.3003745E0,2.0860376E0,3.8548527E0,1.2316704E-1,3.7545493E0,0E0,4.540426E0,0E0,1.9257736E-1,3.8210375E0,2.7107544E0,0E0,2.768643E0,2.536427E0,0E0,8.831587E-1,0E0,0E0,0E0,0E0,0E0,0E0,0E0,0E0,0E0,0E0,0E0,0E0,0E0,0E0,0E0,0E0,0E0,0E0,0E0,0E0,0E0,0E0,0E0,0E0,0E0,0E0,0E0,0E0,0E0,0E0,0E0,0E0,0E0,0E0,0E0,0E0,0E0,0E0,0E0],"parents":[2147483647,0,0,1,1,2,2,3,3,4,4,5,5,6,6,7,7,8,8,9,9,10,10,11,11,12,12,13,13,14,14,15,15,16,16,17,17,18,18,20,20,21,21,23,23,24,24,25,25,27,27,28,28,29,29,30,30,32,32,33,33,35,35,36,36,37,37,38,38,39,39,40,40,41,41,42,42,43,43,44,44,46,46,48,48,49,49,50,50,52,52,53,53,55,55],"right_children":[2,4,6,8,10,12,14,16,18,20,22,24,26,28,30,32,34,36,38,-1,40,42,-1,44,46,48,-1,50,52,54,56,-1,58,60,-1,62,64,66,68,70,72,74,76,78,80,-1,82,-1,84,86,88,-1,90,92,-1,94,-1,-1,-1,-1,-1,-1,-1,-1,-1,-1,-1,-1,-1,-1,-1,-1,-1,-1,-1,-1,-1,-1,-1,-1,-1,-1,-1,-1,-1,-1,-1,-1,-1,-1,-1,-1,-1,-1,-1],"split_conditions":[5E-1,4.8E1,1.1727273E1,1.2138728E-1,5E0,3.2265E2,1.1538461E0,1.008E2,2.7790886E1,5.2E1,5.555556E-1,1.3043478E-1,3.5714287E-1,4.204E2,5.813953E-1,5.555556E-1,1.9417476E-2,7.8333335E0,3.418182E0,-9.1866955E-2,1.4E-1,8.3E1,2.9264245E-2,6.2E1,8.125E-1,2.3333333E0,-1.0522831E-2,2.9166666E-1,8.076923E-1,1.6696E3,4E0,-5.5195735E-4,9.52E1,2.8571429E-2,-7.884184E-2,9.4E-1,8.064516E-1,3.3090909E0,2.9593918E1,3.3727272E0,3.6405E2,1.4367E3,1.2608696E0,7.5E-1,1.6883117E-1,1.11618735E-1,8E0,3.8693223E-2,7.1881E3,3E0,2.5333334E1,6.192558E-2,1.7222221E1,1.6071428E0,-1.1457733E-1,3.529412E-1,1.2518661E-3,-4.835822E-3,1.2902291E-1,7.744223E-2,-2.8572354E-2,-2.2985993E-3,-9.388698E-2,-2.3291409E-2,3.1116385E-2,-3.5815176E-2,-1.3801242E-1,-1.15260184E-1,5.852142E-3,-2.689747E-2,7.159675E-2,-8.154633E-2,1.4875317E-2,-6.056987E-2,-8.7046875E-3,-1.00735225E-1,1.32650575E-2,1.1610788E-1,3.476977E-2,-2.378402E-2,9.422249E-2,4.6953376E-2,-3.3214908E-2,1.2433268E-1,3.744499E-2,-3.2418564E-2,5.6450453E-2,1.06661096E-1,-2.3677057E-2,-2.753031E-2,-1.4791393E-1,-5.382205E-2,8.62053E-2,1.3163069E-1,2.3003755E-2],"split_indices":[2,5,12,1,8,11,28,10,13,5,20,23,21,10,34,30,24,12,32,0,1,5,0,43,30,12,0,21,30,9,18,0,9,23,0,33,33,32,13,32,9,9,28,1,22,0,5,0,9,41,12,0,12,27,0,22,0,0,0,0,0,0,0,0,0,0,0,0,0,0,0,0,0,0,0,0,0,0,0,0,0,0,0,0,0,0,0,0,0,0,0,0,0,0,0],"split_type":[0,0,0,0,0,0,0,0,0,0,0,0,0,0,0,0,0,0,0,0,0,0,0,0,0,0,0,0,0,0,0,0,0,0,0,0,0,0,0,0,0,0,0,0,0,0,0,0,0,0,0,0,0,0,0,0,0,0,0,0,0,0,0,0,0,0,0,0,0,0,0,0,0,0,0,0,0,0,0,0,0,0,0,0,0,0,0,0,0,0,0,0,0,0,0],"sum_hessian":[3.726415E2,2.4858643E2,1.2405508E2,1.5599483E2,9.259161E1,6.906743E1,5.4987648E1,1.2648828E1,1.43346E2,2.3553656E1,6.903796E1,4.8482147E1,2.058528E1,4.1401447E1,1.3586201E1,8.323142E0,4.3256855E0,1.1886988E2,2.4476112E1,1.6496354E0,2.190402E1,6.7055244E1,1.9827131E0,1.8749126E1,2.9733023E1,1.9499968E1,1.0853118E0,3.21017E1,9.299746E0,4.8335056E0,8.752695E0,1.8343823E0,6.48876E0,3.098246E0,1.2274394E0,2.2162275E1,9.67076E1,6.3645353E0,1.8111578E1,1.2937186E1,8.966833E0,3.9556873E1,2.749837E1,9.486463E0,9.262664E0,2.922861E0,2.6810162E1,1.3301358E0,1.8169832E1,2.4579248E1,7.5224524E0,1.5320585E0,7.7676873E0,3.3655965E0,1.4679093E0,6.9348454E0,1.8178492E0,1.1708808E0,5.317879E0,1.8796904E0,1.2185556E0,1.1817054E1,1.0345222E1,3.482075E1,6.1886852E1,1.6832007E0,4.6813345E0,2.7123237E0,1.5399254E1,3.5811455E0,9.356041E0,2.9235752E0,6.0432577E0,2.8531628E1,1.1025246E1,2.4385458E1,3.1129105E0,8.190728E0,1.295734E0,5.4886265E0,3.7740376E0,1.1414078E1,1.5396084E1,1.6823378E1,1.346455E0,1.9188345E1,5.3909044E0,5.856562E0,1.6658899E0,4.5462523E0,3.221435E0,1.4106871E0,1.9549096E0,5.5423017E0,1.392544E0],"tree_param":{"num_deleted":"0","num_feature":"46","num_nodes":"95","size_leaf_vector":"1"}},{"base_weights":[6.6857524E-3,-1.683146E-1,3.5802528E-1,1.4071292E-1,-2.8423023E-1,5.745102E-1,8.524702E-2,8.4755677E-1,9.226405E-2,-5.266508E-1,-1.8414851E-2,3.6184466E-1,1.0515126E0,-2.1324302E-1,2.9047626E-1,1.0725223E-1,1.4843345E-2,-5.737074E-1,1.8787035E-1,-5.989247E-1,5.106813E-1,-1.0684435E-1,8.967803E-1,6.861497E-1,1.4499107E-1,1.1210184E0,-9.960649E-3,1.3744782E-1,-8.416471E-1,1.0203843E0,4.0445425E-2,5.2033376E-2,-1.0470257E0,1.2321428E-1,8.5035145E-1,-6.932405E-1,-1.4628127E-1,9.9890226E-1,-8.484911E-2,-9.347326E-3,-9.633561E-1,-2.2100254E-3,1.1140044E0,1.033562E0,2.702106E-1,1.06740415E-1,1.311634E-2,1.223531E-1,5.232042E-1,5.112612E-1,-3.4683353E-1,-1.1432397E0,1.3595994E-2,1.258809E0,2.8906993E-3,-4.209231E-1,3.6912292E-1,5.842219E-2,-3.7111066E-2,1.2043784E-2,-1.4803882E-1,2.787096E-3,6.332251E-2,1.1723912E-1,-9.962732E-3,-7.8277476E-2,-3.174284E-2,1.0032379E-1,-4.6167918E-2,2.492789E-3,1.442102E-1,-3.582364E-2,2.7163228E-2,-1.5469158E-2,-1.20287135E-1,1.8419212E-2,1.3045183E-1,1.09710015E-1,3.312628E-2,-1.590884E-2,1.03465654E-1,4.326239E-2,-2.9983466E-2,9.8012246E-2,-1.6780159E-2,9.4929956E-2,-6.682152E-2,-8.556827E-2,3.4983728E-2,-1.2777647E-1,-3.0183563E-2,1.3777263E-1,3.1390827E-2,-6.869964E-2,6.64342E-2,5.388699E-3,1.1638065E-1],"categories":[],"categories_nodes":[],"categories_segments":[],"categories_sizes":[],"default_left":[0,0,0,0,0,0,0,0,0,0,0,0,0,0,0,0,0,0,0,0,0,0,0,0,0,0,0,0,0,0,0,0,0,0,0,0,0,0,0,0,0,0,0,0,0,0,0,0,0,0,0,0,0,0,0,0,0,0,0,0,0,0,0,0,0,0,0,0,0,0,0,0,0,0,0,0,0,0,0,0,0,0,0,0,0,0,0,0,0,0,0,0,0,0,0,0,0],"id":11,"left_children":[1,3,5,7,9,11,13,15,17,19,21,23,25,27,29,-1,-1,31,33,35,37,39,41,43,45,47,-1,49,51,53,55,57,59,61,63,65,67,69,-1,71,73,-1,75,77,79,-1,81,-1,83,85,87,89,-1,91,-1,93,95,-1,-1,-1,-1,-1,-1,-1,-1,-1,-1,-1,-1,-1,-1,-1,-1,-1,-1,-1,-1,-1,-1,-1,-1,-1,-1,-1,-1,-1,-1,-1,-1,-1,-1,-1,-1,-1,-1,-1,-1],"loss_changes":[2.272072E1,8.876933E0,7.206147E0,2.2492285E0,1.1572188E1,6.5503597E0,3.4640064E0,5.072465E-1,4.228901E0,7.3507805E0,7.117846E0,3.331038E0,1.7553291E0,5.22917E0,6.0418663E0,0E0,0E0,2.5340812E0,2.3518512E0,3.6685505E0,5.2671795E0,6.6728334E0,1.5718331E0,2.5066032E0,3.696187E0,5.5212975E-1,0E0,3.0289438E0,2.6472344E0,1.9643097E0,4.078168E0,1.2432747E0,2.6138306E0,2.5800915E0,1.625134E0,2.2015152E0,6.4434705E0,2.277535E0,0E0,7.238598E0,1.3958702E0,0E0,8.73734E-1,8.953571E-2,3.4884334E0,0E0,3.766047E0,0E0,1.6152314E0,5.436234E0,2.943192E0,3.574295E-1,0E0,3.3151913E-1,0E0,3.698966E0,3.8552094E0,0E0,0E0,0E0,0E0,0E0,0E0,0E0,0E0,0E0,0E0,0E0,0E0,0E0,0E0,0E0,0E0,0E0,0E0,0E0,0E0,0E0,0E0,0E0,0E0,0E0,0E0,0E0,0E0,0E0,0E0,0E0,0E0,0E0,0E0,0E0,0E0,0E0,0E0,0E0,0E0],"parents":[2147483647,0,0,1,1,2,2,3,3,4,4,5,5,6,6,7,7,8,8,9,9,10,10,11,11,12,12,13,13,14,14,17,17,18,18,19,19,20,20,21,21,22,22,23,23,24,24,25,25,27,27,28,28,29,29,30,30,31,31,32,32,33,33,34,34,35,35,36,36,37,37,39,39,40,40,42,42,43,43,44,44,46,46,48,48,49,49,50,50,51,51,53,53,55,55,56,56],"right_children":[2,4,6,8,10,12,14,16,18,20,22,24,26,28,30,-1,-1,32,34,36,38,40,42,44,46,48,-1,50,52,54,56,58,60,62,64,66,68,70,-1,72,74,-1,76,78,80,-1,82,-1,84,86,88,90,-1,92,-1,94,96,-1,-1,-1,-1,-1,-1,-1,-1,-1,-1,-1,-1,-1,-1,-1,-1,-1,-1,-1,-1,-1,-1,-1,-1,-1,-1,-1,-1,-1,-1,-1,-1,-1,-1,-1,-1,-1,-1,-1,-1],"split_conditions":[5E-1,5E0,1.1727273E1,4E0,2.5E-1,3.2265E2,4.6E1,6.517376E0,1.3E1,1.775E2,3.478261E-1,1.3043478E-1,3.5714287E-1,4E1,5.1E1,1.0725223E-1,1.4843345E-2,3.3333335E-2,2.6666668E-1,1.2580645E0,1.2355019E0,4.864865E-1,5.882353E-2,6.2E1,8.125E-1,6E0,-9.960649E-3,1.7142858E-1,1.0526316E-1,1.3636364E-1,2.5672295E1,3.4E1,3E0,3.529412E-1,2.4654613E1,2.5714287E-1,1.2903225E-1,6E0,-8.484911E-2,3.3E1,3.3E1,-2.2100254E-3,3.75E-1,7.5E-1,1.4E1,1.06740415E-1,8E0,1.223531E-1,2E0,3.892E2,1.4814815E-1,4E0,1.3595994E-2,1.6696E3,2.8906993E-3,3.75E-1,1.1538461E0,5.842219E-2,-3.7111066E-2,1.2043784E-2,-1.4803882E-1,2.787096E-3,6.332251E-2,1.1723912E-1,-9.962732E-3,-7.8277476E-2,-3.174284E-2,1.0032379E-1,-4.6167918E-2,2.492789E-3,1.442102E-1,-3.582364E-2,2.7163228E-2,-1.5469158E-2,-1.20287135E-1,1.8419212E-2,1.3045183E-1,1.09710015E-1,3.312628E-2,-1.590884E-2,1.03465654E-1,4.326239E-2,-2.9983466E-2,9.8012246E-2,-1.6780159E-2,9.4929956E-2,-6.682152E-2,-8.556827E-2,3.4983728E-2,-1.2777647E-1,-3.0183563E-2,1.3777263E-1,3.1390827E-2,-6.869964E-2,6.64342E-2,5.388699E-3,1.1638065E-1],"split_indices":[2,0,12,5,17,11,14,13,5,10,21,23,21,14,14,0,0,21,25,28,15,37,22,43,30,5,0,19,24,24,13,14,45,22,13,20,21,8,0,43,43,0,21,1,0,0,5,0,3,10,22,18,0,9,0,17,28,0,0,0,0,0,0,0,0,0,0,0,0,0,0,0,0,0,0,0,0,0,0,0,0,0,0,0,0,0,0,0,0,0,0,0,0,0,0,0,0],"split_type":[0,0,0,0,0,0,0,0,0,0,0,0,0,0,0,0,0,0,0,0,0,0,0,0,0,0,0,0,0,0,0,0,0,0,0,0,0,0,0,0,0,0,0,0,0,0,0,0,0,0,0,0,0,0,0,0,0,0,0,0,0,0,0,0,0,0,0,0,0,0,0,0,0,0,0,0,0,0,0,0,0,0,0,0,0,0,0,0,0,0,0,0,0,0,0,0,0],"sum_hessian":[3.6755536E2,2.4569629E2,1.21859085E2,6.696247E1,1.7873381E2,6.732323E1,5.4535854E1,3.2373512E0,6.372512E1,9.296738E1,8.576644E1,4.777979E1,1.954344E1,2.2203514E1,3.233234E1,2.0451593E0,1.192192E0,7.372094E0,5.6353027E1,8.7307076E1,5.6603026E0,7.901498E1,6.7514606E0,1.8279154E1,2.9500633E1,1.8455242E1,1.0881977E0,1.4752129E1,7.4513845E0,7.4634533E0,2.4868887E1,3.5581634E0,3.8139305E0,5.242272E1,3.9303043E0,7.181225E1,1.5494825E1,4.359438E0,1.3008643E0,7.1847466E1,7.167509E0,1.4626321E0,5.2888284E0,9.150953E0,9.1282015E0,2.802706E0,2.6697927E1,1.48603325E1,3.59491E0,8.29419E0,6.457938E0,5.565115E0,1.8862697E0,5.7992535E0,1.6641997E0,1.0229275E1,1.4639612E1,1.4074028E0,2.1507607E0,1.2279528E0,2.5859776E0,4.505468E1,7.368042E0,2.7604108E0,1.1698936E0,5.7120792E1,1.4691457E1,2.8665073E0,1.2628318E1,1.693673E0,2.665765E0,3.1927954E1,3.9919518E1,2.013905E0,5.153604E0,1.2338383E0,4.0549903E0,7.8762226E0,1.2747301E0,6.352592E0,2.7756097E0,1.1243599E1,1.5454329E1,1.9121362E0,1.6827738E0,6.1903477E0,2.1038425E0,3.6001434E0,2.8577948E0,4.3508797E0,1.2142355E0,4.7441316E0,1.0551221E0,8.509892E0,1.7193828E0,1.1246248E1,3.3933642E0],"tree_param":{"num_deleted":"0","num_feature":"46","num_nodes":"97","size_leaf_vector":"1"}},{"base_weights":[8.593668E-3,-1.5267693E-1,3.3471674E-1,4.5312387E-1,-2.0586848E-1,5.402948E-1,8.010819E-2,9.646755E-1,-2.1858942E-2,-6.2465165E-2,-4.5111126E-1,3.3844316E-1,1.0102918E0,-2.0007928E-1,2.7350953E-1,1.1223613E0,4.370689E-3,4.4952372E-1,-5.196466E-1,-6.757127E-1,9.782769E-3,1.678973E-1,-5.7953626E-1,6.4630044E-1,1.3584262E-1,1.0808754E0,-9.428771E-3,1.2351137E-1,-7.7760094E-1,9.597694E-1,4.1657057E-2,1.3677566E-1,2.2329634E-2,8.665862E-2,-9.858423E-2,-1.0219742E0,6.282705E-2,-1.2257938E-2,-1.1818931E0,1.9024685E-1,-1.8160853E-1,-6.2908016E-2,7.2505796E-1,-6.397017E-1,1.7562759E-1,9.7917813E-1,2.5553024E-1,1.0233714E-1,1.24892E-2,1.1866839E-1,4.95671E-1,-7.3659115E-2,2.9737437E-1,-1.0576226E0,1.2724541E-2,1.1898798E0,2.7106905E-3,8.877886E-2,-1.18952565E-1,2.2143843E-2,-3.390259E-2,-8.168458E-3,-1.3180386E-1,-8.549648E-2,6.335214E-2,-4.713145E-2,-1.3575096E-1,3.4562595E-2,-4.4547763E-2,-2.8078696E-2,5.390504E-2,-1.0371401E-1,2.082597E-2,1.09341E-1,5.526686E-3,-6.654958E-2,3.9637964E-2,5.6091517E-2,-7.814251E-2,1.1538903E-1,5.5030044E-2,-1.4512236E-2,9.947485E-2,-4.5388874E-2,2.5931126E-2,9.390299E-2,-1.5668696E-2,6.8431936E-2,-4.024614E-2,-4.0834963E-2,-1.2842338E-1,2.8872026E-2,1.3022049E-1,-4.6626795E-2,2.4602368E-2],"categories":[],"categories_nodes":[],"categories_segments":[],"categories_sizes":[],"default_left":[0,0,0,0,0,0,0,0,0,0,0,0,0,0,0,0,0,0,0,0,0,0,0,0,0,0,0,0,0,0,0,0,0,0,0,0,0,0,0,0,0,0,0,0,0,0,0,0,0,0,0,0,0,0,0,0,0,0,0,0,0,0,0,0,0,0,0,0,0,0,0,0,0,0,0,0,0,0,0,0,0,0,0,0,0,0,0,0,0,0,0,0,0,0,0],"id":12,"left_children":[1,3,5,7,9,11,13,15,17,19,21,23,25,27,29,31,-1,33,35,37,39,41,43,45,47,49,-1,51,53,55,57,-1,-1,-1,59,61,-1,63,65,67,69,71,73,75,77,79,81,-1,83,-1,85,-1,87,89,-1,91,-1,-1,93,-1,-1,-1,-1,-1,-1,-1,-1,-1,-1,-1,-1,-1,-1,-1,-1,-1,-1,-1,-1,-1,-1,-1,-1,-1,-1,-1,-1,-1,-1,-1,-1,-1,-1,-1,-1],"loss_changes":[1.9177912E1,7.9565697E0,6.2715235E0,4.882866E0,7.8852644E0,5.974081E0,3.0388718E0,1.3532076E0,2.8976161E0,6.348943E0,6.6847897E0,2.910881E0,1.6221085E0,4.40673E0,5.211178E0,1.5045528E0,0E0,1.5410029E0,4.093664E0,5.0570054E0,4.49175E0,1.9762725E0,3.2406273E0,2.1973143E0,3.300241E0,5.515804E-1,0E0,2.5587828E0,2.2680812E0,1.7466831E0,3.600077E0,0E0,0E0,0E0,3.558767E-1,1.1574492E0,0E0,4.648141E0,4.278288E-1,6.763038E0,4.664159E0,3.263568E0,1.0442443E0,1.9738121E0,2.601116E0,9.9882126E-2,3.1085265E0,0E0,3.2926354E0,0E0,1.4590404E0,0E0,3.9928446E0,4.3749332E-1,0E0,2.9465675E-1,0E0,0E0,2.966057E0,0E0,0E0,0E0,0E0,0E0,0E0,0E0,0E0,0E0,0E0,0E0,0E0,0E0,0E0,0E0,0E0,0E0,0E0,0E0,0E0,0E0,0E0,0E0,0E0,0E0,0E0,0E0,0E0,0E0,0E0,0E0,0E0,0E0,0E0,0E0,0E0],"parents":[2147483647,0,0,1,1,2,2,3,3,4,4,5,5,6,6,7,7,8,8,9,9,10,10,11,11,12,12,13,13,14,14,15,15,17,17,18,18,19,19,20,20,21,21,22,22,23,23,24,24,25,25,27,27,28,28,29,29,30,30,34,34,35,35,37,37,38,38,39,39,40,40,41,41,42,42,43,43,44,44,45,45,46,46,48,48,50,50,52,52,53,53,55,55,58,58],"right_children":[2,4,6,8,10,12,14,16,18,20,22,24,26,28,30,32,-1,34,36,38,40,42,44,46,48,50,-1,52,54,56,58,-1,-1,-1,60,62,-1,64,66,68,70,72,74,76,78,80,82,-1,84,-1,86,-1,88,90,-1,92,-1,-1,94,-1,-1,-1,-1,-1,-1,-1,-1,-1,-1,-1,-1,-1,-1,-1,-1,-1,-1,-1,-1,-1,-1,-1,-1,-1,-1,-1,-1,-1,-1,-1,-1,-1,-1,-1,-1],"split_conditions":[5E-1,7.894737E-1,1.1727273E1,1.8666666E1,5E1,3.2265E2,4.6E1,4.1666666E-1,7.7E1,8.235294E-1,1.4E-1,1.3043478E-1,3.5714287E-1,4E1,5.1E1,3.75E-1,4.370689E-3,3E0,3.4525E0,1.6883117E-1,3.464706E0,2.8284273E-1,4.7058824E-1,6.2E1,8.125E-1,6E0,-9.428771E-3,1.922E2,1.0526316E-1,1.3636364E-1,7.8571427E-1,1.3677566E-1,2.2329634E-2,8.665862E-2,2.8947368E-1,2.7027028E-2,6.282705E-2,5.32E2,6.696E2,1.2950046E0,4.6153847E-2,6E1,8.3E1,4.09939E1,1.4315525E0,2.4E-1,1.4E1,1.0233714E-1,7.614996E-1,1.1866839E-1,2E0,-7.3659115E-2,3.892E2,2.414E2,1.2724541E-2,1.3818182E1,2.7106905E-3,8.877886E-2,1.3296614E0,2.2143843E-2,-3.390259E-2,-8.168458E-3,-1.3180386E-1,-8.549648E-2,6.335214E-2,-4.713145E-2,-1.3575096E-1,3.4562595E-2,-4.4547763E-2,-2.8078696E-2,5.390504E-2,-1.0371401E-1,2.082597E-2,1.09341E-1,5.526686E-3,-6.654958E-2,3.9637964E-2,5.6091517E-2,-7.814251E-2,1.1538903E-1,5.5030044E-2,-1.4512236E-2,9.947485E-2,-4.5388874E-2,2.5931126E-2,9.390299E-2,-1.5668696E-2,6.8431936E-2,-4.024614E-2,-4.0834963E-2,-1.2842338E-1,2.8872026E-2,1.3022049E-1,-4.6626795E-2,2.4602368E-2],"split_indices":[2,30,12,12,5,11,14,21,10,30,1,23,21,14,14,17,0,41,32,22,32,15,36,43,30,5,0,10,24,24,30,0,0,0,19,34,0,9,9,15,35,5,5,13,26,19,0,0,15,0,3,0,10,10,0,12,0,0,26,0,0,0,0,0,0,0,0,0,0,0,0,0,0,0,0,0,0,0,0,0,0,0,0,0,0,0,0,0,0,0,0,0,0,0,0],"split_type":[0,0,0,0,0,0,0,0,0,0,0,0,0,0,0,0,0,0,0,0,0,0,0,0,0,0,0,0,0,0,0,0,0,0,0,0,0,0,0,0,0,0,0,0,0,0,0,0,0,0,0,0,0,0,0,0,0,0,0,0,0,0,0,0,0,0,0,0,0,0,0,0,0,0,0,0,0,0,0,0,0,0,0,0,0,0,0,0,0,0,0,0,0,0,0],"sum_hessian":[3.626686E2,2.4302338E2,1.1964525E2,1.9009117E1,2.2401425E2,6.557561E1,5.406964E1,8.655867E0,1.035325E1,1.4214882E2,8.186543E1,4.707724E1,1.8498367E1,2.2066534E1,3.200311E1,7.203779E0,1.4520875E0,5.3674607E0,4.9857883E0,1.4101469E1,1.2804735E2,1.4013418E1,6.785202E1,1.7815722E1,2.926152E1,1.7407475E1,1.0908922E0,1.4646245E1,7.4202886E0,7.288958E0,2.471415E1,5.2496147E0,1.9541647E0,2.7181416E0,2.6493194E0,3.544453E0,1.4413357E0,6.545909E0,7.55556E0,6.590813E1,6.213922E1,1.053596E1,3.477458E0,6.298664E1,4.8653784E0,8.8073845E0,9.008337E0,2.6803231E0,2.6581196E1,1.3871595E1,3.5358796E0,1.9185477E0,1.2727697E1,5.5377016E0,1.882587E0,5.625278E0,1.66368E0,3.2204418E0,2.1493708E1,1.1704758E0,1.4788435E0,1.154309E0,2.3901439E0,2.6994052E0,3.8465037E0,2.2272887E0,5.3282714E0,5.3329945E1,1.2578183E1,5.515857E1,6.9806504E0,1.6790107E0,8.856949E0,1.8355384E0,1.6419197E0,6.1805622E1,1.1810169E0,3.7639942E0,1.1013843E0,5.056876E0,3.7505085E0,6.363197E0,2.6451397E0,8.908804E0,1.7672392E1,1.8435302E0,1.6923493E0,8.210317E0,4.5173807E0,2.1576672E0,3.3800342E0,1.0191622E0,4.606116E0,1.0871111E1,1.0622597E1],"tree_param":{"num_deleted":"0","num_feature":"46","num_nodes":"95","size_leaf_vector":"1"}},{"base_weights":[9.361141E-3,-1.3948381E-1,3.1223053E-1,1.6904809E-1,-2.313789E-1,1.4241108E-1,6.0003394E-1,1.0402316E-1,9.9302396E-2,-3.783827E-1,7.485302E-2,7.6405644E-2,9.1210365E-1,3.98651E-1,1.0229632E0,5.7768438E-2,8.7761946E-2,6.038395E-1,-4.2385527E-1,4.4634026E-1,-1.7138216E-1,1.7108917E-1,-7.482625E-1,1.13711335E-1,9.063863E-3,-2.0061073E-1,5.7496506E-1,2.062899E-2,1.0724572E0,1.6340904E-1,-6.373204E-1,-4.6451185E-2,1.1299378E-1,-4.921866E-1,2.0210683E-1,-5.6018025E-2,9.008381E-1,-2.78971E-1,9.2764966E-2,5.0417095E-1,-2.713759E-2,5.4118767E-2,-1.4055948E-1,4.057165E-1,-1.0086478E-1,2.4489242E-1,1.0006875E0,1.1320038E-1,3.603986E-2,2.4410611E-2,-3.8937476E-2,-9.688593E-2,-2.9121365E-3,-5.413578E-2,1.785416E-2,-4.1295156E-2,7.668045E-2,7.048756E-2,-4.976849E-2,2.3690471E-2,1.3396317E-1,-6.1632026E-2,6.8870275E-3,6.910248E-2,-2.9969493E-2,2.3600854E-2,-4.6764337E-2,-7.888515E-2,6.107678E-2,1.0098826E-1,-4.076538E-2,3.9624237E-2,-8.309292E-2,3.1021186E-3,1.1361181E-1],"categories":[],"categories_nodes":[],"categories_segments":[],"categories_sizes":[],"default_left":[0,0,0,0,0,0,0,0,0,0,0,0,0,0,0,0,0,0,0,0,0,0,0,0,0,0,0,0,0,0,0,0,0,0,0,0,0,0,0,0,0,0,0,0,0,0,0,0,0,0,0,0,0,0,0,0,0,0,0,0,0,0,0,0,0,0,0,0,0,0,0,0,0,0,0],"id":13,"left_children":[1,3,5,7,9,11,13,15,-1,17,19,21,23,25,27,29,-1,31,33,35,37,39,41,-1,-1,43,45,-1,47,49,51,-1,-1,53,55,57,59,61,-1,63,65,67,-1,69,-1,71,73,-1,-1,-1,-1,-1,-1,-1,-1,-1,-1,-1,-1,-1,-1,-1,-1,-1,-1,-1,-1,-1,-1,-1,-1,-1,-1,-1,-1],"loss_changes":[1.6217123E1,6.8789625E0,5.7075396E0,2.8939776E0,8.415104E0,3.784007E0,3.3118773E0,1.8445747E0,0E0,5.885456E0,5.6801805E0,5.668334E0,9.874258E-1,3.4144425E0,3.2238007E-1,3.852629E0,0E0,3.8912516E0,5.277191E0,5.6892834E0,4.7004247E0,4.269762E0,4.0284677E0,0E0,0E0,4.2501388E0,3.1814442E0,0E0,1.1959267E-1,2.1073055E0,1.3709667E0,0E0,0E0,3.7056828E0,4.700768E0,4.6094675E0,3.4771051E0,4.147479E0,0E0,3.827186E0,4.9047146E0,2.5171025E0,0E0,2.9630833E0,0E0,2.781289E0,1.3206968E0,0E0,0E0,0E0,0E0,0E0,0E0,0E0,0E0,0E0,0E0,0E0,0E0,0E0,0E0,0E0,0E0,0E0,0E0,0E0,0E0,0E0,0E0,0E0,0E0,0E0,0E0,0E0,0E0],"parents":[2147483647,0,0,1,1,2,2,3,3,4,4,5,5,6,6,7,7,9,9,10,10,11,11,12,12,13,13,14,14,15,15,17,17,18,18,19,19,20,20,21,21,22,22,25,25,26,26,28,28,29,29,30,30,33,33,34,34,35,35,36,36,37,37,39,39,40,40,41,41,43,43,45,45,46,46],"right_children":[2,4,6,8,10,12,14,16,-1,18,20,22,24,26,28,30,-1,32,34,36,38,40,42,-1,-1,44,46,-1,48,50,52,-1,-1,54,56,58,60,62,-1,64,66,68,-1,70,-1,72,74,-1,-1,-1,-1,-1,-1,-1,-1,-1,-1,-1,-1,-1,-1,-1,-1,-1,-1,-1,-1,-1,-1,-1,-1,-1,-1,-1,-1],"split_conditions":[5E-1,1.7857143E-1,3.5714287E-1,7.1428573E-1,2.9166666E-1,2.3E0,1.25E0,7E0,9.9302396E-2,7.8571427E-1,8.8674957E-1,1.8409091E0,2.0833333E-1,9.756097E-2,4E-1,5E0,8.7761946E-2,4.294E2,1.83E2,8.214286E-1,2.7272728E-1,5E0,1.724138E-1,1.13711335E-1,9.063863E-3,1.6468E3,1.2105263E0,2.062899E-2,4.5E1,8.2E1,3.65E1,-4.6451185E-2,1.1299378E-1,3.548387E-1,1.9052559E1,1.3862944E0,2.2E1,1.5625E-1,9.2764966E-2,2.631579E-1,9E0,1.0042424E0,-1.4055948E-1,3.46E0,-1.0086478E-1,3.125E-1,3.75E-1,1.1320038E-1,3.603986E-2,2.4410611E-2,-3.8937476E-2,-9.688593E-2,-2.9121365E-3,-5.413578E-2,1.785416E-2,-4.1295156E-2,7.668045E-2,7.048756E-2,-4.976849E-2,2.3690471E-2,1.3396317E-1,-6.1632026E-2,6.8870275E-3,6.910248E-2,-2.9969493E-2,2.3600854E-2,-4.6764337E-2,-7.888515E-2,6.107678E-2,1.0098826E-1,-4.076538E-2,3.9624237E-2,-8.309292E-2,3.1021186E-3,1.1361181E-1],"split_indices":[2,1,17,22,17,27,2,8,0,30,15,27,23,21,33,8,0,9,10,33,35,5,21,0,0,9,27,0,0,14,12,0,0,24,13,26,5,23,0,20,8,26,0,32,0,19,17,0,0,0,0,0,0,0,0,0,0,0,0,0,0,0,0,0,0,0,0,0,0,0,0,0,0,0,0],"split_type":[0,0,0,0,0,0,0,0,0,0,0,0,0,0,0,0,0,0,0,0,0,0,0,0,0,0,0,0,0,0,0,0,0,0,0,0,0,0,0,0,0,0,0,0,0,0,0,0,0,0,0,0,0,0,0,0,0,0,0,0,0,0,0,0,0,0,0,0,0,0,0,0,0,0,0],"sum_hessian":[3.577703E2,2.4024266E2,1.1752763E2,5.494127E1,1.8530139E2,7.485436E1,4.267327E1,5.196652E1,2.9747477E0,1.25041E2,6.026039E1,6.995463E1,4.8997316E0,3.0224228E1,1.2449043E1,5.004869E1,1.9178269E0,4.9893875E0,1.2005161E2,2.3696926E1,3.656346E1,6.3460953E1,6.493676E0,3.5445771E0,1.3551546E0,6.8396406E0,2.3384586E1,1.0066624E0,1.1442381E1,4.410974E1,5.9389524E0,1.6849039E0,3.3044834E0,1.0842899E2,1.1622621E1,1.1672269E1,1.2024658E1,3.39829E1,2.580562E0,2.310092E1,4.0360035E1,3.337447E0,3.1562293E0,4.191992E0,2.6476486E0,1.405931E1,9.325276E0,1.0015098E1,1.4272833E0,3.8978016E1,5.131725E0,3.459906E0,2.4790463E0,1.0120268E2,7.226312E0,5.691866E0,5.930755E0,4.068024E0,7.604244E0,5.3975654E0,6.627093E0,1.6859802E1,1.7123098E1,1.8857887E1,4.2430315E0,2.5557133E1,1.4802901E1,1.1614473E0,2.1759996E0,2.2666998E0,1.9252923E0,1.287912E1,1.1801904E0,1.2934422E0,8.031834E0],"tree_param":{"num_deleted":"0","num_feature":"46","num_nodes":"75","size_leaf_vector":"1"}},{"base_weights":[1.0179351E-2,1.3187194E-1,-3.1731495E-1,1.9143717E-2,4.2411834E-1,-1.8822283E-1,-7.855887E-1,5.03986E-1,-6.1024275E-2,2.9770803E-1,9.899273E-1,2.5964055E-2,-3.804146E-1,-2.010022E-1,-1.0335469E0,6.3558847E-1,1.4875285E-2,5.981628E-1,-1.2925868E-1,1.8403035E-1,8.7660635E-1,1.0930296E-1,4.635884E-1,1.941913E-1,-5.0489706E-1,-4.7725973E-1,3.9165115E-1,6.021979E-1,-6.3679177E-1,-1.082744E-1,-2.858969E-2,-1.9429058E-2,7.965268E-1,7.1033466E-1,-6.737501E-1,7.738854E-1,-5.5915948E-2,-1.822643E-1,3.574039E-1,5.2130514E-1,-6.1991885E-2,1.1786416E0,-3.913651E-2,7.951211E-2,-1.532577E-2,-1.2484253E-1,7.788564E-1,-7.257153E-1,5.2952595E-2,-7.052342E-1,-1.2157949E-1,8.84108E-1,-7.5085156E-2,1.11055754E-1,-1.886941E-2,-9.6630976E-2,1.3470143E-2,-4.512878E-2,8.068385E-2,9.2477866E-2,6.64579E-3,9.500263E-2,1.3138722E-2,2.2000904E-4,-9.683803E-2,-3.4686387E-2,9.404321E-2,-3.0094022E-3,-4.1499477E-2,7.598328E-2,-3.5215512E-2,7.523085E-2,-4.7330685E-2,5.792774E-2,-2.3622785E-2,1.2603106E-1,3.398275E-2,-6.235384E-2,5.6999426E-2,1.7917382E-3,-8.9424096E-2,2.8550332E-2,1.09290294E-1,4.042619E-3,-1.1505494E-1,-9.6295856E-2,-1.45147685E-2,-4.3888766E-2,4.881306E-2,-2.5533784E-2,1.381941E-1],"categories":[],"categories_nodes":[],"categories_segments":[],"categories_sizes":[],"default_left":[0,0,0,0,0,0,0,0,0,0,0,0,0,0,0,0,0,0,0,0,0,0,0,0,0,0,0,0,0,0,0,0,0,0,0,0,0,0,0,0,0,0,0,0,0,0,0,0,0,0,0,0,0,0,0,0,0,0,0,0,0,0,0,0,0,0,0,0,0,0,0,0,0,0,0,0,0,0,0,0,0,0,0,0,0,0,0,0,0,0,0],"id":14,"left_children":[1,3,5,7,9,11,13,15,17,19,21,23,25,27,29,31,33,35,37,39,41,-1,43,45,47,49,51,53,55,-1,-1,57,59,61,63,65,-1,67,69,71,73,75,77,-1,-1,79,81,83,-1,85,87,89,-1,-1,-1,-1,-1,-1,-1,-1,-1,-1,-1,-1,-1,-1,-1,-1,-1,-1,-1,-1,-1,-1,-1,-1,-1,-1,-1,-1,-1,-1,-1,-1,-1,-1,-1,-1,-1,-1,-1],"loss_changes":[1.4153318E1,8.519931E0,5.668721E0,7.3323674E0,4.8556814E0,3.1689703E0,2.7606668E0,1.7131653E0,7.3680305E0,3.806179E0,1.835556E-1,3.4229212E0,3.2160249E0,2.9528623E0,2.1046925E-1,2.2359877E0,3.686329E0,3.5609903E0,3.8754034E0,4.3188486E0,2.7096558E0,0E0,9.0307283E-1,5.5053496E0,2.4941578E0,2.869627E0,3.5133152E0,1.454267E0,1.4634769E0,0E0,0E0,2.1949544E0,1.5240393E0,4.0517032E-1,7.7460337E-1,2.8972282E0,0E0,4.728219E0,4.5066633E0,5.3866467E0,3.57419E0,6.9996834E-2,1.550183E0,0E0,0E0,2.1710472E0,1.2952442E0,2.661368E0,0E0,3.0362806E0,3.2022328E0,2.6209292E0,0E0,0E0,0E0,0E0,0E0,0E0,0E0,0E0,0E0,0E0,0E0,0E0,0E0,0E0,0E0,0E0,0E0,0E0,0E0,0E0,0E0,0E0,0E0,0E0,0E0,0E0,0E0,0E0,0E0,0E0,0E0,0E0,0E0,0E0,0E0,0E0,0E0,0E0,0E0],"parents":[2147483647,0,0,1,1,2,2,3,3,4,4,5,5,6,6,7,7,8,8,9,9,10,10,11,11,12,12,13,13,14,14,15,15,16,16,17,17,18,18,19,19,20,20,22,22,23,23,24,24,25,25,26,26,27,27,28,28,31,31,32,32,33,33,34,34,35,35,37,37,38,38,39,39,40,40,41,41,42,42,45,45,46,46,47,47,49,49,50,50,51,51],"right_children":[2,4,6,8,10,12,14,16,18,20,22,24,26,28,30,32,34,36,38,40,42,-1,44,46,48,50,52,54,56,-1,-1,58,60,62,64,66,-1,68,70,72,74,76,78,-1,-1,80,82,84,-1,86,88,90,-1,-1,-1,-1,-1,-1,-1,-1,-1,-1,-1,-1,-1,-1,-1,-1,-1,-1,-1,-1,-1,-1,-1,-1,-1,-1,-1,-1,-1,-1,-1,-1,-1,-1,-1,-1,-1,-1,-1],"split_conditions":[4.3E1,3.5714287E-1,1.5465987E0,4E0,1.25E0,1.0344828E-1,8.024062E-1,3.478261E-1,7.8571427E-1,1.4298495E1,1.6071428E0,1.0477747E0,1.2459E3,3.47E0,1.7391305E-1,9.3333334E-2,5E-1,3.0232558E-1,3.29E2,2.8E1,1.9115E3,1.0930296E-1,1.6859124E0,2.0833333E-1,1.0153847E0,1.1692129E1,2.0703E3,1.2647059E0,2.0833333E-1,-1.082744E-1,-2.858969E-2,9.24E1,3.2139023E1,3.938E2,1.35E0,4.032E2,-5.5915948E-2,1.7857143E-1,5E0,9.736842E-1,3.4039216E0,1.7E1,5.625E-1,7.951211E-2,-1.532577E-2,1.6883117E-1,6E1,1.618497E-1,5.2952595E-2,3.846154E-1,2.0408164E-1,3.4210527E-1,-7.5085156E-2,1.11055754E-1,-1.886941E-2,-9.6630976E-2,1.3470143E-2,-4.512878E-2,8.068385E-2,9.2477866E-2,6.64579E-3,9.500263E-2,1.3138722E-2,2.2000904E-4,-9.683803E-2,-3.4686387E-2,9.404321E-2,-3.0094022E-3,-4.1499477E-2,7.598328E-2,-3.5215512E-2,7.523085E-2,-4.7330685E-2,5.792774E-2,-2.3622785E-2,1.2603106E-1,3.398275E-2,-6.235384E-2,5.6999426E-2,1.7917382E-3,-8.9424096E-2,2.8550332E-2,1.09290294E-1,4.042619E-3,-1.1505494E-1,-9.6295856E-2,-1.45147685E-2,-4.3888766E-2,4.881306E-2,-2.5533784E-2,1.381941E-1],"split_indices":[5,17,26,0,2,23,15,23,30,13,1,15,9,32,35,1,3,23,11,14,9,0,26,22,34,13,9,27,23,0,0,11,13,9,27,9,0,22,5,33,32,5,38,0,0,22,5,1,0,23,21,33,0,0,0,0,0,0,0,0,0,0,0,0,0,0,0,0,0,0,0,0,0,0,0,0,0,0,0,0,0,0,0,0,0,0,0,0,0,0,0],"split_type":[0,0,0,0,0,0,0,0,0,0,0,0,0,0,0,0,0,0,0,0,0,0,0,0,0,0,0,0,0,0,0,0,0,0,0,0,0,0,0,0,0,0,0,0,0,0,0,0,0,0,0,0,0,0,0,0,0,0,0,0,0,0,0,0,0,0,0,0,0,0,0,0,0,0,0,0,0,0,0,0,0,0,0,0,0,0,0,0,0,0,0],"sum_hessian":[3.530825E2,2.578618E2,9.522072E1,1.8685262E2,7.100916E1,7.5742294E1,1.947843E1,2.5761976E1,1.6109064E2,5.928921E1,1.1719949E1,3.6230427E1,3.9511864E1,6.340558E0,1.3137873E1,2.0063986E1,5.697989E0,1.4382302E1,1.4670833E2,5.0659214E1,8.63E0,8.899917E0,2.820032E0,2.7993593E1,8.236835E0,3.544732E1,4.0645437E0,2.0958533E0,4.2447047E0,1.19062195E1,1.2316533E0,4.1308284E0,1.5933158E1,2.8192425E0,2.8787465E0,1.277406E1,1.6082426E0,1.3286285E2,1.3845483E1,2.0895033E1,2.976418E1,6.27369E0,2.3563101E0,1.646231E0,1.1738008E0,1.8619806E1,9.373786E0,7.033771E0,1.2030641E0,2.1002754E1,1.4444566E1,2.9983292E0,1.0662146E0,1.0297681E0,1.0660852E0,2.7973776E0,1.4473269E0,3.010945E0,1.1198833E0,1.3325546E1,2.6076114E0,1.5405012E0,1.2787414E0,1.1751686E0,1.703578E0,1.5125968E0,1.1261463E1,8.101845E1,5.1844406E1,8.789586E0,5.0558968E0,1.7154448E1,3.7405858E0,5.8625603E0,2.3901619E1,5.259155E0,1.0145353E0,1.1904941E0,1.1658162E0,1.652951E1,2.0902963E0,4.388601E0,4.985185E0,2.831791E0,4.20198E0,1.389134E1,7.1114144E0,9.68462E0,4.7599454E0,1.0597844E0,1.9385449E0],"tree_param":{"num_deleted":"0","num_feature":"46","num_nodes":"91","size_leaf_vector":"1"}},{"base_weights":[1.028214E-2,1.16699986E-1,-3.1519446E-1,5.9660874E-2,6.3382804E-1,-2.0624718E-1,-7.4013925E-1,4.6662164E-1,1.0243871E-2,-2.2665845E-1,9.119803E-1,-3.1090367E-1,1.451593E-1,8.344883E-2,-9.198591E-1,6.192851E-1,-6.548139E-2,-1.0003735E-1,2.83307E-1,4.967701E-1,-6.5886086E-1,1.0161725E0,-1.341559E-2,-3.9288744E-1,2.624294E-1,4.1645762E-1,-9.6309684E-2,-9.050648E-2,9.732787E-2,-3.7214547E-1,-1.12612665E-1,7.419117E-1,-5.5813887E-3,-7.02064E-2,2.8406498E-1,-9.809523E-3,-4.0385008E-1,3.6099696E-1,-5.9045315E-1,-7.2459946E-3,7.9844475E-2,-1.0380672E0,3.2130186E-2,1.0908477E0,-7.766619E-3,4.6775007E-1,-4.4737452E-1,6.2992704E-1,-5.2549314E-2,-3.409695E-1,8.5417527E-1,2.8883522E-2,-7.148599E-2,8.3754495E-2,-4.1794996E-3,-4.8626352E-2,7.573589E-2,7.459172E-2,-3.1283535E-2,5.949972E-2,-7.020057E-3,-3.1405836E-3,-9.663729E-2,2.3325002E-2,9.322848E-2,-1.0453432E-1,1.9259369E-2,-1.22349106E-1,-3.3350576E-2,1.1667495E-1,3.3322502E-2,8.758657E-2,-1.48461405E-2,-4.939413E-2,6.017346E-2,1.0878742E-1,4.7706263E-3,1.0821282E-2,-7.672827E-2,1.382911E-1,8.832316E-3],"categories":[],"categories_nodes":[],"categories_segments":[],"categories_sizes":[],"default_left":[0,0,0,0,0,0,0,0,0,0,0,0,0,0,0,0,0,0,0,0,0,0,0,0,0,0,0,0,0,0,0,0,0,0,0,0,0,0,0,0,0,0,0,0,0,0,0,0,0,0,0,0,0,0,0,0,0,0,0,0,0,0,0,0,0,0,0,0,0,0,0,0,0,0,0,0,0,0,0,0,0],"id":15,"left_children":[1,3,5,7,9,11,13,15,17,19,21,23,25,27,29,31,33,35,37,39,41,43,-1,45,47,49,-1,-1,-1,51,-1,53,55,-1,57,59,61,63,65,-1,-1,67,-1,69,-1,71,73,75,-1,77,79,-1,-1,-1,-1,-1,-1,-1,-1,-1,-1,-1,-1,-1,-1,-1,-1,-1,-1,-1,-1,-1,-1,-1,-1,-1,-1,-1,-1,-1,-1],"loss_changes":[1.2139077E1,7.7505913E0,3.8456917E0,4.800046E0,6.4600906E0,2.624168E0,2.6281395E0,2.1402383E0,6.4747915E0,2.5733035E0,2.3101616E0,2.6578789E0,5.4445543E0,4.4032683E0,1.1888733E0,1.5505042E0,1.6829283E0,4.1963005E0,4.4113417E0,6.171003E-1,2.1646967E0,1.5757351E0,0E0,2.4579453E0,2.4735634E0,4.99034E0,0E0,0E0,0E0,1.4268382E0,0E0,1.2999582E0,1.9464005E0,0E0,1.6160758E0,4.3942347E0,7.3151703E0,3.9727602E0,2.1352553E0,0E0,0E0,8.69236E-2,0E0,5.9763336E-1,0E0,9.710031E-1,2.525384E0,1.4147224E0,0E0,1.2139306E0,3.6307144E0,0E0,0E0,0E0,0E0,0E0,0E0,0E0,0E0,0E0,0E0,0E0,0E0,0E0,0E0,0E0,0E0,0E0,0E0,0E0,0E0,0E0,0E0,0E0,0E0,0E0,0E0,0E0,0E0,0E0,0E0],"parents":[2147483647,0,0,1,1,2,2,3,3,4,4,5,5,6,6,7,7,8,8,9,9,10,10,11,11,12,12,13,13,14,14,15,15,16,16,17,17,18,18,19,19,20,20,21,21,23,23,24,24,25,25,29,29,31,31,32,32,34,34,35,35,36,36,37,37,38,38,41,41,43,43,45,45,46,46,47,47,49,49,50,50],"right_children":[2,4,6,8,10,12,14,16,18,20,22,24,26,28,30,32,34,36,38,40,42,44,-1,46,48,50,-1,-1,-1,52,-1,54,56,-1,58,60,62,64,66,-1,-1,68,-1,70,-1,72,74,76,-1,78,80,-1,-1,-1,-1,-1,-1,-1,-1,-1,-1,-1,-1,-1,-1,-1,-1,-1,-1,-1,-1,-1,-1,-1,-1,-1,-1,-1,-1,-1,-1],"split_conditions":[4.7E1,2E0,1.5465987E0,4E0,3.15E2,4.4E1,5.5555556E-2,6E1,3.5714287E-1,2E0,6E0,1.31E2,1.4938143E0,6.9E1,8.838835E-1,5.615E2,2.94E2,2.6086956E-1,5E0,2E0,3E0,3.5714287E-1,-1.341559E-2,7.8571427E-1,2E0,3.4263158E0,-9.6309684E-2,-9.050648E-2,9.732787E-2,3.4525E0,-1.12612665E-1,5.3846157E-1,3E0,-7.02064E-2,1.25E-1,7.8571427E-1,8.125E-1,1.3914421E1,3E0,-7.2459946E-3,7.9844475E-2,3.47E0,3.2130186E-2,3.75E-1,-7.766619E-3,3.478261E-1,5E-1,3.4625E0,-5.2549314E-2,1.4583333E-1,3E0,2.8883522E-2,-7.148599E-2,8.3754495E-2,-4.1794996E-3,-4.8626352E-2,7.573589E-2,7.459172E-2,-3.1283535E-2,5.949972E-2,-7.020057E-3,-3.1405836E-3,-9.663729E-2,2.3325002E-2,9.322848E-2,-1.0453432E-1,1.9259369E-2,-1.22349106E-1,-3.3350576E-2,1.1667495E-1,3.3322502E-2,8.758657E-2,-1.48461405E-2,-4.939413E-2,6.017346E-2,1.0878742E-1,4.7706263E-3,1.0821282E-2,-7.672827E-2,1.382911E-1,8.832316E-3],"split_indices":[5,4,26,0,10,14,19,14,17,44,5,5,15,5,15,9,9,23,18,16,18,21,0,30,16,32,0,0,0,32,0,21,40,0,17,30,38,13,41,0,0,32,0,19,0,21,1,32,0,21,40,0,0,0,0,0,0,0,0,0,0,0,0,0,0,0,0,0,0,0,0,0,0,0,0,0,0,0,0,0,0],"split_type":[0,0,0,0,0,0,0,0,0,0,0,0,0,0,0,0,0,0,0,0,0,0,0,0,0,0,0,0,0,0,0,0,0,0,0,0,0,0,0,0,0,0,0,0,0,0,0,0,0,0,0,0,0,0,0,0,0,0,0,0,0,0,0,0,0,0,0,0,0,0,0,0,0,0,0,0,0,0,0,0,0],"sum_hessian":[3.4840857E2,2.6304486E2,8.536371E1,2.3791792E2,2.5126925E1,6.9126434E1,1.6237274E1,2.4847807E1,2.1307011E2,6.183352E0,1.8943571E1,5.335224E1,1.5774198E1,3.0044932E0,1.323278E1,1.918086E1,5.6669464E0,1.5222507E2,6.0845055E1,2.2566822E0,3.9266698E0,1.7253784E1,1.689787E0,4.6952934E1,6.3993063E0,1.3173565E1,2.6006327E0,1.4152113E0,1.589282E0,4.3872533E0,8.845528E0,1.5877648E1,3.3032124E0,1.6512474E0,4.015699E0,1.1816432E2,3.406074E1,5.641572E1,4.429331E0,1.0448887E0,1.2117935E0,2.7886987E0,1.1379712E0,1.6153723E1,1.1000626E0,2.3440137E0,4.460892E1,4.5006595E0,1.8986467E0,4.9057236E0,8.267841E0,1.5517203E0,2.835533E0,1.4089638E1,1.7880105E0,2.2489388E0,1.0542736E0,2.1232114E0,1.8924878E0,9.924058E0,1.08240265E2,2.1127882E1,1.2932861E1,4.725681E1,9.158914E0,2.589855E0,1.8394759E0,1.6246111E0,1.1640877E0,1.4191905E1,1.9618168E0,1.1566169E0,1.1873968E0,4.3219707E1,1.3892125E0,2.0330606E0,2.467599E0,2.7521272E0,2.1535964E0,4.414443E0,3.8533983E0],"tree_param":{"num_deleted":"0","num_feature":"46","num_nodes":"81","size_leaf_vector":"1"}},{"base_weights":[9.752752E-3,-9.109604E-2,3.0922383E-1,3.0920428E-1,-1.4432417E-1,3.6053705E-1,-6.154141E-1,1.2434767E-1,7.222446E-1,-3.9329544E-2,-4.0490746E-1,2.3781238E-1,7.128659E-1,6.981694E-3,-1.0276663E-1,6.713143E-1,-5.1897455E-2,2.338453E-1,1.18507184E-1,-7.18934E-1,8.580018E-3,4.5475796E-1,-4.5841575E-1,6.9108796E-1,7.208852E-2,-3.7818852E-1,8.683262E-1,1.0493385E-1,-8.483527E-3,4.677735E-1,-2.1304858E-1,9.573662E-2,-4.122737E-1,7.277694E-2,-9.625879E-1,8.2357384E-2,-4.0866542E-1,-1.6325345E-2,8.9903295E-2,-5.352871E-1,1.1377596E-1,-6.5041564E-2,1.0020826E0,3.59847E-1,-2.5680727E-1,-6.936951E-2,1.1178025E-2,9.7489816E-1,-1.2537921E-2,-2.9199997E-2,8.352323E-2,-3.9016776E-2,3.710013E-2,-9.584256E-2,4.479166E-2,-1.18070476E-1,1.8725608E-2,2.1743795E-2,-1.61617E-2,-6.003252E-3,-1.0053275E-1,-8.680912E-2,-3.7833966E-2,1.19454265E-1,-3.3279818E-2,7.5736366E-2,-4.2428102E-2,8.802038E-3,1.2426716E-1,-2.6602338E-3,8.785168E-2,1.15216235E-2,-8.898482E-2,1.0898E-1,1.3489484E-2],"categories":[],"categories_nodes":[],"categories_segments":[],"categories_sizes":[],"default_left":[0,0,0,0,0,0,0,0,0,0,0,0,0,0,0,0,0,0,0,0,0,0,0,0,0,0,0,0,0,0,0,0,0,0,0,0,0,0,0,0,0,0,0,0,0,0,0,0,0,0,0,0,0,0,0,0,0,0,0,0,0,0,0,0,0,0,0,0,0,0,0,0,0,0,0],"id":16,"left_children":[1,3,5,7,9,11,13,15,17,19,21,23,25,-1,-1,27,29,31,-1,33,35,37,39,41,43,45,47,-1,-1,49,51,-1,53,-1,55,57,59,-1,-1,61,63,65,67,69,71,-1,-1,73,-1,-1,-1,-1,-1,-1,-1,-1,-1,-1,-1,-1,-1,-1,-1,-1,-1,-1,-1,-1,-1,-1,-1,-1,-1,-1,-1],"loss_changes":[1.0458628E1,5.566025E0,4.3607035E0,2.2566154E0,6.260462E0,3.431284E0,1.4717242E0,2.1978428E0,1.8236055E0,5.366268E0,3.2341557E0,4.7024274E0,3.892497E0,0E0,0E0,1.6725299E0,1.5985332E0,3.0909534E0,0E0,4.526149E0,4.798031E0,1.3428566E0,2.8064842E0,4.0206566E0,4.582476E0,5.903479E-1,2.1021175E0,0E0,0E0,1.5140114E0,1.6290612E0,0E0,2.1890416E0,0E0,2.6586466E0,4.396862E0,4.8119097E0,0E0,0E0,2.5549812E0,4.363634E0,2.0470657E0,2.5251179E0,5.178693E0,5.4537573E0,0E0,0E0,1.4936695E0,0E0,0E0,0E0,0E0,0E0,0E0,0E0,0E0,0E0,0E0,0E0,0E0,0E0,0E0,0E0,0E0,0E0,0E0,0E0,0E0,0E0,0E0,0E0,0E0,0E0,0E0,0E0],"parents":[2147483647,0,0,1,1,2,2,3,3,4,4,5,5,6,6,7,7,8,8,9,9,10,10,11,11,12,12,15,15,16,16,17,17,19,19,20,20,21,21,22,22,23,23,24,24,25,25,26,26,29,29,30,30,32,32,34,34,35,35,36,36,39,39,40,40,41,41,42,42,43,43,44,44,47,47],"right_children":[2,4,6,8,10,12,14,16,18,20,22,24,26,-1,-1,28,30,32,-1,34,36,38,40,42,44,46,48,-1,-1,50,52,-1,54,-1,56,58,60,-1,-1,62,64,66,68,70,72,-1,-1,74,-1,-1,-1,-1,-1,-1,-1,-1,-1,-1,-1,-1,-1,-1,-1,-1,-1,-1,-1,-1,-1,-1,-1,-1,-1,-1,-1],"split_conditions":[2.73E2,1.4E-1,4.6153846E-1,2.2048788E0,5E1,2E0,1.0099E3,3.3E1,6.5597576E-1,1.4E1,7.8571427E-1,5.263158E-2,3.15E2,6.981694E-3,-1.0276663E-1,2.125E1,4.761905E-2,1.2138728E-1,1.18507184E-1,7.4285716E-1,3.3333334E-1,6.9E1,3.846154E-1,6.401426E-1,1.7948718E-1,7.297297E-1,6E0,1.0493385E-1,-8.483527E-3,9.52E1,3.448276E-2,9.573662E-2,3.448276E-2,7.277694E-2,2.2727273E-1,8.695652E-2,1.724138E-1,-1.6325345E-2,8.9903295E-2,1.5384616E-1,3E0,3.2234517E-1,5E0,1.1142857E0,3E0,-6.936951E-2,1.1178025E-2,3.75E-1,-1.2537921E-2,-2.9199997E-2,8.352323E-2,-3.9016776E-2,3.710013E-2,-9.584256E-2,4.479166E-2,-1.18070476E-1,1.8725608E-2,2.1743795E-2,-1.61617E-2,-6.003252E-3,-1.0053275E-1,-8.680912E-2,-3.7833966E-2,1.19454265E-1,-3.3279818E-2,7.5736366E-2,-4.2428102E-2,8.802038E-3,1.2426716E-1,-2.6602338E-3,8.785168E-2,1.15216235E-2,-8.898482E-2,1.0898E-1,1.3489484E-2],"split_indices":[10,1,23,13,5,4,9,43,26,14,30,20,10,0,0,12,17,1,0,33,22,5,23,15,21,34,5,0,0,9,22,0,22,0,19,24,21,0,0,34,40,15,5,28,40,0,0,19,0,0,0,0,0,0,0,0,0,0,0,0,0,0,0,0,0,0,0,0,0,0,0,0,0,0,0],"split_type":[0,0,0,0,0,0,0,0,0,0,0,0,0,0,0,0,0,0,0,0,0,0,0,0,0,0,0,0,0,0,0,0,0,0,0,0,0,0,0,0,0,0,0,0,0,0,0,0,0,0,0,0,0,0,0,0,0,0,0,0,0,0,0,0,0,0,0,0,0,0,0,0,0,0,0],"sum_hessian":[3.443646E2,2.581326E2,8.623199E1,2.9731182E1,2.2840141E2,8.2276115E1,3.9558764E0,2.143775E1,8.293432E0,1.636245E2,6.477691E1,6.226328E1,2.0012836E1,1.7979813E0,2.1578953E0,4.5397906E0,1.689796E1,4.767633E0,3.5257993E0,9.852942E0,1.5377156E2,3.3562636E0,6.1420647E1,1.58209305E1,4.644235E1,2.317239E0,1.7695597E1,2.7681577E0,1.7716328E0,3.5493898E0,1.334857E1,2.0218532E0,2.7457795E0,1.1338385E0,8.719104E0,1.3134903E2,2.2422527E1,1.6682183E0,1.6880454E0,5.420319E1,7.217456E0,4.841215E0,1.0979715E1,2.4720076E1,2.1722271E1,1.1566445E0,1.1605947E0,1.5998709E1,1.6968883E0,1.223983E0,2.3254068E0,1.0497159E1,2.8514109E0,1.6096064E0,1.1361731E0,7.306312E0,1.4127916E0,8.4611305E1,4.6737724E1,1.4847604E1,7.574923E0,1.591809E1,3.82851E1,1.6205688E0,5.596887E0,1.1348853E0,3.7063296E0,2.5723863E0,8.40733E0,1.4709251E1,1.0010825E1,1.4197011E1,7.5252595E0,1.3812024E1,2.186685E0],"tree_param":{"num_deleted":"0","num_feature":"46","num_nodes":"75","size_leaf_vector":"1"}},{"base_weights":[1.0004717E-2,3.566262E-1,-6.45313E-2,8.788867E-1,1.1898035E-1,1.8561987E-2,-2.6902923E-1,-2.11212E-2,9.8077285E-1,4.975671E-1,-2.4606906E-1,1.225696E-1,-1.4922738E-1,-9.669569E-2,-4.945451E-1,1.1099504E0,4.20106E-1,7.686966E-1,1.21189915E-1,-4.8671335E-1,7.231036E-1,3.5713536E-1,-4.677739E-2,7.6872826E-2,-3.8278443E-1,-2.1349345E-1,7.098818E-1,-1.0385063E-1,-8.812224E-1,1.1635732E-1,2.7310876E-2,8.0574594E-2,-2.1594062E-2,9.401397E-1,-2.4358787E-2,-4.4892973E-1,6.0225683E-1,-8.5634506E-1,-6.8513183E-3,1.3045588E-1,-1.572801E-2,5.8144784E-1,8.604654E-2,6.889736E-1,-1.14404574E-1,-6.001919E-1,2.2041816E-1,-5.082302E-1,2.7843347E-1,-3.389793E-1,4.736903E-1,1.2131937E-1,1.3902553E-2,3.1492764E-1,-4.9147278E-1,-9.5940614E-1,-1.2516478E-2,1.0814076E-1,1.8918836E-2,-4.372527E-2,3.886538E-2,5.2437007E-2,-9.167161E-2,8.574184E-2,-2.6989153E-2,6.512862E-2,-1.0869274E-1,4.3996684E-2,-7.9613306E-2,1.0374451E-2,8.464189E-2,-5.082829E-2,3.5815965E-2,-3.3347424E-2,1.1393817E-1,1.1853514E-2,-3.0016733E-2,2.037693E-2,-9.6006036E-2,9.221924E-2,